svm_type c_svc
kernel_type linear
nr_class 3
total_sv 9353
rho 0.999634 1.00033 1.00031
label 1 -1 0
nr_sv 3199 3473 2681
SV
5 1.825168938755022 967:1 1932:1 
5 0 381:2 795:2 1004:1 1609:2 1891:1 1947:4 
5 0 1318:1 1609:1 1656:1 1744:1 1799:1 1947:4 
0.6463197086569437 0 481:1 697:1 795:1 875:1 1244:1 1528:2 1603:1 1676:1 1759:1 1780:1 1799:1 1947:12 
5 0 760:1 1217:1 1318:1 1358:1 1365:1 1799:1 1942:1 1947:4 1999:1 
0 5 234:1 627:1 795:1 817:1 1358:1 1384:1 1690:1 1980:1 
0 0.638655227480681 58:1 364:1 1187:5 1318:1 1520:1 1744:3 1999:1 2001:1 
3.488228388586126 0 1222:1 1609:1 1826:3 1947:10 
0.867498071850708 0 1352:1 1656:3 1811:1 1947:2 
5 5 
5 0 372:1 1318:1 1358:1 1365:1 1829:1 1930:2 1931:1 1942:1 1947:6 
5 0 372:1 1318:1 1422:2 1434:1 1799:1 
5 0 1008:1 1365:1 1947:2 
5 0 642:1 732:1 795:2 1318:2 1340:1 1609:1 1623:1 1744:1 1799:1 1885:1 1947:6 
5 0 1318:1 1365:1 1376:1 1930:3 
5 0 515:1 1008:1 1365:1 1609:1 1947:4 
5 0 627:1 732:1 1326:1 1609:3 1799:1 1999:1 
5 0.4916563438451602 662:1 795:1 875:2 1690:1 1779:1 1826:1 1999:1 
0.6850788780401378 0 49:1 596:1 697:1 795:2 1008:1 1254:1 1318:1 1365:1 1744:3 1799:1 1826:2 1885:1 1947:6 
5 0 245:2 467:1 795:2 1325:1 1799:1 1947:4 
5 0 1652:1 1942:1 1947:2 
5 0 697:1 795:1 962:1 1365:2 1422:5 1609:1 1826:1 1930:2 1953:1 
5 0 24:1 1744:1 1747:1 1799:2 1826:2 1930:1 1947:6 
5 0 627:1 1008:2 1358:1 1780:1 1947:6 
5 0 1358:1 1484:1 1799:2 1947:6 
0 1.950821152233811 1187:1 1353:1 1365:1 1422:1 1928:1 
1.382790034561257 0 364:1 1358:1 1431:1 1680:1 1742:1 1799:2 1811:1 1826:2 1947:6 1959:1 
1.021928350234052 0 697:1 795:2 1008:1 1070:1 1318:1 1358:2 1494:1 1609:1 1656:1 1744:2 1930:1 1947:2 
5 0 672:1 697:2 795:2 1365:1 1696:1 1716:1 1744:1 1829:1 1885:1 1947:2 1953:1 1993:1 
5 0 795:1 1008:1 1744:1 1811:1 1942:1 1947:8 1999:1 
5 0 1008:1 1040:1 1318:1 1358:1 1546:1 1603:2 1930:2 1933:1 1947:8 
5 0 732:1 1406:1 1462:1 1494:1 1609:1 1891:1 1930:1 1931:1 1947:2 
5 0 234:1 572:1 1747:1 1947:10 1993:1 
5 2.527457225816168 245:1 1353:1 1571:1 1603:1 1747:1 1811:1 1826:1 1942:1 
0 0.9690300466500504 10:1 1187:1 1198:1 1318:1 1778:1 1931:1 
5 5 406:1 1780:1 
5 5 1358:1 1365:1 1565:1 1623:1 1656:1 1780:1 
5 0 732:1 1930:1 1947:2 
5 0 327:1 1318:1 1365:1 1826:1 1947:2 
5 0 1358:1 1365:1 1609:1 1716:1 1744:1 1799:4 1826:1 1885:1 1930:2 1947:4 
5 0 494:1 1358:3 1365:1 1744:1 1947:4 1999:1 
0 1.306909110808954 1443:1 1744:1 1999:1 
5 0 795:2 1365:3 1603:1 1947:2 
2.077460118478351 0 206:1 489:1 596:1 795:1 1244:3 1318:2 1366:1 1780:1 1930:2 1931:1 
5 0 277:1 1565:1 1811:1 1910:1 1913:1 1947:2 
5 0 795:1 1358:1 1365:3 1744:2 1931:2 1947:8 
0.9910427067407984 0.001741040972343446 515:1 1008:1 1609:2 1754:1 1928:1 
0 0.9532249096862241 1187:2 1365:2 1744:2 1799:4 1811:1 1867:1 1936:1 
5 0 198:1 327:1 697:1 1318:1 1358:2 1365:1 1648:1 1652:1 1947:2 1999:2 
0.09872064100071841 0 760:1 817:1 1008:1 1187:1 1282:1 1318:1 1340:1 1365:2 1504:1 1744:1 1799:3 1826:1 1836:1 1885:1 1947:8 
1.543636447711037 0 795:1 1244:1 1455:1 1534:1 1656:1 1780:1 1885:1 1931:2 1947:4 
5 0 795:1 1942:1 1947:4 1999:1 
5 0 795:1 1358:2 1365:3 1744:1 1799:1 1947:6 
5 0 795:1 1318:2 1358:3 1603:1 1744:1 1942:1 1947:6 
5 0 1318:1 1353:1 1603:1 1744:2 1799:1 1947:2 2000:1 
5 0 1008:1 1318:1 1325:1 1358:1 1520:1 1566:1 1744:2 1836:1 1947:2 
5 5 795:1 1358:2 1603:1 1780:1 1826:1 
5 0 627:1 1201:1 1358:2 1744:1 1779:1 1811:1 1826:1 1931:1 1947:6 1999:1 
0 5 875:1 1352:1 1358:2 1365:4 1744:1 1799:1 1811:1 
5 0 795:1 1358:4 1422:2 1799:1 1811:1 1870:1 1947:8 1999:1 
5 0 795:1 1318:1 1609:1 1799:2 1826:2 1892:1 1947:4 
5 0 795:2 1318:1 1885:1 1947:4 
5 0 1365:2 1799:2 1826:1 1885:1 1947:8 1953:1 
5 0 627:1 795:1 875:2 1318:1 1609:1 1811:1 1931:1 1947:4 
1.787261816570413 0 627:1 1244:1 1365:2 1422:1 1528:1 1586:1 1747:1 1755:1 1826:1 1930:6 1947:2 
5 0 697:1 795:1 1018:2 1318:1 1365:1 1431:2 1484:1 1716:1 1947:2 
0 0.9165155809454186 627:1 697:1 795:1 1312:1 1318:2 1365:1 1648:1 1759:2 1834:1 
0.2008624453125365 0 304:1 697:1 758:1 1318:2 1353:1 1446:1 1554:1 1609:1 1799:2 1826:1 1930:2 1947:10 
5 0 1201:1 1484:1 1779:1 1799:1 1942:3 1947:2 1979:1 2001:1 
3.032863654422149 0 384:1 795:3 1193:1 1318:1 1326:1 1609:3 1837:1 1947:6 1993:1 
5 0 418:1 1365:2 1695:1 1947:6 
5 0 1318:2 1365:1 1799:1 1826:2 1930:1 1947:2 
5 0 795:2 1365:6 1476:1 1799:2 1892:1 1947:10 1979:1 1999:1 
1.129081986584131 0 672:2 875:1 1422:1 1656:2 1744:2 1761:1 1834:1 1947:4 
5 0 245:1 697:2 795:1 796:1 875:1 1318:2 1358:2 1365:3 1609:1 1947:4 
1.343003458032449 5 49:1 1018:1 1318:1 1520:1 1744:2 1999:1 
5 0 912:1 1318:1 1365:1 1811:1 1947:6 
0.6207679541603021 0 49:1 334:1 515:1 667:1 697:1 707:1 795:1 816:1 961:1 1520:1 1534:2 1799:1 1930:1 1931:1 1947:2 
0.1400193884891399 0 1201:1 1265:1 1318:1 1365:2 1718:1 1747:1 1779:1 1947:2 
0.2232535278292101 0 312:1 875:2 1358:1 1528:1 1656:1 1747:1 1799:1 1930:2 1931:1 1947:2 
5 0 795:2 1365:1 1747:1 1799:2 1947:2 
0.1013795676156315 0 795:1 1318:1 1319:1 1520:1 1690:1 1747:2 1780:1 1947:2 
2.640928671055201 0 455:1 1318:1 1358:1 1528:1 1609:1 1885:1 1947:12 
0 0.7038606599998034 1318:1 1365:2 1476:1 1780:1 1799:1 1885:1 1999:1 
1.276368597654635 0 232:1 697:2 795:4 1365:1 1603:1 1826:1 1947:4 
1.24591466620258 0 697:1 795:1 1353:1 1365:1 1431:1 1642:1 1716:1 1799:1 1826:2 1947:10 1993:1 
1.586585829049806 0 596:1 1365:3 1484:1 1799:1 1833:1 1947:4 
5 0 732:1 795:2 1201:1 1318:1 1422:1 1609:3 1744:1 1811:1 1826:1 1947:10 
5 0 1318:1 1358:2 1534:1 1609:1 1744:1 1930:1 1999:1 
0.9998935001398138 1.119368038016415 129:1 337:1 381:1 795:1 1609:1 1656:1 
5 5 1318:1 1656:1 1744:1 2001:1 
5 0 697:1 1326:1 1365:1 1609:1 1799:2 1837:1 1930:1 1942:2 1947:2 1999:1 
3.254918073647266 0 358:1 697:1 1318:1 1566:1 1682:1 1930:1 1947:2 
0.4100631958072763 0 482:1 795:1 875:3 1264:1 1358:1 1528:1 1557:1 1826:1 1947:6 
5 0 1365:1 1656:1 1947:10 1999:1 
5 0 245:1 795:3 1244:1 1312:1 1365:1 1484:1 1690:1 1744:1 1799:2 1886:1 1947:4 
3.790671524272061 0 156:1 697:1 795:1 1318:2 1353:1 1528:1 1554:1 1744:1 1799:2 1826:1 1947:8 
5 0 697:1 795:2 1318:3 1365:1 1376:1 1565:1 1690:1 1780:1 1930:3 1947:2 2000:1 
0 0.9997192422257778 875:1 1358:1 1365:1 1475:1 1528:1 1741:1 1990:1 
5 0 627:1 795:2 1365:1 1422:1 1609:2 1690:1 1779:1 1930:7 1931:1 1932:1 1947:8 
5 0 418:1 1609:1 1826:1 1928:1 1930:2 2001:1 
5 5 795:1 1358:1 1609:2 1826:2 1967:1 1999:1 
5 0 795:1 1358:1 1422:1 1484:1 1826:6 1942:1 
1.845972422452717 0 126:1 485:1 516:1 627:1 795:1 1744:1 1930:1 
5 0 1318:1 1353:1 1603:1 1695:1 1799:2 1885:1 1947:4 
5 5 1008:1 1780:1 
0 4.080480751593522 642:1 1187:8 1431:1 1656:1 1826:4 
5 0 1365:1 1528:1 1609:2 1947:6 1999:1 
5 0 697:1 795:2 875:1 1353:2 1358:1 1603:1 1947:4 
5 0 795:1 1008:1 1229:2 1744:1 1826:1 1930:3 1947:2 
1.439625027584897 0 358:1 697:1 795:1 1358:1 1365:1 1744:1 1887:1 1942:2 1947:4 1959:1 1979:1 
0.378039670806515 0 795:1 871:1 924:1 1008:1 1353:1 1429:2 1431:1 1799:2 1836:1 1891:1 1947:8 
5 1.932350147934726 418:1 1008:1 1370:1 1520:1 1892:1 
1.369608971685831 0 156:1 630:1 817:1 875:1 1358:1 1547:1 1656:1 1826:1 1947:6 
5 0 837:1 875:1 1201:1 1365:2 1422:1 1475:1 1484:1 1799:2 1947:8 2000:1 
5 0 1008:2 1799:1 1947:4 1993:1 
5 0 795:5 804:2 1358:1 1365:2 1947:16 
5 0 627:1 1318:1 1353:1 1358:1 1431:1 1603:1 1744:1 1799:1 1885:1 1947:6 1999:1 
5 0 1201:1 1244:2 1365:2 1520:1 1603:2 1716:2 1744:1 1947:6 
5 0 627:1 795:1 1422:1 1494:1 1609:1 1716:1 1799:2 1811:1 1930:1 1947:2 
5 0 795:1 1318:1 1362:1 1365:1 1528:1 1744:2 1931:1 1947:2 
0.04151800710546164 0 35:1 627:1 697:1 1325:1 1358:2 1528:1 1656:2 1744:1 1794:1 1811:1 1836:1 1930:7 1947:10 
5 0 1201:1 1318:2 1358:1 1603:1 1947:4 
5 0 795:1 1358:1 1826:2 1947:6 
5 0 627:1 795:1 1365:2 1423:1 1609:2 1716:1 1826:2 1947:8 
5 0 697:1 1201:1 1358:1 1528:1 1744:2 1748:1 1799:1 1839:1 1891:1 1947:4 
5 5 1201:1 1318:2 1656:2 1826:1 1953:1 1999:1 
4.34966013105463 0 795:2 1318:1 1353:4 1747:1 1826:1 1930:1 2001:1 
5 0 1318:1 1365:3 1942:1 
5 0 795:1 1358:1 1656:1 1744:1 1947:6 
5 0 571:1 1318:1 1325:1 1546:1 1571:2 1744:2 1799:1 1826:1 1947:4 2001:1 
5 0 58:1 1244:1 1318:1 1358:3 1431:1 1494:1 1819:1 1931:2 1947:6 
5 0 627:1 732:1 1358:1 1365:1 1603:1 1799:3 1836:1 1947:4 
1.010376139209567 0 136:1 572:1 795:1 1198:1 1201:1 1325:1 1799:1 1947:8 
5 0 467:1 804:1 1744:1 1780:1 1931:1 1947:6 
5 0 572:1 1931:3 1947:4 
0.737665648985365 0 204:1 1201:1 1528:1 1656:1 1811:2 1947:2 
5 5 
5 0 433:2 1312:1 1318:1 1358:2 1799:2 1947:4 
5 0 1318:1 1352:1 1358:1 1365:1 1484:1 1744:1 1930:2 1947:6 
5 0 795:1 1318:1 1365:1 1484:2 1609:1 1690:2 1799:1 1811:1 1826:1 1947:6 
5 0 795:3 1358:3 1365:1 1603:2 1811:1 1947:14 
5 0 795:2 1318:1 1340:1 1353:1 1358:1 1365:1 1609:1 1656:1 1826:1 1829:1 1930:1 1947:8 1999:1 
1.766772539296245 0 1008:2 1528:1 1841:1 1947:2 1953:1 
5 0 795:1 1318:1 1603:1 1780:1 1822:1 1931:1 1947:6 
5 0 795:1 966:1 1358:2 1716:1 1799:1 1936:1 1947:4 
0 0.5067179935815171 381:1 1325:1 1358:1 1365:4 1484:1 1565:1 1625:1 1695:4 1744:1 1942:1 
5 0 441:1 795:1 1365:1 1422:1 1744:1 1799:1 1826:1 1947:2 
0.2949789582342547 0 327:1 795:5 1318:1 1358:1 1365:1 1406:1 1565:1 1656:2 1942:1 1947:2 
5 5 572:1 1744:1 
5 0 1318:1 1365:1 1418:1 1431:1 1494:1 1695:1 1930:2 
5 0 795:2 1365:1 1546:1 1609:1 1716:1 1947:8 
0.2207081802749657 0 764:2 795:4 1040:1 1187:2 1422:1 1510:2 1799:1 1947:2 
5 0 966:1 1318:2 1947:8 
5 0 795:1 1008:1 1326:1 1422:1 1780:2 1799:1 1947:4 
5 0 1318:1 1358:1 1365:1 1947:4 
5 0 795:3 875:1 1422:1 1431:1 1799:1 1826:2 1885:1 1947:4 
0 0.2513734159096589 642:1 1318:1 1358:1 1365:3 1484:1 1533:1 1565:2 1603:1 1620:1 1744:1 1826:1 1839:1 1990:1 1991:1 
5 0 697:1 795:2 1365:1 1609:1 1799:1 1826:2 1930:1 1947:4 
5 0 697:2 795:4 1201:1 1318:3 1365:1 1826:1 1931:1 1947:6 
0 2.708644265764033 697:1 795:1 1008:1 1201:2 1286:1 1318:1 1565:1 1656:1 1779:3 
5 5 795:1 1318:1 1365:1 1520:1 1609:1 1716:1 1744:3 1811:1 1899:1 
0.1549844073127987 0 1318:1 1358:1 1365:1 1366:1 1565:1 1947:2 
5 0 627:1 1365:2 1565:1 1701:1 1744:1 1747:1 1799:1 1836:1 1942:1 
5 0 1695:1 1826:1 1930:1 1931:1 
5 0 566:1 795:2 1018:1 1318:1 1353:1 1431:1 1568:1 1656:2 1799:1 1947:4 
5 0 627:1 1656:1 1811:1 1947:4 
5 0 790:1 795:2 1365:1 1422:1 1528:1 1546:1 1609:1 1799:2 1826:2 1930:1 1947:6 
1.55836763669026 0 627:1 817:1 1244:1 1352:1 1353:1 1384:1 1431:1 1520:1 1609:1 1716:1 1885:1 1930:1 1931:1 1947:6 
0.7125003374069364 1.029981533162547 795:1 1318:1 1358:1 1365:1 1418:1 1431:1 1609:1 1701:1 1826:1 1834:1 
5 0 1040:1 1365:1 1656:2 1744:1 1947:4 
0.1180246449481452 0 333:1 795:3 1365:2 1799:1 1928:1 1930:2 1942:1 1947:10 
0.8847435101273752 1.853097711147206 524:1 795:3 817:2 1358:1 1510:5 1511:1 1971:1 1980:2 
5 0 627:1 795:1 1365:1 1528:1 1744:1 1747:1 1780:1 1799:2 1826:1 1932:1 1947:2 2000:1 
1.187210059743942 5 627:1 1422:5 1799:4 1885:3 
5 0 732:1 795:2 1008:1 1431:1 1656:1 1744:1 1947:2 
5 0 327:1 795:1 1318:1 1365:2 1716:1 1779:1 1826:1 1846:1 1930:3 1947:6 2000:1 
5 0 697:1 1603:1 1609:1 1886:1 1942:1 1947:8 
0.3259952346198843 0 50:1 627:1 662:1 800:1 817:1 918:2 1187:1 1261:1 1318:1 1520:1 1701:2 1744:1 1780:1 1799:1 1891:1 1999:1 
5 0 795:2 1358:2 1365:1 1422:1 1682:1 1826:3 1947:4 
4.202151385447323 0 795:1 1365:1 1504:1 1725:1 1744:1 1837:1 1947:2 1979:1 
0.2095584615620618 0 159:1 206:1 319:1 596:1 662:1 795:4 1229:1 1380:1 1418:1 1511:1 1811:1 1834:2 1930:1 1931:3 1947:4 
5 0 1422:3 1947:6 1999:1 
2.014831525187607 0 795:2 1811:1 1822:3 1947:2 
0.5877893643464789 0 206:1 805:5 1326:1 1358:2 1422:4 1744:1 1947:6 1983:1 1999:1 
5 0 119:1 364:1 760:1 795:1 872:1 1244:1 1352:1 1541:1 1603:1 1609:1 1780:2 1947:8 
0 1.305439811408033 571:1 1008:1 1358:1 1362:1 1365:1 1546:1 1656:1 1670:1 1744:1 1779:1 1999:1 2000:1 
5 0 245:1 795:3 1318:1 1358:1 1365:1 1528:1 1565:1 1623:1 1747:1 1799:1 1947:2 
5 0 953:1 1358:2 1365:2 1718:1 1747:1 1799:2 1947:2 
1.012129197914713 0 697:1 1189:1 1365:1 1494:1 1656:1 1690:1 1947:6 
3.430367357951914 0 376:1 627:1 1422:1 1494:1 1747:1 1799:3 1885:1 1947:2 
5 0 103:1 795:2 1365:1 1609:2 1799:1 1811:1 1826:2 1892:1 1947:10 
5 5 
0.2256973940774339 0 795:1 875:1 1358:1 1603:1 1656:1 1744:1 1826:1 1846:1 1930:2 
0 1.993835619414876 627:1 973:1 1318:2 1365:1 1422:1 1778:1 1780:1 
5 0 1229:1 1365:2 1947:2 
0.4240710998194014 0 234:1 327:1 364:1 572:1 656:1 795:2 807:1 1008:1 1326:1 1547:1 1947:4 
0.06024946662913276 0 106:1 795:1 1546:1 1695:1 1795:1 1837:1 1947:6 
5 0 795:3 1365:2 1712:1 1799:1 1826:1 1930:1 1947:4 1999:1 
0 5 24:1 1695:2 1757:1 
4.4112500337068 4.277601324254733 516:3 875:1 1716:1 1931:3 
5 0 300:1 433:2 516:1 697:1 1358:1 1947:10 1999:2 
5 0 1229:1 1365:1 1603:1 1656:1 1685:1 1744:1 1947:6 
5 5 837:1 1008:1 
0.7511120473841512 0 372:1 795:1 1493:2 1609:1 1744:1 1799:1 1947:4 
5 5 
5 0 1318:1 1365:2 1779:1 1826:1 1834:1 1947:6 
0.7083487591264185 0 418:1 795:1 1318:1 1353:1 1431:1 1603:1 1609:1 1744:1 1780:1 1799:1 1826:1 1947:6 1999:1 
1.239267495570042 0 381:1 642:1 1160:1 1358:4 1528:2 1947:8 
1.353302171937706 0 107:1 795:2 1358:2 1365:2 1603:2 1942:1 1947:6 
5 0 795:2 1565:1 1780:1 1885:1 1892:1 1947:4 
0.2939114569060177 0 1008:1 1422:1 1494:1 1528:1 1534:1 1608:1 1609:2 1826:1 1931:1 1936:1 1947:6 1999:1 
5 0 24:1 627:1 795:1 1244:1 1365:1 1546:1 1571:3 1603:1 1744:1 1799:1 1811:4 1947:2 
0 5 627:1 1318:1 1365:2 1565:1 1603:3 1799:1 1999:1 
4.283265195440577 3.598180025606793 245:2 327:1 872:1 1008:4 1318:2 1365:1 1528:1 1695:1 1989:1 
5 0 795:1 875:1 1318:1 1365:1 1609:1 1930:2 1932:1 1947:6 1999:1 
5 5 
1.13634074826475 0 314:1 795:2 837:1 1008:1 1358:2 1365:1 1744:2 1931:2 1947:2 1999:1 
0 0.9744272898741343 795:2 1008:1 1187:2 1352:1 1365:1 1429:1 1528:2 1546:1 1656:2 1737:1 1778:1 1999:1 
5 0 966:1 1534:1 1603:1 1799:1 1891:2 1947:4 2001:1 
3.428141921781195 0 697:1 760:1 795:1 1201:1 1318:3 1358:2 1365:1 1747:1 1811:1 1947:2 
2.54786766480324 0 795:1 796:1 841:1 1353:1 1365:1 1390:1 1422:1 1520:1 1947:12 1999:1 
5 0 795:1 875:1 1318:1 1422:3 1826:1 1930:4 1942:1 1947:8 
5 0 1744:1 1930:2 1947:2 1964:1 
5 0 1365:1 1799:1 1811:1 1947:4 
4.267155237610581 3.994908801368354 433:2 1325:1 1358:1 1365:3 1597:1 
5 5 795:1 1365:2 1799:1 
5 0 732:2 1799:1 1892:1 1947:4 
2.334557588389035 0 119:1 662:1 694:1 1358:2 1431:1 1799:1 1837:1 1903:1 1947:14 
0.6566504096153417 0 304:1 672:1 795:1 796:1 836:1 929:1 1223:1 1318:1 1947:2 
5 0 795:1 1318:1 1358:1 1365:1 1484:1 1528:1 1799:1 1885:1 1947:4 1959:1 
5 0 795:2 1326:2 1656:1 1744:1 1826:1 1947:6 
5 0 515:1 837:1 1358:1 1365:2 1744:1 1836:1 1947:4 
5 0 875:1 1528:3 1826:1 1870:1 1931:3 1947:2 
5 0 1365:2 1603:1 1656:1 1799:1 1826:1 1829:1 1947:6 
5 0 482:1 697:1 1358:1 1365:1 1422:1 1609:1 1744:1 1930:2 1947:2 
5 0 795:1 1481:1 1597:1 1930:2 1947:12 1999:2 
5 0 107:1 514:2 662:1 760:1 795:2 1008:2 1603:1 1656:2 1799:3 1826:1 1885:2 1947:4 
5 0 107:1 455:1 1365:1 1799:1 1947:2 
5 0 572:1 967:1 1365:1 1366:1 1826:1 1842:1 1947:2 
0 5 697:1 795:1 1187:1 1365:3 
1.968239028818215 0 795:1 1434:1 1744:2 1799:2 1947:4 
1.961809811394678 0 1040:1 1244:1 1318:1 1563:1 1603:1 1799:2 1811:1 1931:1 1933:2 1947:8 
0.4562139116266848 0 236:1 795:3 1008:1 1318:1 1511:1 1528:2 1826:2 1947:6 
5 0 697:1 1365:1 1947:2 
5 0 566:1 817:1 1201:2 1609:1 1947:12 
5 0 515:1 795:1 1358:2 1365:3 1744:2 1799:1 1826:1 1885:1 1947:2 1993:1 
5 0 1217:1 1353:1 1365:1 1528:1 1747:1 1799:3 1930:2 1947:2 1999:1 
5 0 697:1 795:1 1325:1 1376:1 1799:2 1826:1 1930:4 1947:8 
5 0 319:1 795:1 1358:1 1365:1 1744:2 1799:2 1930:1 1947:6 1953:1 
5 5 
1.886266482938249 0 795:3 796:1 1335:1 1780:1 1947:6 
5 0 795:1 1318:1 1365:1 1609:1 1931:1 1932:1 1947:2 
5 0 1947:2 
0 0.1319349117781953 732:2 1318:1 1358:2 1422:1 1780:1 1890:1 1942:1 
5 0 683:1 795:2 837:1 1358:1 1365:1 1799:1 1947:6 1993:1 
0 5 1187:1 1520:1 1799:1 1826:1 
5 0 1008:1 1318:1 1358:1 1365:2 1780:1 1947:2 
0.8252622328797056 0 245:1 837:1 1341:1 1353:1 1365:1 1603:1 1620:1 1748:1 1822:1 1826:1 1885:2 1947:10 
0.3314479494107047 0 566:2 795:2 1008:1 1318:1 1365:2 1528:2 1682:1 1744:1 1799:2 1826:2 1930:1 1947:4 1953:1 
0 2.067288490784248 319:1 837:1 1414:1 1422:1 1528:1 1826:1 
5 0 875:1 1318:1 1358:1 1799:1 1811:1 1885:1 1947:4 
2.000269897012961 0 1826:1 1898:1 1947:2 
5 0 795:7 875:2 882:1 1358:2 1362:1 1609:1 1885:1 1947:8 2001:1 
5 0 24:1 206:1 795:2 1494:1 1609:1 1780:1 1826:1 1947:4 
5 0 572:1 795:2 1744:1 1780:1 1947:10 1999:1 
5 5 
0.2766167560914132 0 146:1 245:3 627:1 662:1 795:1 1041:1 1244:2 1304:1 1318:3 1358:1 1609:1 1695:1 1725:1 1744:3 1799:1 1826:1 1885:1 1947:6 
5 0 572:2 627:1 697:1 795:1 1358:1 1656:1 1799:1 1811:2 1826:1 1947:4 
0 1.995024696228841 1325:3 1744:2 1780:1 1938:1 
5 0 1244:1 1799:1 1938:1 1999:1 
5 5 
5 5 
5 0 1365:2 1947:2 
5 0 35:1 571:1 1353:2 1695:1 1799:2 1811:1 1947:2 
5 5 
5 0 627:1 1365:1 1826:1 1947:6 2001:1 
5 0 1431:1 1716:1 1744:3 1799:3 
5 0 627:1 837:1 1358:1 1716:1 1799:1 1930:4 1931:2 1947:2 
5 5 
5 0 795:1 1365:2 1554:1 1609:1 1826:3 1930:5 1942:1 1947:8 
5 5 
5 0 627:1 697:1 1358:1 1744:1 1780:1 1811:2 1930:1 1931:3 1947:6 1999:2 
2.14068832775914 0 697:1 795:1 875:1 1260:1 1609:1 1799:1 1811:1 1947:6 2000:1 
5 0 627:1 804:1 1476:1 1603:1 1695:1 1744:1 1932:1 
5 0 795:1 1318:3 1365:1 1520:1 1744:3 1811:2 1947:4 1999:1 
2.601793013864457 0 697:2 795:1 983:2 1201:1 1229:1 1318:2 1365:1 1744:1 1811:1 
0.3927837038850616 0 572:1 1422:2 1533:1 1747:1 1864:1 1947:8 
0.4828484156731251 0 795:1 1358:2 1378:1 1436:1 1609:1 1744:1 1796:1 1947:6 
5 0 795:1 1826:1 1930:3 1931:1 1942:1 1947:4 
5 0 1229:1 1358:3 1418:1 1603:1 1744:1 1799:2 1835:1 1930:1 
5 0 1008:1 1358:1 1365:1 1744:2 1930:1 1942:1 1947:10 1999:1 
0.0111809530857379 0 334:1 1229:1 1318:2 1358:1 1609:1 1617:1 1822:1 1940:1 
5 5 
0.8303863735378461 0 697:2 1318:2 1365:2 1603:1 1781:1 1947:2 
0 4.612875398777877 795:2 875:1 1187:2 1422:5 1609:1 1799:2 1836:1 1945:1 1946:1 
5 5 
5 5 627:1 795:1 1318:1 1609:1 1885:2 1931:2 
5 0 364:1 1358:1 1365:1 1376:2 1826:1 1930:1 1947:2 
2.121059015017438 0 662:1 796:1 1244:1 1358:1 1365:2 1429:1 1486:1 1656:1 1947:2 1953:1 
1.280112029854987 0 1365:1 1476:1 1546:1 1597:1 1656:1 1932:1 1947:4 1999:1 
2.903520050655166 0 1234:1 1799:1 1828:1 1930:1 1947:6 
5 0 572:1 1358:1 1422:1 1494:1 1517:1 1534:1 1609:1 1864:1 1882:1 1947:8 
4.26705962239201 0 795:1 1244:1 1318:1 1358:1 1656:1 1744:1 1795:1 1910:1 1930:1 1947:6 
1.800681742598425 0 126:1 319:2 516:1 817:1 1008:1 1018:1 1318:2 1546:2 1719:1 1758:2 1799:1 1989:1 
5 0 35:1 1318:1 1358:1 1484:1 1546:1 1609:1 1779:1 1799:1 1826:1 1942:1 1947:4 1999:1 
5 0 795:3 875:2 1365:1 1534:1 1554:1 1609:2 1930:1 1947:4 
1.405166171482259 0 697:1 795:1 1716:1 1744:1 1747:1 1776:1 1930:1 1947:4 1959:1 1993:1 
0.1703418300095826 0 732:1 1156:2 1353:1 1431:1 1534:2 1747:1 1930:1 1947:4 
5 5 
5 0 49:1 1318:1 1365:1 1528:1 1718:1 1744:1 1811:1 1931:4 1947:4 
1.692382744541398 2.000101060073183 795:1 875:1 968:1 1484:1 
5 5 
5 0 795:1 1018:1 1365:2 1609:2 1690:1 1799:1 1885:1 1930:2 1942:1 1947:4 1993:1 2000:1 
0 1.735326219320519 327:1 627:1 795:3 1358:1 1725:1 
5 0 1318:2 1365:1 1554:1 1930:1 1947:6 
5 0 552:1 627:1 1427:1 1565:1 1652:1 1744:1 1931:1 1932:1 1942:1 1947:8 1999:1 
2.107731066809156 0 662:3 795:2 1318:3 1737:1 1747:1 1799:1 1930:2 1947:2 
0 0.06907736103873797 126:2 383:2 855:4 983:2 1025:1 1187:6 1931:1 
5 5 
5 0 662:1 1318:1 1429:1 1744:1 1779:1 1799:4 1947:4 
5 0 1008:1 1656:1 1690:1 1799:2 1947:2 
1.838388889149789 0 327:3 760:1 805:1 872:1 943:1 1318:1 1358:1 1365:1 1510:1 1603:1 1744:1 1931:1 1947:6 
5 1.929339604270668 102:1 1318:1 1358:1 1365:1 1528:1 1799:2 1885:1 
5 0 441:1 1318:2 1947:4 
0.6213761470025864 0 627:1 1365:1 1528:1 1609:1 1716:1 1744:1 1799:2 1822:1 1826:1 1867:1 1930:2 1947:2 
5 0.9940840359542386 327:2 1318:3 1358:2 1365:1 1520:1 1744:1 1893:1 1930:1 
5 5 
5 0 697:1 795:2 1318:1 1365:1 1609:2 1690:1 1930:1 1931:1 1947:2 
0.5044231044811135 0 642:1 732:1 990:1 1747:1 1885:1 1942:1 1991:1 1999:2 
5 5 
5 0 795:3 875:1 882:1 967:1 1656:1 1744:1 1780:1 1799:2 1826:1 1947:10 
5 0 1318:2 1609:2 1778:1 1799:1 1947:6 
4.582227009704973 0 49:1 566:1 795:3 1040:1 1318:1 
0 2.003407760167876 875:1 882:1 1018:1 1244:3 1318:1 1376:1 1486:1 1656:1 1744:1 1999:1 
5 0 697:1 817:1 1318:2 1656:1 1744:1 1811:1 1826:1 1930:1 1942:1 1947:8 
5 5 
5 5 
5 5 
5 5 
5 0 381:2 1008:1 1358:1 1799:1 1811:2 1947:2 1989:1 
0.4779576410529821 0 10:1 697:1 817:1 1318:1 1365:2 1378:1 1380:1 1431:1 1528:1 1947:4 
2.163811700652882 0 627:1 662:1 697:1 1318:1 1716:1 1744:2 1799:1 1930:4 1947:4 1957:1 
5 5 
0.4878489561607007 3.116399460976971 795:1 1318:2 1365:1 1494:1 1546:1 1555:1 1609:1 1708:1 1744:2 1799:2 1885:1 1999:1 2000:1 
5 5 
5 0 627:1 837:1 1365:1 1476:1 1546:1 1603:1 1695:1 1744:2 1930:2 1947:8 
5 0 1358:2 1528:1 1565:1 1609:2 1744:2 1799:2 1811:1 1826:3 1930:2 1947:4 
0 5 572:1 1318:1 1352:1 1826:1 1903:1 
5 0 672:1 1318:1 1334:1 1358:1 1623:1 1744:1 1947:6 1999:1 
5 0 683:1 795:1 1325:1 1484:1 1494:1 1609:2 1716:1 1744:2 1799:1 1947:2 
5 0 627:1 707:2 795:2 1358:1 1643:1 1799:1 1826:1 1947:8 1999:2 
5 0 795:2 1008:1 1165:1 1318:1 1365:2 1422:1 1673:1 1826:1 1930:3 1931:1 
5 0 1358:1 1603:1 1744:1 1826:1 1947:4 
0 5 795:1 875:1 1187:1 1353:1 1358:1 1431:1 1656:2 1744:1 1811:1 1931:2 1999:1 
1.745026442306448 0 418:2 795:1 1358:1 1473:1 1716:1 1744:1 1811:2 1947:10 
5 0 795:1 1358:3 1365:2 1656:1 1947:2 
1.881680236946109 0 84:1 236:1 732:1 990:1 1318:1 1365:2 1528:1 1799:1 1942:1 1947:6 1993:1 1999:1 
5 0 795:2 1008:1 1011:2 1318:1 1947:4 
1.334658306152408 0 795:1 1318:1 1656:3 1799:1 1885:1 1947:4 1999:1 
0 4.094390429551127 1187:1 1358:1 1365:1 1534:1 1826:1 
0.7060660831761899 0 642:1 795:2 966:1 1326:1 1358:1 1365:1 1759:1 1779:1 1947:4 
5 0 1318:1 1358:1 1365:1 1603:1 1609:2 1811:1 1885:1 1993:1 
5 0 795:1 875:1 1318:1 1326:1 1365:1 1528:1 1931:1 1942:1 
3.38805067773465 0 234:1 327:1 795:1 1365:1 1528:1 1534:2 1744:1 
5 5 875:1 1744:2 1811:1 1826:3 
5 0 207:1 795:1 1201:2 1318:3 1520:1 1565:1 1656:1 1811:1 1826:2 1885:1 1947:2 
5 0 319:3 1008:1 1318:1 1365:3 1484:1 1799:2 1947:2 
5 5 
0 4.318921740481768 364:1 795:1 817:1 875:1 1187:2 1358:1 1365:1 1690:1 
5 5 
5 5 732:1 795:1 1318:1 1780:1 1799:2 
1.633537040633044 0 162:1 795:1 1358:1 1811:1 1947:4 
1.480868818965289 0 156:1 875:1 1018:1 1244:1 1365:3 1744:1 1748:1 1799:3 1826:1 1834:1 1885:2 1913:2 1930:1 1931:1 1935:2 1947:8 1953:1 1993:1 1999:2 
5 5 
3.96702558078277 2.000401831524806 795:1 1224:1 1352:1 1826:1 
4.663866150347845 0 795:2 1325:1 1799:2 1826:1 1930:3 1931:2 1947:4 1967:1 1979:1 1985:1 1999:1 
5 0 418:1 795:4 1008:1 1318:1 1358:3 1431:1 1780:1 1811:1 1947:6 
5 0 627:1 795:2 1318:2 1365:1 1376:1 1481:1 1690:1 1931:1 1947:4 1999:1 2000:1 
5 5 
5 0 441:1 1609:1 1811:1 1826:5 1891:1 1930:1 1942:1 1947:4 
1.827319312512049 0 1303:1 1318:1 1365:1 1609:1 1930:2 
3.451913745843025 0 628:1 760:1 1571:1 1836:1 1930:1 1947:2 
1.235034122773242 0 697:1 795:1 1365:2 1422:1 1656:1 1839:1 1947:6 
5 0 571:1 875:1 1211:1 1318:2 1609:1 1826:6 1941:1 1947:4 
5 5 672:2 1358:1 1365:2 1811:1 1826:1 
5 0 627:1 795:1 1358:1 1365:1 1565:1 1826:1 1930:5 1947:10 
1.591182756388078 0 1244:1 1365:1 1533:1 1554:1 1609:1 1656:2 1744:1 1826:1 1947:4 
5 0 352:1 795:1 1008:2 1358:1 1690:1 1744:1 1780:1 1826:1 1930:2 1947:2 
1.245767536512933 0 1365:1 1484:1 1494:1 1520:1 1528:1 1567:1 1780:1 1799:1 1836:1 
0 1.12976611088712 627:1 795:2 1429:1 1826:2 1953:1 1957:1 1976:1 
5 0 234:1 795:1 1318:1 1744:2 1947:4 
1.199793804844915 0 1008:1 1365:1 1603:1 1716:2 1799:2 1930:2 1997:1 
5 5 1318:1 1365:2 1799:1 
4.294964068113198 0 1358:1 1365:3 1690:1 1780:1 1799:1 1826:1 1947:2 
0.3440957239997003 0 352:1 732:3 1744:1 1799:1 1931:1 1947:2 1999:1 
5 0 1358:2 1365:1 1747:1 1931:1 1942:1 1947:4 
2.912289850294811 0 795:1 875:1 1365:1 1565:3 1603:1 1609:4 1799:2 1811:2 1826:3 1892:2 1947:12 1999:1 
5 5 
5 0 795:1 1318:1 1358:1 1656:1 1780:1 1799:3 1931:1 1947:6 
0 5 319:1 732:1 795:2 1008:1 1365:1 1744:1 1811:1 1964:1 
5 0 795:1 1365:1 1811:1 1892:1 1947:2 
0.5566495959966657 0 697:1 795:1 1318:1 1745:2 1930:1 1931:2 
5 0 516:1 662:1 1358:1 1484:1 1780:1 1811:1 1947:8 1999:1 
5 0 795:1 1068:1 1365:1 1799:5 1826:2 1892:1 1947:4 
0.3678661909605738 0 795:1 1002:1 1008:1 1294:1 1716:2 1744:1 1928:1 1930:1 1947:6 
5 0 1520:2 1528:1 1603:1 1780:1 1930:1 1947:2 
5 0 1018:1 1229:1 1358:1 1365:1 1484:1 1609:2 1716:1 1744:1 1912:1 1913:1 1930:1 1947:2 
5 0 817:1 1484:1 1565:1 1747:1 1826:1 1885:1 1886:1 1942:1 1947:6 
0 2.045086066778444 875:1 1193:1 1719:1 1811:2 1864:1 
5 0 795:1 1365:1 1422:1 1609:1 1747:1 1779:1 1799:2 1826:2 1947:4 
1.701919077215529 0 205:1 697:1 795:1 875:1 962:1 1365:2 1779:1 1799:1 1826:1 1885:1 1947:4 1979:1 1999:1 
2.571252872516877 0 1656:3 1744:1 1829:2 1947:2 
5 0 795:1 1365:1 1476:1 1799:1 1947:2 
0 1.330038082175035 642:1 1189:1 1318:2 1325:2 1358:1 1365:1 
0.2447123563668452 0 107:1 627:1 795:1 999:1 1358:2 1528:1 1744:1 1799:2 1826:1 1855:1 1930:1 1947:4 
5 0 967:1 1744:1 1947:2 1999:1 
4.517771191820318 0 479:1 1353:2 1358:1 1534:3 1656:2 1708:1 1744:1 1780:1 1811:3 1942:1 1947:8 1989:2 
0.2218769918673103 0 662:1 1008:1 1318:1 1365:1 1520:1 1609:1 1719:1 1744:1 1799:2 1811:1 1932:1 1947:2 
0 1.374336045596071 795:2 799:1 1318:2 1358:1 1365:1 1571:2 1620:1 1799:1 1885:1 
0 5 662:1 1193:1 1229:1 1318:1 1422:2 1431:1 1799:2 1811:1 1885:1 
0 5 795:1 875:1 1358:1 1365:1 1609:1 1780:1 1980:1 
5 5 
3.600424613175939 0 384:2 627:1 1229:2 1318:1 1656:1 1690:1 1695:1 1780:1 1811:1 1837:1 1947:4 
3.843878352453602 0 433:2 795:3 1229:1 1244:1 1365:2 1565:1 1779:1 1826:1 1929:1 1930:3 1932:1 1947:4 1979:1 
5 0 795:2 1318:1 1365:1 1376:1 1744:1 1747:1 1799:1 1947:4 
2.102412892248522 0 795:1 1358:1 1365:1 1799:1 1826:1 1885:1 1930:7 1947:4 1973:1 
2.564371409066837 0 627:1 1318:3 1352:1 1358:1 1365:1 1484:1 1609:1 1656:1 1716:1 1744:2 1799:1 1913:1 
5 0 627:2 795:1 1476:1 1747:2 1799:3 1826:1 1931:2 1942:1 1947:4 
0.09372681548045912 0 804:1 1318:1 1353:1 1358:2 1365:2 1886:3 1930:3 1947:10 1999:1 
5 0 627:1 875:1 1008:2 1358:1 1365:1 1528:2 1609:1 1947:10 
0 1.286284374667696 795:2 1318:3 1434:1 1744:1 1980:1 
5 0 364:1 627:1 1016:2 1318:4 1358:1 1422:4 1716:1 1930:1 1947:4 
5 0 627:1 732:2 795:3 875:1 1810:1 1930:1 1947:2 
5 0 662:1 1534:2 1603:1 1614:1 1780:3 1826:1 1885:1 1930:1 1947:4 1959:1 
1.081140596606093 0 120:1 171:1 795:3 1008:1 1318:2 1358:2 1365:1 1528:1 1609:1 1799:3 1826:1 1836:1 1885:1 1947:10 
5 0 515:1 795:1 1018:1 1365:1 1826:1 1892:1 1947:2 
1.476733430879011 0 683:1 837:1 1008:1 1201:1 1365:2 1520:1 1799:1 1826:1 1932:1 1947:8 
0 1.206205526746641 120:1 206:1 795:1 1187:1 1358:1 1365:3 1692:1 1725:1 1780:1 1959:1 2000:1 
0 0.04335963828334025 515:1 648:1 795:3 867:1 1174:1 1358:3 1365:4 1546:3 1557:1 1696:1 1725:1 1747:1 1811:2 1826:1 2000:1 
4.451379703907175 0 697:1 795:1 837:1 1431:1 1494:1 1820:1 1930:1 1947:2 
0.3523857926517979 0 1008:1 1656:2 1744:3 1748:1 1845:1 1921:1 1947:4 
5 0 867:1 1481:1 1609:1 1799:1 1811:1 1826:5 1947:6 
5 0 1318:1 1609:1 1826:1 1947:2 
5 0 111:1 627:1 793:1 967:1 1008:1 1318:1 1358:1 1365:1 1744:1 1799:1 1826:1 1942:1 
5 0 120:1 795:3 999:1 1358:1 1380:1 1603:2 1799:2 1811:1 1885:1 1947:2 
5 5 875:1 1931:1 
2.449693849540207 0 1318:2 1365:4 1744:1 1947:2 
1.435717004843904 0 1443:1 1484:1 1609:1 1755:1 1799:1 1942:1 1989:1 
5 0 245:1 795:2 875:1 1318:1 1358:4 1744:1 1826:1 1947:2 
5 0 418:1 672:1 795:2 817:1 875:1 1358:1 1365:2 1811:1 1856:1 1947:2 1999:1 
5 0 1008:1 1358:1 1744:1 1779:1 1826:1 1947:4 
4.541533563441704 0 795:1 1353:2 1571:2 1603:2 1656:1 1947:2 
5 0 1318:1 1603:1 1748:1 1811:1 1930:1 1942:1 
5 0 235:1 875:2 1565:1 1566:1 1744:1 1799:1 1885:1 1947:6 
0.0852372993760815 0 234:1 817:1 1008:1 1194:2 1318:1 1692:1 1744:4 1947:2 
1.747151968451539 0 1201:1 1365:1 1443:1 1609:2 1656:1 1811:1 1835:1 1890:3 1947:4 
2.854814429179305 0 35:1 572:1 627:2 795:2 875:1 1318:3 1358:3 1656:1 1799:3 1811:2 1947:10 
0.04746717046076734 5 1365:3 1609:1 1744:1 1799:1 1936:1 2001:1 
5 0 967:1 1358:1 1422:1 1799:1 1885:1 1931:1 1947:4 1999:1 
1.945365209136273 0 407:1 1318:1 1600:1 1603:1 1885:1 1932:1 1947:4 
0.5890795234076828 0.01355687196603703 10:1 990:1 1318:1 1340:1 1609:2 1673:1 1822:1 1885:1 1931:1 
0.1224835998737431 0 732:2 795:1 830:1 1358:1 1365:1 1534:2 1744:1 1799:1 1826:1 1885:1 1947:10 1959:1 
5 0 1318:1 1358:1 1365:2 1462:1 1609:2 1799:2 1826:1 1885:1 1942:1 1947:2 
1.095461075871967 0 1008:1 1318:1 1358:1 1365:2 1744:1 1884:1 1947:6 2000:1 
5 0 795:1 1262:1 1534:1 1609:1 1799:1 1811:1 1826:3 1947:2 
5 0 1601:1 1942:1 1947:2 
5 0 875:1 1365:1 1422:1 1528:1 1546:1 1609:1 1947:4 
5 0 1725:1 1799:1 1932:2 1947:4 1979:1 
0.365688395777474 0 467:1 795:1 805:1 1201:2 1365:2 1376:1 1609:1 1744:2 1930:2 1947:10 1999:1 2000:1 
0 2.061157886236434 732:1 995:1 1008:1 1318:2 1365:1 1744:1 1779:1 1799:1 1811:1 1826:1 
0 5 627:1 795:2 804:1 875:1 1318:1 1365:1 1376:1 1528:1 1603:1 1999:2 
2.179104757048571 0 383:1 438:1 795:2 817:1 1422:1 1799:1 1826:1 1885:1 1947:4 
1.182076021197222 0 245:1 760:1 795:1 1253:1 1318:1 1656:1 1747:1 1931:1 1947:4 
2.346199382003563 0 551:1 1040:1 1201:1 1358:2 1603:1 1609:2 1826:1 1885:1 1892:1 1933:1 1947:4 1999:1 
5 0 126:1 516:1 1365:1 1609:1 1744:1 1799:1 1931:1 1947:6 
4.331593722559118 0 627:1 1365:1 1528:1 1534:1 1603:1 1656:1 1744:2 1947:4 1999:1 2000:1 
5 0 1008:1 1365:1 1656:3 1799:2 1947:2 
5 0 795:1 1365:1 1546:1 1799:1 1947:2 
0.3967848382181725 0 697:1 732:1 882:1 967:1 1431:1 1528:1 1603:1 1778:1 1779:1 1799:1 1826:2 1838:1 1947:8 
5 0 156:1 372:1 817:2 1358:1 1528:1 1546:1 1716:1 1744:1 1811:1 1822:1 1931:2 1947:6 
5 0 1365:1 1422:1 1799:1 1826:1 1947:6 1993:1 
5 0 795:2 1358:2 1422:1 1476:1 1609:1 1690:1 1779:1 1780:1 1811:1 1947:4 
5 5 795:1 1656:1 
0 5 1187:3 1201:2 1656:1 1744:1 1953:1 
5 0 966:1 1318:1 1358:2 1534:1 1609:1 1744:1 1930:2 1999:1 
0 2.990074674082641 1008:4 1318:2 1358:1 1376:1 1929:1 
5 0 514:1 515:1 795:1 942:1 967:1 1008:1 1201:1 1358:1 1609:1 1744:1 1799:1 1885:2 1947:4 
3.672543695918071 0 648:1 795:1 804:1 1018:1 1365:2 1534:1 1603:1 1747:1 1779:1 1799:1 1811:1 1882:1 1930:17 1947:4 
5 0 1358:1 1947:6 
5 0 967:1 1358:1 1365:3 1565:1 1826:1 1942:1 1947:2 
5 5 795:1 1318:1 1365:5 1744:2 1932:1 
5 0 817:1 1244:1 1431:1 1701:1 1826:1 1834:1 1882:1 1930:2 1947:8 
5 0 327:1 627:1 795:4 1462:1 1566:1 1947:2 
0.1224445352615677 0 223:3 224:2 790:2 795:1 1744:1 1837:1 1947:8 1999:1 
3.652998746873766 0 245:1 327:1 1358:1 1365:2 1528:5 1744:2 1947:8 1988:1 
5 5 1799:1 1826:2 1885:1 
5 0 875:2 1008:1 1201:1 1353:1 1811:1 1826:1 1930:2 
5 0 795:1 1826:1 1947:2 
1.491358205917567 0 795:1 1365:1 1465:1 1603:1 1744:3 1799:2 1930:2 1947:2 1953:1 1999:1 
0 5 49:1 566:1 627:1 1318:3 1534:1 1931:1 
3.335587719002062 0 795:3 817:1 1318:1 1366:1 1716:1 1744:3 1799:1 1947:2 
5 0 1318:1 1358:1 1365:2 1484:1 1528:1 1716:1 1744:2 
0.1327389921176193 0 413:1 1318:1 1358:3 1947:2 1972:3 
5 0 795:1 1244:1 1365:1 1609:1 1780:1 1811:4 1930:1 1947:2 
5 0 515:1 1318:1 1340:1 1947:4 1999:1 
5 0 966:1 1004:1 1947:4 
5 0 1365:1 1429:1 1724:1 1744:1 1780:1 1826:1 1947:4 
5 5 
5 0 966:1 1008:1 1365:1 1609:1 1744:1 1826:1 1947:2 1999:1 
5 0 795:1 1318:3 1931:1 1947:8 1959:1 1993:1 1999:2 
0 0.08422510893099862 627:1 732:1 795:1 1187:1 1318:1 1494:2 1744:1 1780:2 1799:2 1833:1 1837:1 1929:1 
1.468067372895079 0 381:1 697:1 995:1 1201:1 1318:2 1534:1 1565:1 1656:1 1947:10 
0 5 1187:1 1811:1 
1.925697705649689 0 642:1 662:1 795:1 1318:1 1347:1 1352:1 1358:1 1528:1 1744:1 1826:1 1891:1 1930:1 1947:2 
5 0 795:2 875:2 1353:3 1565:1 1603:1 1609:1 1690:1 1799:3 1885:1 1999:1 
5 0 795:3 1289:1 1353:1 1358:1 1365:2 1799:2 1826:1 1885:1 1930:1 1932:2 1947:6 
5 0 875:1 1670:1 1690:1 1744:2 1780:1 1811:1 1947:2 
5 0 795:1 1358:1 1365:2 1930:1 1947:4 
5 0 795:3 1358:1 1365:2 1422:1 1811:1 1947:4 
5 0 795:1 1422:1 1716:1 1744:1 1799:1 1826:1 1999:1 
0.06943966754847093 0 235:1 795:2 875:1 1008:2 1201:1 1318:2 1365:1 1656:2 1690:1 1744:4 1755:1 1779:1 1799:1 1947:4 1953:1 
3.069663492197179 0 515:1 697:1 957:1 1201:1 1318:3 1534:1 1609:1 1674:1 1947:6 
5 0 107:1 795:1 1643:2 1947:6 
2.369735638635984 0 376:1 732:1 1201:2 1811:1 1826:1 1885:1 1886:1 1947:2 1999:1 
5 5 1716:1 
5 0 572:2 795:3 1353:1 1609:1 1747:1 1799:1 1811:1 1826:3 1847:1 1930:3 1947:20 
1.830084045235494 0 978:1 1358:1 1475:1 1546:1 1744:1 1947:2 
5 0 106:1 1312:1 1318:1 1436:1 1609:1 1826:2 1930:1 1947:2 
5 0 103:1 1716:1 1744:1 1799:1 1885:1 1891:1 1930:1 1947:4 1953:1 
0 5 795:1 1318:3 1352:1 1365:2 1528:1 1744:3 1822:1 
5 0 627:1 795:1 1318:1 1358:2 1656:1 1744:2 1799:4 1947:6 1993:1 2001:1 
5 0 817:2 1004:2 1484:1 1656:1 1744:1 1811:1 1930:3 1931:6 1947:2 
5 0 795:1 1008:1 1358:1 1656:1 1716:1 1744:3 1799:3 1826:1 1930:1 1931:1 1947:8 1999:1 
1.459618638276805 0 368:1 381:1 795:1 1609:1 1799:1 1826:1 1928:1 1947:2 
0.06464632603091078 0 93:1 162:1 817:1 984:1 1318:1 1494:1 1826:1 1931:2 1947:4 
5 0 1393:1 1534:1 1780:1 1822:1 1947:2 
5 0 1008:1 1422:1 1690:1 1799:1 1930:3 1931:2 1947:6 1999:1 
0.915136688213286 0 364:1 795:2 1187:1 1947:8 1959:2 
0.5960250128255095 0 632:1 1008:1 1244:1 1365:1 1546:3 1656:1 1670:1 1744:1 1811:1 1828:1 1834:1 1885:1 1930:2 1931:1 
0.9980287889109029 0 50:1 816:2 990:1 1325:1 1353:1 1431:1 1744:1 1779:2 1811:1 1933:1 1936:1 1947:6 
1.756800475877485 0 795:2 1008:1 1358:1 1696:1 1947:4 
5 5 1318:1 1366:1 1744:1 1799:1 
0 2.779907681047471 132:1 627:1 732:2 795:1 1008:1 1187:1 1286:1 1365:2 1799:1 1826:4 1953:1 2001:1 
5 0 327:1 795:2 1799:2 1811:1 1928:1 1947:8 
5 1.97183785845401 795:3 1656:4 1744:1 1811:1 1930:1 1959:1 
0.009892812294578925 0 585:1 672:1 795:2 1053:2 1358:1 1365:3 1422:1 1603:1 1744:2 1780:2 1811:2 1908:1 1930:2 1947:10 1999:2 
5 0 627:1 1353:2 1365:3 1494:1 1571:1 1609:1 1931:1 1947:4 
5 0 642:1 817:1 1318:2 1358:1 1744:1 1781:1 1931:1 1947:10 1959:1 
5 0 795:1 1318:1 1565:2 1744:1 1799:1 1885:1 1947:6 
5 0 1716:1 1811:1 1947:2 
1.025295453825104 0 14:1 58:1 627:1 1318:1 1609:1 1799:1 1882:3 1947:4 
0 0.2900232836401977 24:1 1187:1 1473:1 1528:1 1546:1 1744:1 1779:2 1826:1 1991:2 
0 0.9506117403872929 95:1 171:1 1187:2 1318:2 1365:1 1744:3 1799:1 1826:1 
5 0 24:1 107:1 672:1 1008:1 1358:2 1546:3 1656:1 1695:1 1716:1 1744:1 1826:2 1930:1 1947:6 
5 0 1353:1 1365:1 1431:1 1566:1 1799:2 1826:4 1947:4 
1.163523089977229 0 999:1 1008:1 1187:1 1244:1 1358:1 1390:1 1799:1 1930:3 1947:2 
1.309675796648635 0 418:1 572:1 627:1 795:1 1040:1 1201:1 1251:3 1328:1 1350:1 1353:1 1494:1 1565:1 1609:1 1648:1 1747:1 1779:1 1780:1 1799:3 1930:3 1947:8 
5 0 627:1 817:1 1744:1 1799:2 1947:6 2001:1 
5 0 107:1 1365:2 1528:1 1565:1 1744:2 1799:2 1826:1 1947:6 
1.742646602319095 0 697:1 1030:1 1353:1 1358:1 1431:1 1716:1 1744:1 1759:1 1822:1 1947:6 1979:1 1999:1 2000:1 
1.455330039866045 0 795:1 799:1 1201:1 1352:1 1690:1 1744:2 1747:1 1947:4 
2.999930611262447 0 138:1 732:1 1520:2 1744:2 1930:2 1947:2 1999:1 
2.79064133929219 0 764:1 795:1 824:1 1318:1 1353:1 1930:1 1931:1 1947:14 
0.315367072925464 0 732:2 795:1 1219:1 1780:1 1826:1 1947:4 
5 0 795:4 1358:1 1656:2 1942:1 1947:8 
0.5944023778465326 0 198:3 627:1 697:1 732:1 795:2 1201:1 1353:1 1358:1 1365:1 1685:1 1757:1 1930:1 1947:8 
5 0 1365:1 1826:2 1947:2 
1.243580122555653 0 406:1 447:1 795:1 1358:2 1365:1 1431:1 1744:3 1947:4 
5 0 1318:1 1656:2 1799:4 1826:1 1947:4 
0 5 875:1 1229:1 1350:1 1609:1 
5 0 627:1 795:3 1365:1 1609:2 1947:8 1990:1 
5 0 35:1 697:3 1609:1 1656:1 1947:4 
5 0 795:1 1318:1 1656:1 1716:1 1744:3 1947:2 
0.3711033337728069 0 697:1 795:1 817:4 1201:1 1244:2 1317:1 1340:1 1346:1 1358:2 1365:1 1520:1 1577:1 1609:1 1744:2 1780:2 1947:8 
1.288212942387603 0 113:1 795:1 1008:1 1353:1 1609:1 1744:5 1799:1 1947:8 1999:1 
5 0 1358:1 1365:1 1811:1 1947:2 
0 2.000831184964581 804:2 1326:1 1358:1 1742:1 1747:1 1811:1 
5 0 870:1 966:1 1229:1 1365:1 1422:1 1534:1 1692:1 1947:4 
5 0 1318:1 1358:1 1494:2 1505:1 1744:2 1799:1 1885:1 1947:6 
5 0 1365:1 1930:1 1947:2 
0.3906062461190829 0 732:1 899:1 1752:1 1845:1 1947:8 
5 0 1716:1 1744:1 1930:1 1947:2 
5 0 1365:1 1947:4 1999:1 
5 5 
5 5 1953:1 
5 5 
5 5 
5 5 697:1 1365:1 
5 0 1947:6 
5 5 
5 5 1365:1 
5 5 
4.538734043281154 0 795:2 1318:1 1365:2 1779:2 1826:2 1947:2 
5 0 566:1 795:1 1799:1 1947:2 1999:1 
5 5 1365:1 
5 5 795:1 1365:1 
2.022429023290849 5 1458:1 1799:1 
5 0 1476:1 1947:2 
5 5 
5 2 107:1 
5 5 627:1 
5 5 
5 5 1365:1 
0 2.000240185049573 795:1 1457:1 
5 0 1365:1 1928:1 1947:2 
5 0 1365:1 1930:1 1947:2 
5 5 1744:1 
5 0 1930:1 
5 5 1656:1 1829:1 
5 3.99970192828899 358:1 
5 0 1930:1 
5 5 795:1 
5 5 1365:1 
5 5 1353:1 1431:1 1826:1 
1.115190932298128 0.1469636433888535 1971:1 
5 0 1930:1 
5 0 627:1 1947:2 
5 0 1930:1 
5 5 
5 5 1744:1 
5 0 1930:1 
5 5 697:1 
5 5 1365:1 1656:1 1885:1 
5 0 1008:1 1930:1 
0 5 1358:1 1365:2 1990:2 
5 5 760:1 1318:1 
0 2 1977:1 
5 5 1365:1 1744:1 
5 5 1365:1 
0 5 1325:1 1757:1 
5 0 1365:1 1799:1 1864:1 1947:2 1967:1 
5 5 1358:1 
0 2.000285792444847 1603:1 1973:1 
5 5 1365:1 
5 5 
5 0 418:1 1930:1 1947:2 
5 5 1365:1 
5 5 1365:1 
5 5 1335:1 
5 5 697:1 1365:2 
5 5 
2.360888626651563 5 1009:1 1757:1 
5 5 1365:1 
5 0 1609:1 1744:1 1799:1 1947:2 
0 5 1187:1 1609:1 1799:1 1826:1 
5 0 32:1 327:1 795:1 1318:1 1358:1 1609:1 1826:1 1947:2 
5 5 1365:1 1744:1 
5 5 795:1 
5 5 
5 0 1930:1 1931:1 
5 5 
1.61896053167476 2.594088238027905 1321:1 1365:1 
0 5 1187:1 
5 5 1365:1 1928:1 
2.022724181724159 0 697:1 837:1 1457:1 1947:2 
0.6203436956068814 0 795:1 1928:2 1947:4 
5 0 875:1 1826:1 1947:2 
0 0.50012149836162 1757:2 
0 5 1757:1 
5 0 1947:2 
0 5 1757:1 
5 0 697:1 1744:1 1885:1 1947:2 
5 5 1928:1 
5 0 1304:1 1318:1 1947:4 
5 5 1365:1 
5 5 
5 0 1947:2 
5 5 1365:1 1484:1 1656:1 
5 5 1484:3 
5 5 
5 5 
5 5 
5 5 
5 5 
5 5 
5 5 
5 5 
5 5 
5 0 627:1 1376:1 1947:2 
5 5 1744:1 1799:1 1990:1 
5 0 1365:1 1930:1 
5 5 1365:1 
5 5 1365:2 
5 5 1799:1 1928:1 
5 5 1528:1 
5 5 
0 5 1928:1 1946:1 
2 5 1946:1 
5 5 
5 0 1365:1 1656:1 1930:1 
5 0 1930:1 
5 0 1930:1 
5 5 1318:1 1365:1 
5 1.091948377805181 1325:1 1566:1 
5 0 795:1 1930:2 1947:2 
4.58353689408432 0.7374021926543255 570:1 1353:1 1393:1 1436:1 1778:1 1886:2 
4.860630079895125 0 627:1 795:1 1008:1 1358:2 1365:3 1520:1 1701:1 1744:1 1930:1 1947:14 1999:1 
5 0 1799:1 1947:4 
5 0 1882:1 1947:2 1964:1 
5 0 1799:2 1826:5 1947:2 
5 0 571:1 795:1 1358:1 1811:1 1947:4 
5 5 1365:1 1623:1 
5 0 697:2 1318:1 1942:1 1947:4 
5 5 
5 0 1947:2 1964:1 
5 5 1365:1 
5 5 
5 0 627:1 1318:1 1325:1 1365:2 1799:2 1930:2 1947:4 
5 5 
5 0 1799:1 1947:2 
5 5 
5 5 
5 0 1358:1 1484:1 1609:1 1947:6 
5 0 1201:1 1318:1 1947:2 
5 0 1318:1 1799:1 1930:4 1947:2 
5 0 1930:1 1942:1 
5 5 795:1 1358:1 1365:2 
5 0 1318:1 1690:1 1811:1 1947:4 
0 1.014409158958354 1985:1 
5 0 1334:1 1947:2 
5 5 
5 0 1008:2 1747:1 1947:4 1999:1 
5 5 795:1 1318:1 1365:2 
5 5 1534:1 1778:1 
5 0 795:1 1947:4 1999:1 
5 0 1358:1 1365:1 1643:1 1930:2 1947:4 
5 0 1947:2 1999:1 
5 0 1947:2 
5 0 1365:1 1811:1 1947:2 
5 0 1229:1 1930:1 1947:2 
0 1.513158239653748 1847:1 
5 0 1318:1 1947:4 1964:1 1989:1 
5 0 1947:2 
5 0 1947:2 
5 0 1947:2 
5 0 1201:1 1716:1 1947:2 
5 0 44:1 516:1 662:1 1484:1 1528:1 1940:1 1947:2 1999:2 
5 0 384:1 566:1 1882:1 1947:2 
5 0 1947:2 
5 5 1690:1 
5 5 1358:1 
5 5 
5 5 
5 0 1759:1 1947:2 
0 2.389214768378233 1759:1 1940:1 
5 0 1318:1 1365:1 1930:3 1942:1 
0.866223707489716 2.948055393415199 1484:1 1964:1 
5 5 1201:1 
1.618966193833379 2.000000000000003 1365:1 1705:1 
5 0.7139899635889767 1434:1 
5 5 
4.762470599462854 0 1964:1 
5 5 1365:1 
5 5 795:1 1429:1 
5 5 1318:1 
5 0 1826:1 1947:2 1999:1 
5 0 1422:1 1701:1 1947:2 
5 0 1525:1 1947:2 
5 0 966:1 1358:1 1365:1 1422:1 1811:1 1930:1 1947:4 
0 5 1847:1 
5 0 1365:1 1623:1 1947:4 
5 0 1318:1 1365:2 1484:1 1799:1 1947:2 
5 0 1358:1 1525:1 1947:4 
5 0 1826:1 1947:2 1999:1 
5 0 1744:1 1947:2 
5 0 1947:4 
5 5 24:1 1999:1 
5 5 795:1 
5 0 1365:1 1947:2 
5 5 1358:1 
5 0 571:1 1201:1 1716:1 1947:4 1964:1 
5 0 1340:1 1365:1 1484:1 1609:1 1826:1 1882:2 1930:2 1947:4 
2.459185969820278 0 662:2 795:1 1004:1 1286:1 1365:3 1928:1 1930:3 1947:6 
5 5 
5 0 1008:1 1365:1 1716:1 1930:1 1947:2 
5 5 
5 0 1947:2 1964:1 
5 5 
5 5 
5 5 
5 5 
5 5 1365:1 
5 5 
5 0 1947:2 
5 5 
5 5 
5 0 1422:1 1481:1 1799:2 1826:1 1892:1 1947:4 
5 5 
5 0 672:1 1325:2 1716:1 1747:1 1930:1 1947:2 
5 5 
5 0 795:2 1201:1 1318:1 1811:1 1947:4 
5 5 
5 0 571:1 1365:1 1947:2 
5 5 
5 5 1999:1 
5 5 
5 0 1365:1 1947:2 
5 5 
5 5 
5 5 1999:1 
5 5 
5 0 1947:2 
5 5 
5 5 1365:1 
5 5 
5 0 1318:1 1716:1 1947:4 
5 5 
5 0 571:1 1365:1 1912:1 1930:1 
5 5 
5 5 
5 5 
5 0 572:1 1318:1 1334:1 1947:6 
5 5 
5 0 1947:2 
5 5 
4.534718968905324 0 1520:1 1947:4 1964:1 
5 5 
5 0 697:1 1201:2 1318:1 1365:1 1947:4 
5 5 
5 5 418:1 1484:1 1811:1 
5 5 
0.9523001196900821 0 1568:1 1799:1 1947:2 1976:1 
5 5 
5 5 795:1 1365:1 
5 5 
5 5 
5 5 
5 0 571:1 1947:4 
5 5 
5 0 557:1 795:1 1008:2 1365:1 1930:1 
5 5 
5 0 1353:2 1358:1 1365:1 1947:8 
5 5 
5 5 
5 5 1365:1 1494:1 1826:1 
5 5 
5 0 795:2 1744:1 1779:1 1826:3 1947:4 1999:1 
5 5 
5 5 1325:1 1826:1 
5 5 
5 5 1870:1 
5 5 
5 0 1716:1 1947:2 
5 5 
5 0 1318:1 1358:1 1365:1 1947:2 
5 5 
5 5 
5 0 795:1 1358:1 1930:1 
5 5 
5 5 
5 5 1365:1 
5 5 
5 0 1947:2 
5 5 
5 0 572:1 1947:2 
5 5 
5 5 1365:1 
5 5 
5 0 1947:2 
5 5 
5 0 572:1 1947:2 
5 5 
5 0 1826:1 1947:6 
5 5 
5 0 1826:1 1947:6 
5 5 
5 5 
5 5 
5 0.794223708378527 120:1 1365:1 1931:2 
5 5 
5 5 
5 5 
5 0 24:1 1747:1 1947:2 
5 5 
5 0 1365:1 1947:2 
5 5 
5 0 381:1 1826:1 1947:2 
5 5 
5 5 1358:1 1799:1 1885:1 
5 5 
5 5 
5 5 
5 5 
5 5 
5 0 1008:1 1018:1 1318:1 1353:1 1358:1 1947:4 
5 5 
5 5 
5 0 1947:2 
5 5 
4.237918951006066 0 1964:1 
5 5 
5 5 
5 0 1243:1 1318:1 1365:1 1744:1 1947:2 
5 5 
5 5 572:3 1365:2 
5 5 
5 5 
5 5 1365:1 1799:1 
5 5 
5 0 1603:1 1799:1 1930:1 1947:2 
5 5 
5 5 
5 5 
5 0 1947:2 1999:1 
5 5 
5 0 1318:2 1744:1 1947:4 
5 5 
1.535642762256514 0 1701:1 1947:2 1991:1 
5 5 
5 5 
5 5 
5 5 
5 0 1744:1 1947:2 1999:1 
5 5 
3.636464362748831 0 1964:1 
5 5 
5 5 
5 0 1930:3 
5 5 
5 5 
5 5 
5 0 236:1 1365:1 1705:1 1779:1 1947:2 
5 5 
5 5 
5 5 1358:1 1365:1 
5 5 
5 5 
5 5 
5 5 
5 5 
5 0 1930:1 1947:2 
5 5 
5 0 795:1 1358:1 1365:1 1947:2 
5 5 
5 0 1716:1 1930:1 1947:2 
5 5 
5 0 966:1 1365:1 1947:2 
5 5 
5 5 
5 0 1365:2 1947:2 
5 5 
5 5 795:1 1358:1 1365:2 1799:2 1811:1 
5 5 
5 0 1318:1 1358:1 1779:1 1947:2 
5 5 
5 0 1947:2 
5 5 
5 5 
5 0 327:1 627:1 795:2 1201:2 1318:1 1476:1 1484:1 1799:2 1886:1 1930:3 1931:1 1947:4 
5 5 
5 5 
5 5 1528:1 1799:1 
5 5 
5 0 1365:2 1947:2 
5 5 
5 5 
5 0 1365:1 1885:1 1947:2 
5 5 
5 0 1318:1 1947:2 
5 5 
5 0 1365:1 1716:1 1882:1 
5 5 
5 0 1701:1 1947:6 
5 5 
1.205364566788794 0 1008:1 1429:1 1718:2 1799:1 1826:1 1930:1 1940:1 1947:2 
5 5 
5 5 
5 5 
5 0 697:1 1718:1 1885:1 
5 5 
5 0 1429:1 1826:1 1931:1 1947:6 
5 5 
5 5 
5 5 1365:1 1571:1 
5 5 
5 5 
5 5 
5 0 1429:1 1744:1 1826:1 1885:1 1947:4 
5 5 
5 0 1018:1 1947:2 
5 5 
5 5 
5 5 
5 0 1930:1 1947:2 
5 5 
5 5 
5 5 
5 0 1358:1 1365:2 1947:4 1999:1 
5 5 
0.02591442931581616 0.0005429609332852263 1340:1 1902:1 
5 5 
5 0 1940:1 
5 5 
5 0 1947:2 
5 5 
5 5 
5 5 
5 5 
0.06204725527390454 5 795:1 1964:1 
5 5 
5 0 1947:2 
5 5 
5 0 1947:2 
5 5 
5 0 1365:1 1826:1 1930:1 1947:6 
5 5 
5 5 
5 5 
5 5 
5 5 
5 5 
5 5 
5 0 1947:2 
5 5 
5 0 1947:2 
5 5 
5 0 1942:1 
5 5 
5 0 1947:2 
5 5 
5 0 1947:2 
5 5 
5 5 1365:1 
5 5 
5 5 
5 5 
5 0 1947:2 
5 5 
5 0 1365:2 1744:1 1779:1 1811:1 1947:2 
5 5 
5 5 
5 5 
5 5 
5 0 627:1 795:4 1318:1 1358:1 1744:1 1779:1 1799:1 1882:2 1942:1 1947:10 
5 5 
5 5 1008:2 1365:1 
5 5 
0 1.999518732177702 1365:1 1528:1 1648:1 1993:1 
5 5 
5 0 1229:1 1947:2 
5 5 
5 5 
5 0 1365:2 1744:1 1778:1 1799:2 1822:1 1947:8 1999:1 
5 5 
5 5 
5 5 
5 0 1358:1 1365:2 1494:1 1799:1 1947:8 
5 5 
5 0 1525:1 1799:1 1947:2 
5 5 
5 5 
5 0 1947:2 
5 5 
5 5 
5 0 1947:2 
5 5 
5 5 
5 0 1964:1 
5 5 
5 5 
5 5 
5 0 1595:1 
5 5 
5 0 1358:1 1595:1 1999:1 
5 5 
5 0 1930:1 
5 5 
5 0 1947:2 1964:1 
5 5 
5 5 1365:1 
5 5 
5 5 
5 5 
4.518505788707254 0 1964:1 
5 5 
5 5 
5 0 1318:1 1365:1 1484:1 1690:1 1747:1 1947:2 
5 5 
5 5 
5 5 
5 0 1358:1 1365:1 1947:2 
5 5 
5 0 1947:2 
5 5 
5 5 
5 5 
5 0 1947:2 
5 5 
5 0 1318:2 1365:1 1643:1 1947:4 
5 5 
5 0 1365:1 1947:2 
5 5 
5 5 
5 5 
5 5 1365:2 1826:1 
5 5 
5 5 
5 5 
5 5 
5 5 
5 5 
5 5 
5 5 
5 0 1526:1 1779:1 1799:1 1947:2 1965:1 
5 5 
5 5 
5 5 
5 5 
5 0 837:1 1318:1 1358:1 1565:1 1779:1 1947:4 
5 5 
5 0 1947:2 
5 5 
5 5 
5 5 
5 5 1716:1 
5 5 
5 0 1365:1 1930:1 
5 5 
5 0 418:1 795:1 1365:3 1744:1 1947:4 1999:1 
5 5 
5 0 571:1 1318:1 1365:1 1930:1 1947:2 
5 5 
0.8572648815737919 0 1325:1 1352:1 1365:1 1566:1 1870:1 1894:1 1912:1 1930:2 
5 5 
5 0 418:1 795:1 1318:1 1365:1 1947:6 1999:1 
5 5 
5 5 
5 0 384:1 566:1 1882:1 1947:2 
5 5 
5 0 1947:2 
5 5 
5 5 1690:1 
5 5 
5 5 1365:2 1999:1 
5 5 
5 5 
0.8356599147133345 0 1008:1 1325:2 1352:1 1393:1 1778:2 1826:2 1947:4 
5 5 
5 5 
5 5 
5 5 
5 5 
5 5 
5 5 1928:1 
5 5 
5 0 1930:1 
5 5 
0 0.4870111814413975 1648:1 1847:1 
5 5 
5 5 627:1 795:1 1999:1 
5 5 
5 5 
5 0 1318:1 1484:1 1947:2 
5 5 
5 0 1947:2 
5 5 
5 5 
5 5 
5 5 1229:1 1365:2 
5 5 
5 5 1365:1 
5 5 
5 0 1747:1 1930:1 1942:1 
5 5 
5 5 
5 5 
5 5 
5 5 
5 5 
5 5 
5 5 1990:1 
5 5 
5 0 1882:1 1964:1 
5 5 
5 0 697:1 795:1 1201:1 1365:1 1744:1 1799:1 1811:1 1947:2 
5 5 
5 0 1947:2 
5 5 
5 0 1358:1 1947:2 
5 5 
5 5 
5 5 
3.694006760662458 0 1259:1 1716:1 1947:2 
5 5 
5 5 
5 0 1365:1 1930:1 
5 5 
5 0 1365:1 1947:2 
5 5 
3.276072774694024 0 1964:1 
5 5 
5 5 
5 5 
5 5 
5 5 
5 0 795:1 1365:1 1811:1 1947:2 
5 5 
5 5 
5 0 515:1 1826:2 1947:4 
5 5 
5 5 
5 5 1365:3 
5 5 
5 0 795:1 1365:1 1799:1 1826:1 1882:1 1947:2 
5 5 
5 0 795:1 1811:1 1947:2 
5 5 
5 0 1947:2 1964:1 
5 5 
5 5 1484:1 1799:1 1811:1 
5 5 
5 0 1947:2 
5 5 
5 0 1747:1 1942:1 
5 5 
5 0 1365:1 1947:2 
5 5 
5 0 1365:1 1947:2 
5 5 
5 0 697:1 1318:1 1365:1 1534:1 1744:1 1799:1 1826:1 1947:2 
5 5 
5 5 418:1 1365:1 1799:1 1882:1 
5 5 
5 5 1318:1 
5 5 
5 0 1930:2 1940:1 
5 5 
5 5 
5 5 
5 5 
5 0 1365:1 1947:6 
5 5 
5 5 
5 5 75:1 552:1 1004:1 
5 5 
5 0 1358:1 1365:1 1643:1 1930:2 1947:4 
5 5 
5 0 1947:2 1964:1 
5 5 
5 5 
5 0 1947:2 
5 5 
5 5 
5 5 
5 5 
1.142161283614772 0 103:1 966:1 1947:2 1964:1 
5 5 
5 5 875:1 1318:1 
5 5 
5 5 418:1 1008:1 1882:1 
5 5 
5 5 1882:1 
5 5 
5 0 1947:4 
5 5 
5 5 
5 0 1325:1 1811:1 1891:1 1930:6 1947:2 
5 5 
5 0 795:1 1930:1 1947:2 
5 5 
5 0 1643:1 1930:1 
5 5 
5 5 
5 5 
5 5 
5 5 
5 0 1318:1 1609:1 1947:4 1964:1 
5 5 
5 5 
5 5 
5 5 795:1 
5 5 
5 5 1365:1 
5 5 
5 3.398622327352141 1393:1 1565:1 1690:1 
5 5 
5 5 
5 5 
5 5 1747:1 
5 5 
5 5 
5 5 
5 5 
5 2.000133195909525 1528:1 1595:1 
5 5 
5 0 1040:1 1358:2 1365:1 1744:1 1799:4 1882:1 1947:10 
5 5 
5 0 1318:1 1947:2 
5 5 
5 5 
5 5 
5 0 1643:1 
5 5 
5 5 
5 0 1930:1 
5 5 
5 0 1318:1 1358:1 1365:1 1930:1 
5 5 
1.470707848553985 0 672:1 1365:1 1429:1 1500:1 1716:1 1947:2 
5 5 
5 5 
5 5 
5 5 
5 5 
5 5 
5 5 
5 5 1365:1 
5 5 
5 0 1365:1 1947:2 
5 5 
5 0 627:1 697:1 1358:1 1947:2 
5 5 
5 5 
5 0 795:1 1484:1 1623:1 1947:2 
5 5 
0.2910244864291398 0 571:1 1365:1 1422:1 1811:1 1930:2 1947:8 1964:1 1965:1 2000:1 
5 5 
5 0 1930:1 1947:2 
5 5 
5 0 1759:1 1826:1 1947:4 
5 5 
5 0 1365:3 1947:2 
5 5 
5 5 
5 5 
5 5 
5 0 1318:1 1365:1 1942:1 
5 5 
5 5 
0.9118917579706909 0 1229:1 1365:1 1494:1 1799:1 1881:1 1947:2 
5 5 
5 0 795:1 1930:3 1940:1 1947:4 
5 5 
5 5 
5 5 1365:1 
5 5 
5 5 
5 5 1484:1 
5 5 
5 5 1744:1 
5 5 
5 0 1318:1 1528:1 1930:2 
5 5 
5 0 1947:2 
5 5 
1.292446634643906 0 795:1 1318:1 1525:1 
5 5 
5 5 
5 5 1365:1 
5 5 
5 5 1318:1 1365:1 
5 5 
5 5 1008:1 
5 5 
5 0 1947:2 
5 5 
5 0 1947:2 
5 5 
5 0 1942:1 
5 5 
5 0 1947:2 
5 5 
5 0 1947:2 
5 5 
5 5 1365:1 
5 5 
5 5 
5 5 
5 0 795:1 1799:1 1811:1 1947:2 1988:1 
5 5 
5 0 795:1 1930:1 1947:6 
5 5 
5 5 1318:1 1365:1 
5 5 
5 0 795:1 1365:1 1393:1 1799:3 1947:16 
5 5 
5 0 1947:4 
5 5 
5 5 1318:1 
5 5 
5 5 
5 5 
5 5 
5 5 
5 0 441:1 795:2 1318:1 1365:2 1484:1 1565:1 1571:1 1744:2 1799:1 1930:2 1931:1 1947:2 
5 5 
5 0 1365:1 1947:4 1953:1 
5 5 
5 0 1318:2 1947:2 
5 5 
0 0.03315007776815136 1325:1 1393:1 1604:1 1832:1 1837:1 1894:1 
5 5 
5 0 795:1 1365:1 1947:6 1999:1 
5 5 
5 5 
5 0 1365:1 1494:1 1947:4 
5 5 
5 0 627:1 1358:1 1947:4 
5 5 
5 5 
5 5 
5 0 1358:1 1476:1 1947:4 
5 5 
5 5 
5 5 
5 0 1947:2 
5 5 
5 0 1964:1 
5 5 
5 5 
5 5 
5 0 1365:1 1930:1 1942:1 1947:2 
5 5 
5 5 571:1 
5 5 
5 0 1930:1 
5 5 
5 0 1358:4 1365:1 1744:1 1799:1 1947:8 1999:1 
5 5 
5 0 1353:1 1365:1 1643:1 1826:1 1947:2 
5 5 
5 5 
5 0.4784270050118923 795:1 1525:1 1623:1 
5 5 
5 0 1353:1 1365:1 1947:2 
5 5 
5 5 
5 0 1643:1 1942:1 
5 5 
5 0 596:1 1365:1 1799:1 1947:4 
5 5 
5 5 
5 5 
5 0 1358:1 1525:1 1799:1 1947:4 
5 5 
5 5 
5 5 
5 5 
5 5 
5 0 1643:1 1947:4 
5 5 
0.502562650406288 0 1325:1 1358:1 1365:1 1393:1 1604:1 1885:1 1912:1 1930:1 
5 5 
5 5 
5 5 
5 5 795:1 1358:1 1365:2 1799:2 1811:1 
5 5 
5 0 1365:1 1930:3 
5 5 
5 5 418:1 1484:1 1811:1 
5 5 
5 5 627:1 
5 5 
5 5 
5 5 1744:1 
5 5 
5 0 1947:4 
5 5 
5 0 1744:1 1947:2 
5 5 
5 5 1476:1 
5 5 
5 0 1716:1 1744:1 1930:1 1947:2 
5 5 
5 5 
5 5 
5 5 
5 5 
5 5 
5 5 
5 5 
5 5 
5 5 795:1 875:1 1891:1 
5 5 
5 5 
5 5 
5 0 1358:1 1799:1 1947:2 
5 5 
5 0 1947:4 
5 5 
5 5 
5 5 
5 5 
5 5 
5 5 
5 5 1609:1 
5 5 
5 5 1431:1 
5 5 
5 5 1799:1 
5 5 
5 5 
5 5 
5 0 795:1 796:1 1358:1 1747:3 1947:6 
5 5 
5 5 795:1 1799:1 
5 5 
5 0 1358:1 1947:2 
5 5 
5 5 
5 5 
5 5 
5 5 
5 0 1358:1 1947:4 
5 5 
5 0 1365:1 1947:2 
5 5 
5 5 1201:1 
5 5 
5 5 
5 0 1947:4 
5 5 
5 5 
5 5 
5 5 
5 5 
5 5 
5 5 1999:1 
5 5 
5 0 1947:4 
5 5 
2 2 45:1 
5 5 
5 5 
5 0 795:1 1358:1 1609:1 1826:2 1947:4 
5 5 
1.858518525712671 2.067629816847751 1214:1 1353:1 1837:1 
5 5 
4.92888769663001 0 795:1 1947:2 1954:1 
5 5 
5 5 
5 5 
5 0 1358:1 1799:1 1965:1 
5 5 
5 5 
5 5 
5 5 795:3 
5 5 
5 5 
5 5 
5 0 1799:1 1947:2 1964:1 
5 5 
5 5 
5 5 
5 5 
5 5 
5 5 1365:1 
5 5 
5 5 
5 5 
5 5 
5 5 
5 5 
5 5 
5 5 
5 5 
5 5 
5 5 
5 5 
5 5 
5 5 
5 5 
5 5 
5 5 
5 5 
5 5 
5 0 1964:1 
5 5 
5 5 
5 0 1947:2 
5 5 
5 5 
5 5 
5 5 1365:1 1799:1 
5 5 
5 5 
5 5 
5 0 795:1 1930:2 1942:1 
5 5 
2.437719407187549 0 571:1 1353:1 1609:1 1716:1 1780:1 1835:1 1947:6 1954:1 
5 5 
5 5 
5 5 
5 5 
5 5 1358:1 1779:1 
5 5 
5 0 795:1 1826:1 1947:2 
5 5 
5 5 352:1 
5 5 
5 5 
5 5 
5 5 
5 0 1365:1 1947:4 
5 5 
3.514252009465649 0 87:1 111:1 372:1 795:1 1353:1 1365:1 1779:1 1799:1 1885:1 1947:6 2000:1 
5 5 
5 5 1365:1 
5 5 
5 0 1201:1 1358:1 1947:4 
5 5 
5 5 1365:1 
5 5 
2.104351984214507 0 1930:1 1947:2 1977:1 
5 5 
5 5 
5 5 
5 0 1201:1 1525:1 1826:1 1947:4 
5 5 
5 0 795:1 1682:1 1947:6 
5 5 
5 5 1365:1 1623:1 
5 5 
5 5 
5 5 
5 5 795:1 
5 5 
5 5 
5 5 837:1 1779:1 1799:1 
5 5 
5 0 1318:1 1947:2 
5 5 
5 5 
5 5 1365:1 1744:1 
5 5 
5 0 1358:1 1947:2 
5 5 
5 5 
5 5 
5 5 1882:1 
5 5 
5 5 
5 0 1229:1 1930:1 1947:2 
5 5 
5 5 
5 0 795:1 1643:1 1716:1 1947:4 
5 5 
5 5 
5 5 697:1 1656:1 1829:1 
5 5 
5 0 999:1 1799:2 1947:4 
5 5 
5 5 
5 0 418:1 1353:1 1358:1 1431:1 1520:1 1528:1 1947:6 
5 5 
5 0 795:1 1365:1 1947:2 
5 5 
5 0 1358:1 1365:2 1947:2 1999:1 
5 5 
5 0 1947:4 
5 5 
0.2973757208848154 0 1325:1 1350:1 1565:1 1566:1 1870:1 1930:2 1947:2 
5 5 
5 0 1947:2 
5 5 
5 5 
5 5 
5 0 1358:2 1947:2 
5 5 
5 5 1520:1 
5 5 
5 2 1211:1 
5 5 
5 0 1947:2 
5 5 
5 5 1747:1 
5 5 
5 5 
5 5 
5 5 
5 5 
5 0 1947:2 
5 5 
5 5 
5 5 
5 5 
5 0 697:2 1318:1 1947:2 
5 5 
4.425815379497728 5 1526:1 1999:1 
5 5 
5 4.529983201358359 1525:1 
5 5 
5 5 
5 0 103:1 795:1 1318:2 1358:2 1365:1 1528:1 1744:1 1799:2 1811:1 1828:1 1947:8 
5 5 
0 2 1963:1 
5 5 
5 5 697:1 1528:1 
5 5 
5 5 
5 5 
5 5 1201:1 
5 5 
5 0 1358:1 1365:1 1799:2 1826:1 1947:4 
5 5 
5 0 1008:1 1947:2 
5 5 
5 5 
5 5 
5 5 
5 5 
5 5 
5 5 
5 5 
5 5 
5 0 1318:1 1358:1 1947:2 
5 5 
5 5 
5 5 
5 5 
5 5 
5 5 
5 5 1520:1 
5 5 
5 5 
5 5 
5 5 795:1 
5 5 
5 5 515:1 
5 5 
5 5 
5 0 1365:2 1947:6 
5 5 
5 0 1947:2 
5 5 
5 0 572:1 1358:1 1947:2 
5 5 
5 5 
5 1.586653730776965 1484:1 1525:1 
5 5 
5 5 
5 5 
5 0 1947:4 1964:1 
5 5 
5 0 1353:1 1365:1 1947:2 
5 5 
5 5 
5 5 
5 0 1353:1 1565:1 1609:1 1623:1 1947:2 
5 5 
0.6887140692013654 5 1365:1 1894:1 
5 5 
5 5 
5 5 1318:1 1365:1 1779:2 
5 5 
5 0 1947:2 
5 5 
5 0 1947:4 
5 5 
5 5 
5 5 
5 5 
5 5 
5 5 1365:1 
5 5 
5 5 
5 5 
5 0 1947:2 
5 5 
5 0 1744:1 1947:2 
5 5 
1.284039362331559 0 1211:1 1325:1 1365:1 1930:1 
5 5 
5 0 697:1 1716:1 1947:6 
5 5 
5 5 1811:1 
5 5 
5 5 1999:1 2000:1 
5 5 
5 0 697:1 1365:1 1799:1 1947:4 1999:1 
5 5 
5 5 795:1 1429:1 
5 5 
5 5 1008:1 1648:1 
5 5 
5 5 1484:1 
5 5 
5 5 
5 5 
5 5 
5 5 
5 5 
5 0 1525:1 1947:2 
5 5 
5 5 
5 5 
5 5 
5 5 1365:1 
5 5 
5 0 1318:1 1365:2 1609:1 1947:2 
5 5 
5 5 
5 5 
5 5 
5 0.9959977281452407 795:1 1365:1 1484:1 1716:1 
5 5 
5 0 795:1 1930:1 1947:6 
5 5 
5 0 1892:1 1930:3 1947:4 
5 5 
5 5 
5 5 
5 5 627:1 1429:1 
5 5 
5 5 795:1 
5 5 
5 5 
5 5 1365:1 1528:1 
5 5 
5 5 
5 5 
5 5 
5 5 
5 5 1422:1 1799:1 
5 5 
5 5 
5 5 
5 5 1799:2 
5 5 
5 5 
5 5 1365:3 
5 5 
5 5 
5 0 697:1 795:2 1201:1 1318:1 1358:1 1365:2 1431:1 1690:1 1799:1 1885:1 1993:1 
5 5 
5 0 795:1 1358:3 1811:1 1947:8 
5 5 
5 0 1365:1 1947:4 
5 5 
5 5 1999:1 
5 5 
5 0 1484:1 1947:2 
5 5 
5 5 
5 5 
5 0 1358:1 1365:1 1947:2 
5 5 
5 0 1201:1 1365:1 1620:1 1811:1 1839:1 1947:2 
5 5 
5 0 319:1 1358:1 1365:1 1799:1 1947:2 
5 5 
5 0 1942:1 
5 5 
5 5 1318:1 1484:1 
5 5 
5 5 
5 5 
1.499693691324129 0 1365:1 1414:1 1690:1 1716:1 
5 5 
5 5 
5 0 1358:1 1565:1 1885:1 1947:6 
5 5 
4.84490697357862 0 1964:1 
5 5 
5 5 1799:1 
5 5 
5 0 1947:2 
5 5 
5 0 1799:1 1947:2 
5 5 
1.745789755268048 2.612543584218107 236:1 1365:2 1799:1 1990:1 1999:1 
5 5 
5 2.500183970138232 966:1 
5 5 
5 5 1520:1 
5 5 
5 5 1990:1 
5 5 
5 5 
5 5 
5 5 
5 5 
5 5 
5 5 
5 5 
5 5 
5 0 795:4 870:1 922:1 1358:1 1365:1 1799:1 1885:1 1947:2 
5 5 
5 5 
5 0 795:1 1744:1 1947:2 
5 5 
5 0 372:1 697:1 795:1 1365:2 1656:1 1744:2 1882:1 1930:4 1931:1 
5 5 
5 5 515:1 
5 5 
5 0 162:1 1358:1 1947:6 
5 5 
5 0 795:1 1365:1 1817:1 1947:2 
5 5 
5 5 
5 5 1358:1 
5 5 
5 0 627:1 1318:1 1353:1 1358:1 1365:1 1947:2 
5 5 
5 5 1201:1 
5 5 
5 5 
5 5 
5 5 
2.239194261711575 0 1568:1 1799:1 1947:2 1976:1 
5 5 
5 5 
5 0 1931:1 1947:6 
5 5 
0.4601659574286912 0 795:1 1318:1 1525:1 
5 5 
5 5 
5 5 
5 5 418:1 1008:1 1882:1 
5 5 
5 0 1365:2 1799:1 1947:6 
5 5 
5 0 1365:1 1947:2 
5 5 
5 2.000311956076833 1760:1 
5 5 
0 1.44095983216335 1325:1 1340:1 1393:1 1604:1 
5 5 
5 0 795:1 1365:1 1779:1 1811:1 1947:2 
5 5 
5 0 1947:2 
5 5 
5 5 319:1 1365:3 1799:2 1885:1 
5 5 
5 0 1811:1 1947:2 
5 5 
5 5 
5 5 
5 5 
5 5 
5 5 
5 5 
5 0 1201:1 1365:1 1620:1 1811:1 1839:1 1947:2 
5 5 
5 0 319:1 1358:1 1365:1 1799:1 1947:2 
5 5 
5 0 1942:1 
5 5 
5 5 1318:1 1484:1 
5 5 
5 5 
5 0 1365:1 1947:2 
5 5 
5 5 
5 5 
5 5 1365:1 1431:1 1882:1 
5 5 
5 5 
5 5 1870:1 
5 5 
5 5 
5 0 1779:1 1799:2 1947:2 
5 5 
5 5 
5 0 795:1 1947:2 
5 5 
3.914261984223216 0 1964:1 
5 5 
5 5 
5 0 827:1 1365:1 1947:2 
5 5 
5 5 
5 5 
5 0 1643:1 
5 5 
5 5 
5 0 1930:1 
5 5 
5 0 1947:2 
5 5 
5 5 1365:1 
5 5 
5 5 
5 0 1947:2 
5 5 
5 5 1365:1 1799:1 
5 5 
5 0 1799:1 1811:1 1885:1 1947:2 
5 5 
5 5 
5 0 795:1 1087:1 1318:2 1353:1 1365:3 1484:1 1565:1 1826:1 1930:1 1947:2 
5 5 
5 5 
5 5 1484:1 
5 5 
5 5 
5 5 
5 0 1947:2 
5 5 
5 0 1484:1 1779:1 1947:8 
5 5 
5 1.99966392383992 1365:1 1520:1 1817:1 
5 5 
5 5 1318:1 1365:1 
5 5 
5 0 1947:6 1965:1 
5 5 
5 5 
5 0 107:1 327:1 627:1 795:1 1318:2 1358:1 1365:3 1744:1 1799:3 1947:4 1988:1 1999:2 
5 5 
5 0 1318:1 1365:3 1947:2 
5 5 
5 5 
5 5 
5 5 1008:1 
5 5 
5 5 
5 5 
5 0 1318:1 1358:1 1365:2 1930:1 1947:6 1999:1 
5 5 
5 5 
5 0 1365:1 1716:1 1947:2 
5 5 
5 5 
5 5 
5 5 1990:1 
5 5 
5 0 1882:1 1964:1 
5 5 
5 0 697:1 795:1 1201:1 1365:1 1744:1 1799:1 1811:1 1947:2 
5 5 
5 0 1947:2 
5 5 
5 0 1358:1 1947:2 
5 5 
5 5 
5 5 1318:1 
5 5 
5 5 
5 5 1365:1 
5 5 
5 5 
5 5 
5 5 
5 5 1462:1 
5 5 
5 5 
5 0 1947:2 
5 5 
5 5 
5 5 
5 5 
5 5 
5 5 
5 5 
5 5 
5 5 
2.537436948608899 0 697:1 1565:1 1609:1 1771:1 1799:1 1930:1 
5 5 
5 5 
5 0 1528:1 1947:2 
5 5 
5 0 1358:1 1365:1 1811:1 1947:2 
5 5 
5 0 1325:1 1365:1 1566:1 
5 5 
5 0 571:1 1799:1 1885:1 1947:2 1964:1 
5 5 
5 5 
5 5 
5 5 
5 5 
3.695740329366798 2.848829886048688 1964:1 
5 5 
5 5 
5 5 
0 4.220071632322142 1985:1 
5 5 
5 0 1334:1 1947:2 
5 5 
5 5 
5 5 
5 0 1008:1 1525:1 
5 5 
5 5 1780:2 1885:1 
5 5 
5 5 1799:1 1826:1 
5 5 
5 0.3250524450582489 1358:1 1778:1 1780:1 1965:1 
5 5 
5 0 1947:2 1964:1 
5 5 
5 5 1744:1 
5 5 
5 5 
5 0 1643:1 1947:4 
5 5 
4.489609566660977 0 1325:1 1358:1 1365:1 1393:1 1604:1 1885:1 1912:1 1930:1 
5 5 
1.06900345172862 0 24:1 1170:1 1358:1 1643:1 1947:2 
5 5 
5 0 1318:1 1340:1 1947:2 
5 5 
1.759893025128151 0 1325:1 1393:1 1870:1 1894:1 1930:1 
5 5 
5 0 1365:1 1930:1 1947:2 
5 5 
5 5 
5 5 697:1 1365:1 
5 5 
5 5 1318:3 1603:1 
5 5 
5 5 795:1 1318:1 1358:1 1799:1 1826:1 1885:1 
5 5 
5 0 1201:1 1365:1 1947:4 
5 5 
5 5 795:1 
5 5 
5 5 
5 5 
5 5 
5 5 
5 5 
5 0 697:1 1365:2 1930:1 
5 5 
5 5 
5 0 574:1 1365:1 1712:1 1882:1 1947:4 
5 5 
5 0 1365:1 1429:1 1690:1 1744:1 1942:1 1947:4 
5 5 
5 5 
5 5 
5 5 
5 0 35:2 1358:1 1365:1 1947:2 
5 5 
5 5 
5 0 1325:1 1716:1 
5 5 
0.8330626039926616 0 482:1 662:1 1004:1 1358:1 1603:1 1605:1 1690:1 1744:2 1930:1 1999:1 
5 5 
5 5 
5 0 1930:1 
5 5 
5 5 
5 5 
5 0 1325:1 1365:1 1393:1 1431:1 1526:1 1716:1 1778:1 1912:1 1930:1 
5 5 
5 5 
5 5 
5 5 
5 0 1201:1 1318:1 1520:1 1595:1 1643:1 1947:2 
5 5 
5 5 1201:1 
5 5 
5 2.068242568183019 1643:1 
5 5 
5 4.931838499445004 1520:1 1643:1 
5 5 
5 0 1201:1 1947:4 
5 5 
5 5 
5 5 
5 5 1358:1 1365:1 
5 5 
5 5 
5 5 
5 0 795:1 1520:1 1947:2 
5 5 
5 5 
5 0 1422:1 1603:1 1947:2 
5 5 
5 5 
5 5 
5 0 1318:1 1353:1 1365:1 1643:1 1947:2 
5 5 
5 5 
5 5 
5 4.339692743910353 662:1 1040:1 1358:1 
5 5 
5 0 795:1 1008:1 1365:2 1947:2 
5 5 
5 5 
5 0 1947:4 1999:1 
5 5 
5 5 1358:2 1744:1 
5 5 
5 0 1318:1 1325:1 1358:1 1365:1 1947:4 
5 5 
5 0 795:1 875:2 1201:1 1353:2 1605:1 1882:1 1930:1 1947:2 
5 5 
5 0 707:1 1358:1 1744:1 1947:4 
5 5 
5 0 1799:1 1942:1 1947:2 
5 5 
5 5 
5 5 
5 0 1643:1 1947:2 
5 5 
0.9459988065476255 0 1318:1 1325:1 1340:1 1431:2 1525:1 1799:1 
5 5 
5 5 
3.654406584887343 0 100:1 795:1 1832:1 1947:2 
5 5 
5 0 1358:2 1947:4 
5 5 
5 4.915606708177268 1393:1 1565:1 1690:1 
5 5 
5 5 
5 5 
5 5 1747:1 
5 5 
5 5 
5 5 
5 5 1365:1 
5 5 
5 0 697:1 1201:1 
5 5 
5 5 
5 5 1201:1 
5 5 
5 5 
5 0 418:1 795:1 1318:1 1365:1 1947:6 1999:1 
5 5 
5 5 
2.463506127720781 4.023276171295475 1964:1 
5 5 
5 5 
5 5 1365:1 
5 5 
5 5 
5 0 1318:1 1365:1 1947:2 
5 5 
5 0 1358:1 1365:1 1947:2 
5 5 
5 0 966:1 1947:4 1965:1 
5 5 
5 0 795:1 796:1 967:1 1520:1 1690:1 1799:1 1930:2 1947:4 1999:1 
5 5 
5 5 
5 5 
4.151194211684026 0 1325:1 1393:1 1476:1 1565:1 1695:1 1894:1 1930:1 1947:4 
5 5 
5 5 
5 5 1799:1 1811:1 
5 5 
5 0 1947:2 1964:1 
5 5 
5 0 1947:2 
5 5 
5 0 1365:1 1947:2 
5 5 
5 0 1008:1 1318:1 1365:1 1716:1 1799:1 1811:1 1947:2 
5 5 
5 5 
5 5 572:1 
5 5 
5 0 697:1 1744:1 1947:2 
5 5 
5 0 795:2 1358:1 1362:1 1947:4 
5 5 
5 0 1362:1 1947:2 
5 5 
5 5 1811:1 
5 5 
5 5 
5 0 1947:2 1964:1 
5 5 
5 0 1930:1 
5 5 
5 5 
5 0 1965:1 
5 5 
5 5 
5 0 1947:2 
5 5 
0.255743845530353 0 627:1 1243:1 1318:1 1817:1 1847:1 1947:2 
5 5 
5 5 
5 5 697:1 1318:1 1365:2 
5 5 
5 0 1365:2 1930:1 
5 5 
5 0 1358:1 1716:1 1947:8 
5 5 
5 0 418:3 1365:1 1484:1 1947:4 1999:1 
5 5 
5 0 1318:2 1365:1 1799:1 1947:2 
5 5 
5 5 1365:2 1484:1 
5 5 
5 5 
5 0 1947:2 
5 5 
5 0 1008:1 1365:1 1603:1 1799:1 1930:1 1947:2 
5 5 
5 5 
5 5 
5 5 
5 5 1365:1 
5 5 
5 5 1008:1 
5 5 
5 0 795:1 796:1 1358:1 1747:3 1947:6 
5 5 
5 5 795:1 1799:1 
5 5 
5 0 1358:1 1947:2 
5 5 
5 5 
5 5 
5 5 
5 5 
5 5 
5 0 1318:1 1358:1 1365:2 1930:1 1947:6 1999:1 
5 5 
5 5 
5 5 1780:1 
5 5 
5 5 
5 0.7193962235165491 571:1 795:1 1525:1 
5 5 
5 0 1525:1 1826:1 1882:1 1947:4 
5 5 
5 0 1365:1 1826:1 1930:1 1947:6 
5 5 
5 5 
5 5 
5 5 571:1 1318:1 1365:1 
5 5 
5 5 795:1 1358:1 1716:1 1799:1 
5 5 
5 5 
5 0 1358:1 1525:1 1947:2 
5 5 
4.33332090188286 0 1365:2 1601:1 1947:2 
5 5 
5 0 1947:2 
5 5 
5 0 358:1 697:1 1201:1 1365:1 1947:2 
5 5 
5 0 1365:1 1882:1 1947:2 
5 5 
5 0 1947:2 
5 5 
5 0.3332875319579622 1942:1 
5 5 
5 0 796:1 1609:1 1947:6 1999:1 
5 5 
5 5 
5 5 
5 5 
5 5 1358:1 1779:1 
5 5 
5 0 795:1 1826:1 1947:2 
5 5 
5 5 352:1 
5 5 
5 5 
5 5 
5 0 799:1 1528:1 1947:2 
5 5 
5 5 
5 0 1947:2 
5 5 
4.633444360563799 0 795:1 1947:2 1954:1 
5 5 
5 5 
5 5 
5 1.675216070331298 1358:1 1799:1 1965:1 
5 5 
5 5 
5 5 
5 5 
1.801377014884421 0 24:1 375:1 795:1 1358:3 1484:1 1826:2 1947:8 
5 5 
5 5 1365:1 
5 5 
5 5 
5 5 
5 0 1318:1 1358:1 1462:1 1947:4 
5 5 
5 5 697:1 1365:1 
5 5 
5 5 1318:3 1603:1 
5 5 
5 5 795:1 1318:1 1358:1 1799:1 1826:1 1885:1 
5 5 
5 5 
5 5 
5 5 
5 5 
5 0 1526:1 1779:1 1799:1 1947:2 1965:1 
5 5 
5 5 
5 5 
5 0 1947:2 
5 5 
5 5 
5 5 
5 5 795:1 1928:1 
5 5 
5 5 
5 5 697:1 1656:1 1829:1 
5 5 
5 0 999:1 1799:2 1947:4 
5 5 
5 5 24:1 1999:1 
5 5 
5 5 
5 5 795:1 
5 5 
5 0 1484:1 1882:1 1947:4 1964:1 
5 5 
5 5 
5 0 1947:2 
5 5 
5 5 
5 5 
5 0 1947:2 
5 5 
5 0 1942:1 1947:2 
5 5 
5 5 
5 5 
5 0 1365:1 1799:1 1947:2 
5 5 
5 0 1947:6 1964:1 
5 5 
1.516398680108997 0 1930:1 1983:1 
5 5 
5 5 
5 0 1799:1 1947:4 
5 5 
5 5 
5 5 
5 5 
5 5 
5 0 1947:2 1964:1 
5 5 
5 5 
5 0 627:1 697:1 1201:1 1365:2 1484:1 1799:1 1947:6 
5 5 
5 5 
5 5 
5 5 
5 5 
5 5 
5 5 
5 5 1008:2 1365:1 
5 5 
5 0 1365:1 1947:2 
5 5 
5 0 1716:1 1799:2 1947:2 
5 5 
5 5 
5 0 1365:1 1528:1 1947:4 
5 5 
5 5 1690:1 
5 5 
5 5 
5 0 1528:1 1799:1 1882:1 1947:4 
5 5 
5 5 1365:1 1603:1 1885:1 
5 5 
5 5 
5 0 1365:2 1947:4 1999:1 
5 5 
5 5 
5 5 
5 5 1484:1 1799:1 1882:1 
5 5 
5 0 1358:1 1799:1 1882:1 1947:4 
5 5 
5 0 1358:1 1365:1 1799:2 1947:2 
5 5 
5 5 
5 5 
5 5 627:1 1429:1 
5 5 
5 5 795:1 
5 5 
0 0.07734138612334383 1976:1 
5 5 
5 5 
5 0 1365:1 1947:2 
5 5 
5 5 
5 5 
5 5 
5 5 
5 5 
5 0 1365:1 1947:4 
5 5 
5 5 
5 0 1201:1 1318:1 1947:6 
5 5 
2.101588474024044 0 1811:1 1882:2 1930:1 1947:2 1963:1 
5 5 
5 0 1528:1 1799:1 1947:6 
5 5 
5 0 1947:2 
5 5 
5 5 
5 5 
5 5 
5 5 
5 5 795:1 875:1 1891:1 
5 5 
5 0 1358:1 1365:1 1947:8 
5 5 
5 0 1358:1 1365:1 1947:2 
5 5 
5 5 
5 0 1930:1 1942:1 1947:2 
5 5 
5 5 
5 0 627:1 795:1 1358:2 1365:1 1799:1 1811:1 1947:8 
5 5 
5 0 837:1 1318:2 1365:3 1799:1 1947:6 1999:1 
5 5 
5 5 
5 5 
5 5 
5 0 1811:1 1947:2 
5 5 
5 5 
5 0 1525:1 1947:2 
5 5 
5 0 1365:1 1947:2 
5 5 
5 5 
5 5 
5 5 
5 5 
5 0 1365:1 1947:2 
5 5 
5 0 571:1 1799:1 1826:1 1942:1 1947:2 
5 5 
5 5 
5 0 1595:1 1885:1 1999:1 
5 5 
3.434962312665084 0 1201:1 1436:1 1947:2 
5 5 
5 0 1358:1 1716:1 1947:8 
5 5 
5 5 
5 5 1318:1 
5 5 
5 5 
5 5 
5 5 
5 5 
5 5 1566:1 
5 5 
5 0 1325:3 1352:1 1353:1 1365:1 1393:1 1716:1 1870:1 1886:1 1912:1 1930:3 1989:1 
5 5 
5 0 1358:1 1528:1 1947:2 
5 5 
5 0 1826:1 1930:2 
5 5 
5 0 1947:2 
5 5 
5 5 
5 0 1930:1 1965:1 
5 5 
5 5 
5 5 
5 1.237474740774588 327:3 1008:1 1318:1 1565:1 1947:2 
5 5 
5 5 1353:1 
5 5 
5 0 1358:1 1609:1 1947:2 
5 5 
5 5 
5 5 
5 0 1365:1 1744:1 1942:1 1947:2 2000:1 
5 5 
5 5 
5 4.40574317623058 1321:1 1744:1 1826:1 
5 5 
5 5 
5 5 
5 0 1701:1 1799:1 1947:2 
5 5 
1.266399296845183 0 627:1 1243:1 1318:1 1817:1 1847:1 1947:2 
5 5 
5 5 
5 5 
5 0 1008:1 1365:1 1603:1 1799:1 1930:1 1947:2 
5 5 
0 0.9263735267339076 1358:1 1929:1 
5 5 
5 0 627:1 1358:1 1947:4 
5 5 
5 0 795:1 1201:1 1365:1 1520:1 1799:1 1947:4 
5 5 
5 5 
5 5 
5 0 795:1 1365:2 1799:1 1947:2 
5 5 
5 5 
5 5 
4.464866615112232 0 1201:1 1436:1 1947:2 
5 5 
5 5 
5 0 795:1 1318:1 1947:2 
5 5 
5 0 1799:1 1947:2 
5 5 
5 5 
5 5 1318:1 1826:1 
5 5 
5 5 
0.7813122538745145 0 1325:1 1393:1 1870:1 1894:1 1930:1 
5 5 
3.162380532912766 0 467:1 875:1 1528:1 1623:1 1778:1 1947:2 
5 5 
0 5 697:1 1286:2 1358:1 1365:1 1528:1 1826:1 1882:1 
5 5 
5 5 
5 5 
5 0 627:1 1350:1 1826:1 1947:2 
5 5 
5 0 1318:1 1365:1 1989:1 
5 5 
0 5 627:1 1187:1 1353:2 1358:1 
5 5 
5 0 1365:3 1799:1 1826:1 1947:8 
5 5 
5 0 319:1 418:2 572:1 1358:1 1947:6 1964:1 
5 5 
5 5 1365:3 
5 5 
5 5 1716:1 
5 5 
5 5 
5 0 1947:4 1999:1 
5 5 
5 5 
5 5 
5 0 418:1 572:1 1318:1 1362:1 1365:1 1947:2 
5 5 
5 5 
5 5 
5 5 
5 0 1947:2 
5 5 
5 5 
5 5 1716:1 
5 5 
5 5 
5 0 1643:1 1931:1 1947:6 
5 5 
5 0 1318:1 1365:1 1947:2 
5 5 
5 5 1799:1 1811:1 
5 5 
5 5 
5 5 
5 0 1947:2 
5 5 
5 0 795:2 1318:1 1358:2 1744:2 1779:1 1947:4 1999:2 
5 5 
5 0 383:1 433:2 795:4 1201:1 1358:4 1365:1 1475:2 1484:1 1779:1 1799:3 1826:1 1882:1 1885:1 1947:8 1999:2 
5 5 
5 0 795:1 1318:2 1358:2 1422:1 1780:1 1930:1 1947:6 
5 5 
5 0 795:1 1799:3 1930:1 1947:4 1999:1 
5 5 
5 5 795:1 
5 5 
5 5 
5 5 
5 5 
5 5 
5 5 
5 5 
5 5 
5 5 
5 5 
5 0 1365:1 1885:1 1947:2 
5 5 
5 0 1318:1 1947:2 
5 5 
5 5 
5 5 
5 5 
5 5 
5 5 
5 5 
5 5 
5 5 
5 5 1365:1 
5 5 
4.947309103157669 5 1964:1 
5 5 
5 5 
5 0 1318:1 1947:2 
5 5 
5 5 1318:1 1476:1 
5 5 
5 5 
5 5 
5 5 
5 0 1358:1 1365:1 1947:4 
5 5 
5 0 1365:1 1779:1 1930:5 1947:2 1965:1 
5 5 
4.159563885403506 5 1964:1 
5 5 
5 0 1947:4 
5 5 
5 5 
5 5 1799:1 1811:1 
5 5 
2.548178323603516 2.000633192239647 1340:1 1902:1 
5 5 
5 0 1940:1 
5 5 
5 5 
2.320823561598408 1.33251128998453 354:1 796:1 1365:1 1718:1 1744:1 
5 5 
5 0 1947:2 
5 5 
5 5 
5 5 
5 0 1643:1 1947:2 
5 5 
5 0 35:1 1947:2 
5 5 
5 5 1799:1 1882:1 
5 5 
5 0 867:1 1528:1 1947:4 
5 5 
1.699919102639893 0 1847:1 1930:1 
5 5 
5 5 
5 5 
5 0 795:1 1947:2 
5 5 
5 5 
5 5 
5 0 1365:1 1799:1 1947:2 
5 5 
5 0 1318:1 1778:1 1947:8 
5 5 
5 5 1365:1 1799:1 
5 5 
5 5 
5 5 1318:1 1365:1 
5 5 
5 0 795:1 1484:1 1623:1 1947:2 
5 5 
5 0 1365:2 1799:1 1947:6 
5 5 
5 0 795:1 1947:4 1964:1 
5 5 
5 0 1201:1 1525:1 1826:1 1947:4 
5 5 
5 5 
5 0 1318:1 1365:1 1799:1 1947:2 
5 5 
5 5 
5 5 1528:1 
5 5 
5 0 1358:1 1947:2 1965:1 
5 5 
5 0 795:1 1365:1 1799:1 1930:1 1947:2 
5 5 
5 0 1799:1 1947:2 
5 5 
5 5 875:1 1318:1 
5 5 
5 5 
5 5 1318:1 
5 5 
5 0 1947:2 
5 5 
5 0 1358:1 1365:1 1947:2 
5 5 
5 5 1826:1 
5 5 
5 5 
5 5 
5 5 1799:1 
5 5 
5 0 1965:1 
5 5 
5 0 1358:2 1947:2 
5 5 
5 5 
5 5 
5 5 1826:1 
5 5 
5 5 1811:1 
5 5 
5 5 
5 5 
5 0 1947:2 
5 5 
5 0 1744:1 1947:2 
5 5 
5 5 
5 5 1358:1 1565:1 1999:1 
5 5 
5 5 
5 5 
5 5 
5 5 
5 0 1947:2 
5 5 
5 0 1947:2 
5 5 
5 5 
5 5 
5 5 1353:1 1826:1 1885:1 
5 5 
5 5 1494:1 
5 5 
5 5 
5 5 
5 5 
5 5 
5 5 1365:1 
5 5 
5 0 1008:1 1947:2 
5 5 
5 5 1365:1 1799:1 1826:2 1882:1 
5 5 
5 5 
5 5 
5 5 
5 5 
0 0.7932697244841633 1976:1 
5 5 
5 5 
5 0 795:1 1484:1 1525:1 
5 5 
5 0 795:1 1365:2 1623:1 1799:2 1947:4 
5 5 
5 0 1318:1 1353:1 1358:1 1779:1 1947:8 
5 5 
5 0 1365:1 1947:2 
5 5 
5 0 1947:2 
5 5 
5 5 
5 5 
5 0 627:1 795:2 827:1 1201:1 1334:1 1365:1 1410:1 1484:1 1692:1 1716:1 1744:2 1799:3 1826:9 1882:1 1931:2 1947:8 1979:1 
5 5 
5 0 1211:1 1365:1 1484:1 1799:1 1930:2 
5 5 
5 0 1365:1 1799:1 1947:2 
5 5 
5 5 
5 0 1947:2 
5 5 
5 5 
5 5 
5 5 
5 0 1947:2 
5 5 
5 5 1365:1 
5 5 
5 5 1964:1 
5 5 
5 5 1358:1 1882:1 
5 5 
5 5 
5 5 
5 5 
5 5 
5 5 
5 5 1358:1 1365:1 
5 5 
5 0 1947:6 1999:2 
5 5 
0.8322515416209029 0 103:1 795:1 1358:1 1365:2 1709:1 1780:1 1885:1 1947:2 
5 5 
5 5 
5 5 
5 5 
5 0 45:1 75:1 444:1 1358:1 1799:2 1870:1 1930:2 1947:4 
5 5 
0 1.543605410769259 418:1 1358:1 1365:1 1695:1 1964:1 
5 5 
5 0 1318:1 1358:1 1365:1 1947:8 1999:1 
5 5 
5 5 
5 5 
5 0 1947:2 
5 5 
5 5 
5 0 1358:1 1826:1 1930:1 1999:1 
5 5 
5 5 
5 0 966:1 1365:1 
5 5 
5 5 1716:1 
5 5 
5 5 
5 0 24:1 795:1 1525:1 1716:1 1718:1 1799:2 1892:1 1930:4 1947:4 
5 5 
5 5 
5 0 697:1 1744:1 1947:8 
5 5 
5 0 1811:1 1885:1 1947:2 
5 5 
5 0 1318:1 1365:1 1565:1 1799:1 1826:1 1947:6 1999:1 
5 5 
5 0 327:1 627:1 795:2 1201:2 1318:1 1476:1 1484:1 1799:2 1886:1 1930:3 1931:1 1947:4 
5 5 
5 0 1609:1 1947:4 
5 5 
5 0 1365:1 1429:1 1799:1 1947:2 
5 5 
5 5 
5 0 418:1 795:1 1365:3 1744:1 1947:4 1999:1 
5 5 
5 0 1358:1 1365:1 1747:1 1947:2 
5 5 
5 0 319:1 1318:1 1358:1 1484:1 1882:1 1947:4 
5 5 
5 0 206:1 418:1 1201:1 1318:1 1609:1 1799:1 1885:1 1947:4 
5 5 
5 5 
5 5 
5 5 
5 5 
5 5 1882:2 
5 5 
5 5 1882:1 
5 5 
5 0 1484:1 1882:1 1964:1 
5 5 
5 0 837:1 1358:1 1947:4 
5 5 
5 5 1365:1 
5 5 
5 0 1358:1 1886:1 1947:4 
5 5 
5 0 1358:1 1947:4 
5 5 
5 0 795:1 1643:1 1947:2 
5 5 
5 5 
5 5 
5 5 
5 5 
5 0 1318:1 1352:1 1930:1 
5 5 
5 5 1643:1 
5 5 
5 4.685901780562078 795:2 1484:1 1525:1 
5 5 
5 0 1318:1 1947:4 
5 5 
5 0 418:1 1365:1 1965:1 
5 5 
5 0 795:1 1318:1 1930:3 1942:1 1947:2 
5 5 
5 5 
5 0 1947:2 
5 5 
5 0 1318:1 1947:4 
5 5 
5 0 1365:1 1643:1 
5 5 
5 5 
5 5 
5 0 1365:1 1947:2 
5 5 
5 5 1365:1 
5 5 
5 5 
5 0 327:1 372:1 516:1 662:1 1358:1 1365:2 1799:2 1811:1 1930:3 1947:4 2000:1 
5 5 
5 5 
5 5 
5 5 
5 0 1947:2 
5 5 
5 5 
5 5 627:1 
5 5 
5 0 795:1 1318:1 1358:1 1528:1 1643:1 1947:6 
5 5 
5 0 1779:1 1947:2 
5 5 
5 5 
5 0 697:1 795:1 1799:2 1930:1 1931:1 
5 5 
5 5 
5 5 
5 5 
5 5 
0 0.6365277848681886 1811:1 1964:1 
5 5 
5 0 1899:1 1947:2 
5 5 
5 0 627:1 1358:2 1799:1 1826:1 1947:4 
5 5 
5 0 1517:1 1947:2 
5 5 
5 5 1826:1 
5 5 
5 5 
5 5 
5 5 1201:1 1358:2 
5 5 
5 0 1358:1 1744:1 1947:2 
5 5 
5 5 1826:2 
5 5 
5 5 
5 5 
5 5 
5 5 795:1 1201:1 1365:1 1526:1 1799:2 
5 5 
5 0 1325:1 1566:1 1930:2 1947:2 
5 5 
5 0 1393:1 1930:2 1931:1 1947:8 1959:1 
5 5 
5 5 
5 5 
5 0 1318:2 1365:1 1484:1 1947:2 
5 5 
5 0 1358:2 1494:1 1947:8 
5 5 
5 5 
5 5 1656:1 1799:1 
5 5 
5 0 697:1 795:2 1318:1 1475:1 1799:1 1826:1 1947:4 2000:1 
5 5 
5 5 795:1 1358:1 1365:2 
5 5 
5 5 
5 5 795:3 
5 5 
5 0 795:1 1365:1 1520:1 1947:2 
5 5 
5 0 795:1 1358:4 1656:1 1747:1 1780:1 1799:3 1882:3 1930:1 1947:12 
5 5 
5 5 
5 5 
5 0 1358:2 1365:2 1422:1 1947:4 
5 5 
5 0 572:1 795:1 1358:1 1847:1 1885:1 1947:2 
5 5 
5 0 1229:1 1358:1 1799:1 1947:2 
5 5 
5 0 1365:1 1930:1 1947:2 
5 5 
0 1.996464461215808 1325:2 1358:1 1365:2 1528:1 1771:1 
5 5 
5 0 662:1 1318:1 1947:4 1964:1 
5 5 
5 5 
5 5 1318:2 1353:1 1431:1 1484:1 1744:1 1811:1 1999:1 
5 5 
0 2.981773587254218 327:1 1318:1 1983:1 
5 5 
5 5 
5 0 837:2 1947:4 1999:1 
5 5 
5 5 
5 5 515:1 1365:2 1799:1 
5 5 
5 0 327:1 1826:1 1931:1 1947:8 
5 5 
5 5 
1.104216579781468 0 1365:1 1423:1 1643:1 
5 5 
5 5 
5 0 1365:1 1947:4 1999:1 
5 5 
5 0 1201:1 1318:1 1947:6 
5 5 
5 5 
5 0 1947:2 
5 5 
5 5 
1.000016210561406 0 1201:1 1365:4 1528:1 1910:1 1930:3 1947:4 
5 5 
5 0 467:1 1365:1 1885:1 1930:2 1947:2 
5 5 
5 0 1930:1 1942:1 
5 5 
5 5 
5 0 1358:1 1947:4 
5 5 
5 5 
5 0 1365:2 1947:2 
5 5 
5 5 
5 5 
5 0 795:1 1318:1 1947:2 
5 5 
5 0 1318:1 1358:1 1365:1 1481:1 1744:1 1930:1 1931:1 1947:6 
5 5 
5 5 
5 5 1603:1 1779:1 1885:1 
5 5 
5 0 1947:2 1953:1 
5 5 
5 0 1068:1 1885:1 1930:1 
5 5 
1.437101240636886 1.998625502938057 319:1 511:1 1325:1 1410:1 1779:1 1799:1 
5 5 
5 5 
0.2316381768452105 5 1964:1 
5 5 
5 0 795:1 1826:1 1882:1 1947:2 
5 5 
5 5 
5 0 1947:2 
5 5 
5 0 1947:2 
5 5 
5 0 1365:2 1947:2 
5 5 
5 5 
5 0 1892:1 1930:3 1947:4 
5 5 
5 5 
5 5 
5 0 1947:2 1999:1 
5 5 
5 5 
5 5 
5 5 
5 5 
5 5 
5 0 1947:2 
5 5 
5 0 1353:1 1431:1 1947:2 
5 5 
5 3.500613297986044 1942:1 
5 5 
5 5 1353:1 1431:1 
5 5 
5 0 1947:2 1964:1 
5 5 
5 0 1947:2 
5 5 
5 0 1947:2 
5 5 
5 5 1365:1 
5 5 
5 0 1358:1 1947:2 1967:1 
5 5 
5 5 
5 5 1365:1 1484:1 1799:1 
5 5 
1.256420427357099 0 418:2 433:2 869:1 875:1 1365:1 1947:2 
5 5 
5 0 1365:1 1947:6 2000:1 
5 5 
5 0 327:1 433:4 795:1 1484:1 1947:2 
5 5 
5 0 1429:1 1716:1 1942:1 
5 5 
5 0 1429:1 1780:1 1930:1 
5 5 
5 0 327:1 1947:2 
5 5 
5 0 795:1 1318:1 1947:2 
5 5 
5 5 
4.187851961628486 0 1318:2 1358:1 1365:1 1643:1 1826:1 1947:6 
5 5 
5 5 1365:1 1484:1 1811:2 
5 5 
5 0 327:1 627:1 697:1 1358:1 1744:1 1947:2 
5 5 
5 5 
5 5 
5 5 
5 5 
5 5 795:1 
5 5 
5 5 
5 0 1201:1 1365:1 1528:1 1947:2 
5 5 
5 5 
5 5 
5 5 
5 5 1318:1 1365:1 
5 5 
5 0 515:1 1609:1 1947:2 
5 5 
5 5 
5 5 
5 5 
5 0 1365:1 1930:2 
5 5 
5 5 
5 5 
5 5 
5 0 1365:1 1947:6 
5 5 
5 5 1365:1 1999:1 
5 5 
5 0 795:2 1365:1 1609:1 1690:1 1930:1 1947:4 1999:1 
5 5 
5 0 1947:2 
5 5 
5 0 1882:1 1947:2 
-0 5 
-0 5 
-5 0 1656:1 1799:1 1947:2 
-0 5 1931:1 
-5 0 327:1 515:2 627:1 983:1 1494:1 1947:2 
-0.2828435794180028 0 24:2 95:1 245:1 760:1 795:1 1008:1 1011:1 1018:1 1201:1 1229:1 1244:1 1318:1 1358:3 1429:1 1565:2 1571:4 1603:2 1656:1 1695:1 1744:2 1799:3 1811:1 1826:1 1921:1 1930:16 1931:1 1947:30 1958:1 2001:1 
-5 0 795:1 1318:3 1597:1 1947:2 
-5 0 1358:1 1826:1 1947:4 
-5 3.915361700846216 804:1 1365:1 1609:1 
-5 0 1744:1 1799:1 1947:2 
-5 0 1353:1 1744:1 1930:2 1947:4 
-5 0 795:1 1744:2 1947:4 
-0.06985602633617212 5 1682:1 
-0.09777261147745034 0 1011:1 1358:1 
-5 5 1318:1 
-4.568878181023514 0 1358:2 1362:1 1609:1 1931:3 1947:6 
-5 0 627:1 1716:1 1747:1 1799:1 1826:1 1930:2 1932:1 1947:4 1999:1 
-5 5 1365:1 1744:1 
-5 5 697:1 
-5 0 1422:1 1947:2 1999:1 
-0.06295326369717259 1.99991923962429 672:1 1358:1 1656:1 1744:1 1811:1 1958:1 
-5 5 1999:1 
-5 0 1365:1 1965:1 
-5 0 1365:1 1947:2 
-5 0 795:1 1780:1 1947:2 
-5 0 1365:2 1690:1 1744:1 1947:2 
-5 5 1201:1 
-5 5 1318:2 
-1.008754983964736 0 334:2 875:1 1318:1 1366:1 1656:1 1744:3 1826:1 1930:1 1942:1 1947:6 
-5 5 24:1 1365:2 1744:1 1826:1 
-5 5 1365:1 1826:1 1964:1 
-5 0 1318:2 1365:1 1520:1 1811:1 1931:5 1947:2 
-5 0 418:1 1947:2 
-0 5 1799:1 
-5 0 1318:1 1930:1 
-5 0 795:1 1365:1 1603:1 1744:1 1932:1 1947:4 2000:1 
-5 0 1365:1 1422:1 1826:1 1947:2 
-5 5 795:1 1008:1 1656:1 
-5 0 1318:1 1947:2 
-0.6561740531275441 0 381:1 759:1 1799:1 1892:1 1947:4 
-5 1.316955589006627 795:1 1609:1 1744:1 1779:1 
-5 0 837:1 1318:1 1365:1 1744:1 1826:1 1930:1 1947:2 
-5 0 1422:1 1826:1 1947:4 
-5 0 795:1 1799:1 1885:1 1947:6 
-5 5 875:1 1431:1 1484:1 
-0 5 35:1 
-5 0 627:1 795:2 1318:1 1365:1 1609:1 1744:1 1826:1 1947:4 
-5 0 1365:1 1947:4 
-5 3.270285153652392 1040:1 1318:1 
-5 5 1358:1 1826:1 
-0 5 319:1 1244:1 1799:1 
-0.8640722724989689 0 697:1 817:1 1244:1 1779:1 1780:1 1799:1 1826:2 1930:1 1952:1 1959:1 
-5 0 1334:1 1365:1 1422:1 1609:1 1932:1 1947:4 
-0 5 
-1.435015077914088 0 24:2 795:2 955:1 967:1 1011:1 1318:1 1422:2 1431:1 1656:1 1744:1 1779:2 1799:1 1930:1 1931:2 
-5 5 795:1 1656:1 1829:1 
-5 0 1358:1 1724:1 1930:1 1947:4 
-5 0 1942:1 1947:2 
-0 5 
-5 5 1779:1 1826:1 
-0 5 795:1 1462:1 
-0.4681112519228353 0 697:1 1431:1 1811:1 1947:4 1970:1 2001:1 
-5 0 515:1 1947:2 
-5 0.1829848536533465 817:1 1422:1 1609:1 
-5 1.999728829832936 1289:1 1365:1 1565:2 1744:1 
-5 0 1834:1 1947:2 
-5 5 1318:1 
-5 0 1365:1 1930:1 1947:2 
-5 2.000261076050735 795:1 1656:1 1941:1 
-5 0 1358:1 1947:6 
-5 0 1326:1 1422:1 1947:4 
-3.525697440465745 0 358:1 1568:1 1947:2 
-5 5 1318:1 
-0 0.1533801883108299 795:1 1970:1 
-0 0.2941892649073713 499:1 572:1 1744:1 
-0 5 1690:1 1931:1 
-5 5 
-5 0.9957903260985035 49:1 75:1 795:2 875:1 967:1 1244:1 1365:1 1510:1 1603:1 1942:1 
-5 0 795:3 1318:2 1609:1 1799:1 
-0 1.720737090753401 804:1 1008:1 1952:1 
-5 0 1365:1 1744:1 1947:2 
-2.640757302357454 0 867:1 1353:1 1365:1 1799:1 1930:2 1947:4 
-0 5 
-5 0 372:1 1318:2 1609:1 1942:2 1947:18 
-5 5 795:1 
-5 0 795:1 1365:1 1947:2 
-5 0 1008:1 1318:1 1947:2 
-1.115355431971191 0 49:1 953:1 1947:2 
-5 0 875:1 1365:1 1947:10 
-2.230220100705266 0 119:1 1930:1 1947:2 
-0 0.2792629092465987 1952:1 
-5 0 1947:4 1999:1 
-5 0 372:1 795:1 1358:1 1365:2 1947:2 1999:1 
-0 5 
-0 5 1799:1 
-5 0 795:1 1947:4 1999:1 
-0.6375314497115896 0 1318:1 1365:1 1482:1 1744:1 1826:1 1947:4 
-5 5 
-0 5 1931:1 
-5 5 1885:1 
-5 5 795:1 1422:1 
-5 0 1318:3 1744:1 1947:6 
-0 0.0004296994008202179 1609:1 1959:1 1967:1 
-5 5 795:2 1358:1 1811:1 1999:1 
-5 0 795:1 1318:1 1358:1 1947:2 
-1.092618924094729 5 
-5 0 1365:1 1744:1 1826:1 1847:1 1947:2 
-5 0 1942:1 1947:2 
-1.056194209934394 1.32126245727732 327:2 1365:1 1609:1 
-5 0 1318:1 1947:2 
-5 2 1217:1 1358:1 1365:1 
-5 0 1318:1 1365:1 1826:1 1947:2 
-5 0 1358:1 1947:4 
-1.064482760287093 0 1365:2 1653:1 1885:1 1931:1 1942:1 
-5 0 795:1 1422:1 1744:1 1947:2 1999:1 
-0 5 1244:1 
-5 0 1365:1 1609:1 1947:2 
-5 0 571:1 1340:1 1365:2 1422:2 1603:1 1716:1 1799:1 1930:3 1947:6 1953:1 
-0 5 
-5 5 1318:1 1365:1 
-5 0 966:1 1358:1 1365:1 1422:1 1780:1 1826:1 1947:6 
-5 0 1365:1 1947:4 
-5 0 795:1 1358:2 1365:1 1947:2 
-5 0 732:1 1318:1 1358:1 1365:1 1376:1 1528:1 1534:1 1690:1 1747:1 1826:2 1947:6 1979:1 
-5 0 1365:1 1744:1 1826:1 1947:2 
-5 0 1744:1 1947:2 
-5 5 1365:1 
-5 0 1318:2 1609:1 1799:1 1947:2 1999:2 
-5 0 1716:1 1885:1 
-5 0 1358:1 1365:2 1947:4 
-5 5 1365:1 
-5 0 1365:1 1947:2 
-5 0 795:1 1947:2 
-5 0 1930:1 1942:1 1947:2 
-0 5 774:1 
-5 5 1528:1 1609:1 
-5 0 107:1 327:1 572:1 627:1 697:2 795:2 837:2 875:2 1008:1 1018:1 1318:1 1353:2 1358:1 1365:3 1431:2 1609:3 1716:1 1744:1 1799:2 1826:2 1828:1 1885:2 1891:1 1930:2 1947:14 1953:1 1999:1 
-5 0 1358:1 1365:3 1528:5 1744:1 1799:1 1885:1 1947:2 
-0 5 
-5 0 795:1 1744:1 1799:2 1811:2 1947:2 
-5 0 1318:1 1365:1 1609:1 
-5 5 795:1 1318:2 1744:1 
-5 5 1008:1 1656:1 
-5 0 627:1 795:2 1431:2 1799:1 1930:3 1947:4 
-0 5 1826:1 
-0.3037701069705076 0 795:1 1422:1 1826:1 1932:1 1947:4 
-5 0 1318:1 1656:1 1718:1 1930:1 1947:2 
-5 0 1365:1 1546:1 1609:1 
-2.830391873695231 0 795:1 1008:1 1318:1 1358:1 1365:2 1427:1 1744:2 1799:1 1930:3 1932:1 1947:2 1987:1 
-5 0 1008:1 1528:1 1799:1 1931:1 1947:2 
-5 0 837:1 1358:1 1930:1 1947:4 
-5 0 1365:1 1744:1 1947:2 
-5 5 1744:1 
-5 0 1365:1 1947:4 
-0 5 1018:1 1431:1 1484:1 1744:1 1931:3 
-5 0 697:1 1353:1 1947:2 
-5 0 795:1 1930:1 1947:2 1999:1 
-0 5 
-0 2.000412160096469 795:1 1358:2 1978:1 
-5 0 795:1 1780:1 1947:2 
-0 5 
-5 5 1358:1 1365:1 1931:1 
-0 5 
-0 0.01216231466369622 1365:1 1744:1 1961:1 
-5 5 1365:1 1744:1 
-5 5 795:1 
-5 0 1365:2 1947:2 
-4.53204975083857 0 515:1 697:1 1244:1 1318:1 1365:1 1528:1 1603:1 1609:1 1716:1 1799:1 1885:1 1947:6 1988:1 
-5 0 875:1 1744:1 1779:1 1799:1 1947:2 
-5 0 24:1 277:1 683:1 795:1 1011:1 1744:1 1799:1 1826:1 1930:1 1947:2 
-5 0 1318:1 1358:2 1534:1 1623:1 1947:2 
-5 0 571:1 627:1 1930:1 1931:1 1947:4 1999:1 
-0 5 1931:6 
-1.88450144435998 0 732:1 1326:1 1365:3 1484:3 1744:1 1747:1 1826:1 1885:1 1899:1 1930:1 1942:1 1947:4 1979:1 
-5 0 1603:1 1947:4 
-5 0 1008:1 1318:1 1885:1 1947:2 
-5 0 1318:1 1365:1 1942:1 
-5 0 795:1 875:1 1431:1 1484:2 1716:1 1947:2 
-5 5 1358:1 1365:1 1931:2 
-1.865780986888892 0 516:1 662:1 1008:1 1018:1 1358:2 1515:1 1528:1 1779:1 1826:1 1837:1 1882:1 1885:1 1947:10 
-0.6891066708824161 0 35:1 364:1 627:1 1473:1 1656:1 1885:1 1931:1 1947:2 2000:1 
-5 0 572:1 795:1 1365:1 1436:1 1609:1 1744:1 1947:6 
-5 0 1365:1 1422:1 1932:1 
-5 0 1365:1 1609:1 1947:4 1993:1 
-1.562517594483801 0 795:1 1947:2 
-1.696788892484429 5 1484:1 
-5 5 1318:1 1365:1 
-0 5 1931:1 
-5 5 1365:1 
-5 0 572:1 627:1 1318:1 1656:1 1826:1 1947:2 
-5 0 372:1 795:2 1318:2 1358:3 1744:1 1780:1 1826:1 1930:2 1947:6 
-5 5 1318:2 
-5 5 1528:1 
-5 4.827591147118851 817:1 1422:1 1609:1 
-1.186397910394756 0 795:2 939:1 1318:1 1422:1 1780:1 1826:1 1885:1 1906:1 1928:1 1947:4 
-5 5 1318:1 1365:1 
-5 5 1318:1 1656:1 
-5 0 795:1 875:1 1358:1 1365:1 1780:1 1826:2 1947:4 
-5 5 1365:1 
-5 0 1318:1 1947:2 
-5 0 875:1 1365:1 1744:1 1947:2 
-5 0 875:1 1534:1 1643:1 1811:1 1947:2 
-5 5 627:1 
-2.800741085565656 0 697:1 795:1 867:1 1251:1 1393:1 1520:1 1526:1 1609:1 1701:1 1795:1 1931:1 1947:6 1988:1 
-1.007422595147224 0 795:1 1318:1 1566:1 1799:2 1850:1 1885:1 1947:4 
-5 5 1318:1 1365:1 
-5 0 1365:1 1947:4 
-5 0 795:3 1068:1 1318:2 1358:1 1365:1 1434:1 1716:1 1744:1 1780:2 1931:1 1947:2 1993:1 
-5 2.999978586012675 234:1 1528:1 1597:1 
-5 0 1528:1 1643:1 1826:1 1947:2 
-5 5 
-0 5 1931:13 
-5 5 627:1 
-3.837136650668215 0 1422:1 1891:1 1947:2 
-5 0 1520:1 1779:1 1947:2 2001:1 
-0.09050856196625316 0 514:1 795:1 1008:1 1484:2 1947:6 
-5 0 795:1 1318:1 1365:1 1947:2 
-2.603852879248947 0 1520:1 1609:1 1826:1 1864:1 1930:1 1931:1 1947:2 
-0 5 
-0 5 672:1 1365:1 1826:1 1876:2 
-5 0 795:1 1365:1 1947:2 
-5 5 1811:1 
-5 5 1318:1 1744:2 1826:1 
-0 2 120:1 
-5 0 516:1 572:1 662:1 1358:1 1365:1 1656:1 1780:1 1826:1 1947:12 2001:2 
-5 5 627:1 1318:1 1656:1 1744:1 1931:1 
-5 5 1799:1 1892:1 
-5 0.3858574052717619 35:1 1528:1 1609:1 
-0 5 795:1 1008:1 1931:2 
-5 0 372:1 1318:2 1365:2 1716:1 
-0.380852218666862 0 499:1 1365:1 1947:2 
-5 5 327:1 795:1 1008:1 1999:1 
-5 0 1546:1 1942:1 1947:2 
-5 1.998864072870013 1566:1 1993:1 
-5 0 572:1 627:1 1365:1 1406:1 1422:1 1885:1 1947:2 
-0 5 
-5 0 1318:1 1930:1 
-0 5 
-5 0 795:1 1744:3 1942:1 1947:4 
-5 0 627:2 795:3 1528:1 1609:1 1656:1 1947:2 
-0.3468574224546589 5 1826:1 
-5 0 1528:1 1609:1 1744:1 1947:4 
-0 0.3400909960503157 364:1 1008:1 1318:1 1365:1 
-5 5 1603:1 1744:1 
-5 0 1365:1 1744:1 1947:2 
-0 5 
-1.765879595385989 0 572:1 795:1 1318:1 1885:2 
-0 2.000907675384736 266:1 795:1 875:1 1353:1 1484:1 1695:1 1966:1 
-5 5 1365:1 1811:1 
-5 0 1744:2 1947:4 
-5 0 1318:1 1326:1 1352:1 1358:1 1799:2 1947:6 
-0 5 795:1 1008:1 1358:1 1931:11 
-5 5 1656:1 
-2.504629796407816 0.6669079225557202 1224:1 1546:1 1747:1 1955:1 
-3.186520052969048 0 32:1 1318:1 1744:1 1799:1 1826:1 1947:4 1979:1 
-5 5 327:1 418:1 1685:1 
-5 0 572:1 875:2 1318:1 1947:2 
-5 0 1799:1 1822:1 1928:1 1930:1 1947:4 
-5 0 1571:1 1947:4 
-5 0 1358:1 1947:4 
-5 3.562136697351512 732:1 1318:1 1609:1 
-5 5 
-0 5 1931:2 
-5 5 1365:1 
-0 4.670895297231105 795:2 1609:1 
-0 5 939:1 1358:2 1365:1 1528:1 1565:1 1744:1 
-0.5945398833732027 0 275:1 967:1 1365:1 1744:1 1778:1 1930:1 
-5 5 1365:1 
-0 5 1931:2 
-5 0 1358:1 1947:2 
-5 5 795:1 
-5 0 1358:1 1947:2 
-5 0 327:1 376:1 627:1 672:1 795:2 967:1 1318:2 1429:1 1475:1 1609:3 1744:1 1799:2 1811:1 1913:1 1947:4 
-5 0 795:3 1358:1 1365:1 1826:1 1947:2 
-5 0 1358:2 1365:1 1947:2 
-5 0 1609:1 1656:1 1930:2 1947:2 
-5 0 627:1 732:1 790:1 1008:2 1318:1 1358:1 1422:2 1609:1 1780:1 
-5 0 1318:1 1365:1 1609:1 1930:3 1947:8 
-5 5 795:1 1365:1 1422:2 
-0 5 
-5 0 1358:1 1517:1 1603:1 1744:1 1826:1 1890:1 1999:1 
-0 5 35:1 1931:1 
-0 1.993758410899955 779:1 1484:1 
-5 5 1008:1 
-0 1.004008690180108 882:1 967:1 
-5 5 795:1 
-5 0 383:1 697:1 1365:1 1609:1 1780:1 1826:1 
-5 0 795:1 1365:1 1947:2 
-5 0 1326:1 1365:1 1744:1 
-5 2.000237589118335 1358:1 1525:1 1893:1 
-5 0 795:1 1318:2 1358:1 1365:3 1609:1 1744:1 1947:2 1999:1 
-5 0 1365:1 1718:1 1744:1 1930:1 1947:4 
-5 0 1365:1 1565:1 1744:1 1799:1 1930:1 1947:2 
-5 5 697:1 1779:1 
-5 0 1008:1 1609:1 1811:1 1947:6 
-4.701755486619454 0 1799:1 1930:1 1931:1 1938:1 1947:2 
-0 5 
-5 5 1744:1 
-5 0 912:1 1643:1 1947:2 
-5 0 1826:3 1942:1 1947:2 
-1.068292764540015 0.6967480357411443 245:1 795:1 1358:1 
-5 0 1365:1 1609:1 1947:2 
-5 5 1484:1 
-5 0 1326:1 
-5 0 1365:1 1930:2 1947:2 
-5 0 795:1 1484:1 1744:1 1947:2 
-5 0 1318:1 1744:1 1942:2 1947:6 1999:1 
-5 5 1623:1 
-5 0 1318:1 1365:1 1546:1 1930:1 1947:4 
-5 4.528252795757729 1716:1 1885:1 
-5 0 1942:1 
-0 5 795:2 1358:1 1967:1 
-5 0 1358:2 1947:2 
-5 0 1365:2 1744:1 1930:1 1947:4 
-0 1.435384793513005 572:1 795:1 1318:1 1885:2 
-5 5 1422:1 1826:1 
-5 0 1566:1 1826:1 1947:4 
-5 0 1609:1 1936:1 1947:4 
-0 5 795:1 1365:1 1799:3 1826:1 1899:1 
-5 0 1365:1 1930:1 
-0 0.4408364923408912 707:1 
-2.834071379060708 0 234:1 235:1 515:1 572:1 627:1 662:1 795:2 1318:1 1358:1 1673:1 1744:1 1799:2 1836:1 1885:2 1932:1 1947:6 1953:1 1979:2 
-5 0 1365:1 1947:2 
-5 0 1318:1 1609:1 1744:1 1947:2 
-5 0 627:1 1429:1 1484:1 1930:1 
-3.852901457759901 0 206:2 795:1 1947:4 
-5 5 
-5 0 572:1 1358:1 1365:1 1609:1 1947:4 1999:1 
-5 5 1799:1 1811:1 
-5 0.0001278132215173071 795:1 1365:1 1932:1 
-0 5 1799:1 
-0.4293044879030906 0 755:1 795:2 1365:1 1932:1 1942:1 
-5 0 327:1 1696:1 1947:2 
-5 0 1656:1 1947:2 
-5 0 1318:1 1484:1 1826:1 1930:1 
-5 0 1826:1 1947:4 1959:1 
-5 5 1318:1 1780:2 
-5 0 1318:1 1947:2 
-0 5 
-5 0 1656:1 1826:1 1947:2 
-0 0.1082326047702472 1609:1 1826:1 1959:1 
-5 0 1358:2 1365:1 1947:2 
-0 1.074578414487167 1932:1 
-5 0 795:1 1365:1 1744:1 1947:2 
-0 5 
-0 1.84661981168917 1970:1 
-0 4.060203375113437 1988:1 
-0 5 795:1 1510:1 
-5 0 1318:1 1947:2 
-0 5 
-5 0 627:1 697:2 1365:1 1609:1 1648:1 1930:2 1947:6 
-5 0 1318:1 1358:1 1365:1 1744:1 1947:2 1999:1 
-5 5 1484:1 
-5 0 156:1 384:2 516:2 627:1 642:2 662:2 697:1 795:8 796:1 817:2 1040:1 1201:1 1217:1 1244:1 1318:6 1353:1 1365:1 1431:1 1571:1 1674:1 1690:1 1744:3 1799:1 1864:1 1930:3 1931:3 1947:14 1954:1 
-0 5 1358:1 1931:10 
-5 0 1358:1 1656:3 1799:1 1947:2 
-5 0 795:1 1018:1 1947:2 
-0 5 
-0 0.04647480462484244 234:1 1358:1 1979:1 
-3.489567520278768 0 1358:1 1565:2 1947:8 2001:1 
-5 0 1201:1 1744:1 1811:1 1931:1 1947:4 
-1.25693840167671 0 1571:1 1799:1 1935:2 1947:2 1966:1 2001:1 
-5 0 35:1 1744:1 1780:2 1826:1 1931:2 1947:2 
-5 0 1358:1 1947:2 
-5 0 1318:1 1365:1 1609:1 1947:4 
-1.982645674548396 0 1318:1 1836:1 1947:2 1989:1 
-5 0 35:1 760:1 1244:1 1318:1 1358:1 1365:2 1603:1 1744:1 1799:2 1826:1 1947:6 
-5 0 795:2 999:1 1701:1 1716:1 1799:4 1947:6 1993:1 
-5 0 245:1 1008:1 1358:1 1365:1 1609:1 1744:1 1930:1 1947:2 1993:1 
-0.4393221569442245 0 849:1 999:1 1931:1 1947:4 2000:1 
-5 0 1494:1 1947:4 
-5 5 
-0 5 1931:1 
-5 0 1744:1 1947:2 
-0.988852515497129 0.666874251909631 1333:1 1436:1 1544:1 
-1.265585822528028 0 594:1 1222:1 1365:1 1510:1 1609:2 1999:1 
-5 0 1318:1 1365:1 1603:1 1947:6 
-5 0 795:1 1353:1 1365:1 1799:1 1947:4 
-5 5 1365:2 1799:1 1885:1 
-5 5 1318:1 1365:1 1656:1 1744:1 
-5 0 1780:1 1826:1 1930:2 1947:2 
-5 5 1623:1 1826:1 
-5 0 1358:1 1947:2 
-0 5 
-5 0 1318:1 1811:1 1947:2 
-5 0 482:1 697:1 795:1 1008:1 1318:2 1358:1 1365:1 1930:1 1947:2 
-5 0 1365:1 1718:1 1744:1 1930:1 1947:4 
-5 0 1365:1 1609:1 1947:4 
-5 0 1358:1 1947:4 
-5 0 795:1 1244:1 1365:1 1603:1 1780:1 1947:6 
-0 5 
-5 0 1365:2 1716:1 1931:1 1947:2 1999:1 
-5 0 697:1 795:1 1008:1 1318:1 1366:1 1609:2 1716:1 1744:1 1799:2 1910:1 
-5 0 1656:1 1947:2 
-5 0 572:1 627:1 795:2 1229:1 1947:2 
-0 5 1826:1 
-0 5 
-5 0 795:2 1365:1 1826:1 1947:2 
-5 1.998106093224427 966:1 1008:1 1885:1 
-0 5 1358:1 1695:1 1956:1 
-5 5 1358:1 1365:1 1744:1 
-5 0 795:1 1358:1 1947:2 1999:1 
-0 5 
-5 0 760:2 795:5 1475:1 1494:2 1609:1 1656:1 1692:1 1799:1 1829:1 1930:1 1931:1 1947:4 
-5 1.083964992272152 697:1 1008:1 1365:1 1799:2 2000:1 
-0 0.5619989636112599 197:1 795:1 1744:1 
-5 0 1365:1 1744:2 1947:4 
-5 0 571:1 1358:1 1365:1 1799:1 1826:1 1930:1 1999:1 
-5 5 
-3.335926981711978 4.231839157818369 1011:1 1358:1 
-0 5 
-5 0 1365:1 1390:1 1520:1 1656:1 1780:1 1799:1 1826:2 1947:2 
-0 5 
-5 0 1318:1 1365:1 1565:1 1947:2 
-5 0 1318:1 1643:1 1947:2 
-0.3856562934467438 0 627:1 631:1 1353:1 1365:1 1930:3 1931:1 1947:2 
-5 0 300:1 795:1 1716:1 1885:1 
-0 5 795:1 1931:1 
-1.107720138519053 0 383:1 736:1 1008:1 1318:1 1325:1 1358:1 1484:1 1533:1 1744:1 1947:4 
-0 1.795742770518051 1609:1 1799:1 
-5 0 795:1 1365:1 1422:1 1826:2 1947:4 
-0 5 1484:1 1931:1 
-0 5 
-0 3.992935754081676 1004:1 
-5 0 1422:1 1826:1 1947:4 
-5 5 1365:1 
-5 0 1942:1 
-0.7899465421875473 0 795:1 1947:2 
-5 0 1244:1 1318:1 1365:1 1603:1 1609:1 1947:4 
-5 0 381:3 1243:1 1318:2 1340:1 1609:2 1779:2 1799:1 1826:2 1930:1 1940:1 1947:4 2000:1 
-5 0 1744:1 1947:2 2001:1 
-5 0 1422:1 1759:1 1780:1 1947:2 
-5 0 1603:1 1780:1 1947:2 
-5 0 49:1 953:1 1947:2 
-0.04385754363292529 0 795:3 1027:1 1365:1 1931:1 1947:10 1999:1 
-5 4.389830762139726 327:2 1365:1 1609:1 
-5 0 1780:1 1826:1 1947:4 
-5 0 1744:1 1799:1 1947:2 
-5 0 795:1 1318:1 1826:1 1947:2 
-5 5 1690:1 1811:1 
-5 0 572:2 1318:3 1358:2 1484:1 1656:1 1947:6 
-5 0 795:1 875:2 1244:1 1947:2 
-5 0 1930:1 1942:1 1947:2 
-5 0 1365:2 1656:1 1744:1 1799:3 1826:1 1837:1 1930:1 
-0 5 795:2 1931:1 
-5 5 1318:1 
-5 0 1528:1 1947:4 
-5 0 1365:1 1931:1 1947:2 
-4.161070281468622 0 433:2 441:4 627:1 662:2 697:1 795:8 817:1 875:1 1201:1 1229:1 1318:2 1358:6 1365:2 1528:1 1565:8 1603:2 1609:2 1656:1 1682:1 1744:1 1755:1 1758:1 1780:1 1799:2 1811:2 1822:2 1826:4 1885:1 1932:1 1947:40 1961:1 1964:1 1979:2 1999:1 
-0.4026849911815767 0 697:1 795:1 1311:1 1365:1 1603:1 1744:1 1826:1 1947:8 2000:1 
-5 0 1353:2 1716:1 1930:1 
-5 0 627:1 1931:1 1947:2 
-5 0 627:1 1826:2 1947:4 
-1.944938617346412 0 467:1 585:1 795:1 1318:3 1353:1 1365:1 1534:1 1799:4 1826:2 1930:4 1947:4 
-5 5 
-5 0 1528:1 1609:1 1930:2 1947:2 
-2.39233189355534 0 1251:1 1365:2 1422:1 1609:1 1656:1 1799:1 1947:4 
-1.879342318538798 0 24:2 245:1 795:1 1018:1 1041:1 1229:1 1318:3 1358:1 1422:1 1609:3 1781:1 1846:1 1947:2 2000:1 
-5 0 1365:2 1609:1 1744:1 1780:1 1885:1 1947:2 
-5 0 795:1 1365:1 1947:2 
-5 5 1365:1 
-5 0 1365:1 1744:1 1799:1 1885:1 1947:2 1999:1 
-4.781136028450266 0 1609:1 1856:1 1947:2 
-5 0 1365:1 1609:1 
-5 0 1747:1 1947:2 
-0 5 
-5 0 1422:1 1609:1 1947:2 
-5 5 795:1 1744:1 
-5 0 1318:1 1826:1 1947:6 1999:2 
-0 5 
-5 0 805:1 1365:2 1609:1 1744:1 1947:6 
-5 0 1318:1 1947:2 
-5 0 795:1 1358:1 1947:4 1999:1 
-5 0 795:1 999:1 1318:1 1365:3 1609:1 1947:8 
-0 5 
-0 0.0003001301329990103 779:1 939:1 1358:1 
-5 5 795:1 1318:1 
-5 0 572:1 1603:1 1656:1 1947:2 
-5 5 795:1 1318:1 1365:1 
-5 5 795:1 1656:1 1829:1 
-0 5 
-5 5 817:1 1358:1 
-0 5 1244:1 
-5 0 1352:1 1799:1 1947:4 2001:1 
-5 5 795:2 1201:1 
-0 5 1799:1 
-5 0 795:3 1358:1 1484:1 1744:2 1942:1 1947:6 
-0 5 
-5 5 1365:2 1716:1 
-5 4.203937755577763 1318:1 1376:2 1799:1 
-5 5 1365:1 1799:1 
-5 0 572:1 627:1 1358:1 1376:2 1799:1 1947:4 1967:1 
-0 5 
-5 0 1811:1 1826:1 1947:10 
-5 0.00127426892140334 966:1 1892:1 
-5 0 795:1 1947:2 
-5 0 358:1 433:2 1528:1 1826:1 1947:4 1964:1 1990:1 
-0 5 
-5 0 1744:2 1947:4 
-0 5 1799:1 
-5 0 571:1 1365:1 1947:6 1999:1 
-5 0 795:1 1318:1 1422:1 1603:1 1609:1 1799:1 1811:1 1947:2 
-5 0 1358:1 1525:1 1744:1 1930:1 1942:1 1947:6 
-5 0 1312:1 1603:1 1656:1 1744:1 1799:1 1826:1 1947:6 
-5 0 1352:1 1358:2 1609:1 1744:2 1947:2 1999:1 
-5 0 1318:1 1358:2 1365:1 1609:1 1947:2 1999:1 
-0 5 381:1 
-5 0 1318:2 1947:2 
-5 0 1358:1 1947:4 
-5 0 796:1 1365:1 1725:1 1947:2 1990:1 
-5 5 732:1 1353:1 1716:1 
-5 5 875:1 1318:1 1365:1 
-5 0 1942:1 
-0 5 
-5 0 1318:1 1811:1 1947:6 
-0 5 
-0 5 572:1 
-5 0 1554:2 1609:1 
-5 5 1358:1 1826:1 
-5 0 875:1 1744:1 1779:1 1799:1 1947:2 
-5 0 795:1 966:1 1365:2 1744:1 1931:3 1947:6 
-5 0 795:1 1318:1 1365:2 1609:1 1947:2 
-5 5 1365:1 
-5 5 1318:1 
-0 2.000059192050217 596:1 1365:1 
-0 4.00114807398685 1595:1 
-5 0 795:1 1528:1 1826:2 1931:1 1947:6 
-5 0 795:1 1365:2 1744:1 1947:4 
-5 0 1358:1 1362:1 1744:1 1885:1 1947:4 
-5 0 1546:1 1799:2 1947:4 
-0 5 1931:2 
-1.84506147018364 0 515:1 795:1 1358:1 1475:1 1566:1 1603:1 1656:1 1744:2 1799:2 1811:1 1931:2 1942:1 1947:6 1956:1 2001:1 
-5 5 1365:2 
-5 0 1656:1 1744:1 1885:1 1947:2 
-5 0 697:1 1422:1 1682:1 1744:1 1930:1 
-5 5 1365:1 1744:1 
-0.3072715007139467 0 875:1 1054:1 1826:1 1947:2 
-0.00285341582456093 0 697:1 795:2 875:1 1318:1 1358:2 1422:2 1553:3 1609:1 1690:1 1811:1 1826:1 1947:8 1988:1 1993:1 
-5 0 1318:1 1365:1 1744:1 1947:2 
-0 3.500063045508753 837:1 1340:1 1882:1 1986:1 
-5 2.000000000000001 795:1 1670:1 1744:1 
-5 5 1008:1 1318:1 
-5 0 1799:1 1811:1 1947:2 
-2.866241318041032 0 1326:1 1947:2 
-5 0 1318:1 1365:2 1947:4 
-5 5 795:1 
-5 5 1528:1 1826:1 
-5 0 1229:1 1244:2 1358:2 1475:1 1484:2 1603:1 1811:1 1947:4 1999:1 
-5 0 795:1 1008:1 1318:1 1885:1 1947:4 
-5 0 627:1 1947:2 
-0.8955969686658375 0 123:1 795:1 1358:2 1799:1 1822:1 1947:4 
-0 5 
-0 5 2000:1 
-5 0 1942:1 
-5 0 1942:1 1947:4 
-5 0 795:1 1318:1 1365:1 1947:4 
-1.213743185087358 0 126:1 410:1 516:1 1365:1 1376:1 1567:1 1609:1 1799:1 1930:2 1942:1 1947:2 
-5 0 1546:2 1942:1 1947:4 
-5 0 1942:1 1947:2 
-5 0.5673526378161249 1365:1 1609:1 
-0.218870789717139 1.707633183109471 1171:1 1318:1 
-5 0 1365:1 1393:1 1826:1 1947:4 
-5 0 795:1 1431:1 1484:1 1525:1 1799:1 1930:6 1947:2 
-5 0 1004:1 1365:3 1744:2 1993:1 
-5 5 1365:1 
-5 0 795:3 1744:1 1930:2 1942:1 1947:4 
-5 0 1318:1 1365:2 1947:2 
-5 5 1358:1 1826:1 
-5 0 627:1 795:3 1244:1 1365:3 1422:2 1603:1 1609:1 1744:1 1779:1 1799:3 1822:1 1885:2 1940:1 1947:14 1959:1 1999:1 
-4.664862206503814 0 327:1 627:1 795:2 1318:1 1358:2 1418:1 1609:1 1947:6 1979:1 1999:1 
-0 5 
-5 0 627:1 1365:1 1656:1 1947:4 
-5 5 1318:1 
-5 0 627:1 1481:1 1811:1 1999:1 
-0 0.7015142358601472 837:1 1609:1 1799:1 1811:1 
-5 5 1365:1 
-0 5 
-0 5 
-5 0 1358:1 1656:1 1799:2 1947:6 
-5 0 1008:1 1365:1 1947:6 
-2.879651142007591 0 1748:1 1930:1 1947:2 
-0 5 1931:1 
-5 0 697:1 732:1 795:1 875:2 1262:1 1353:1 1358:4 1365:1 1431:1 1554:1 1656:2 1718:1 1826:1 1836:1 1885:2 1947:14 
-0 5 1931:1 
-0 3.446368255726337 1609:1 
-5 5 1318:1 1565:1 
-5 0 1318:1 1365:2 1609:1 1826:1 1947:4 
-5 0 1365:1 1947:2 
-5 0 1656:1 1811:1 1932:1 1947:2 1999:1 
-5 0 1318:1 1365:1 1947:2 
-1.562052536069449 0 107:1 511:1 572:1 1358:2 1365:1 1947:4 
-5 5 1826:1 1885:1 
-5 0 372:1 1318:3 1365:2 1484:2 1609:1 1811:1 1947:6 
-0 5 
-5 0 418:1 1744:1 1947:4 
-5 5 1528:1 
-5 5 1365:1 1799:1 
-5 5 1318:1 1358:3 1365:2 
-5 0 1318:1 1947:2 
-5 0 1358:1 1947:2 
-5 5 1365:1 1744:1 
-5 5 1358:1 1365:1 
-0 5 
-2.105118566692884 0 187:1 364:1 697:1 795:4 882:1 966:1 967:1 1008:1 1229:1 1318:1 1358:1 1365:2 1431:2 1695:1 1759:1 1826:2 1885:1 1930:1 1947:16 2001:1 
-5 0 1008:1 1365:1 1716:1 
-5 5 1318:1 1744:1 
-0 2.323539182087679 594:1 
-0 5 
-0 5 
-5 0 1365:1 1947:2 
-0 5 1931:2 
-5 0 795:2 1358:4 1609:1 1744:1 1947:6 
-5 0 1429:1 1947:2 
-5 0 795:1 1365:1 1603:1 1620:1 1643:1 1708:1 1716:1 1930:1 1947:8 
-5 0 795:1 1365:1 1609:1 1882:1 1947:2 
-0 5 
-5 0 627:1 1352:1 1358:2 1811:1 1947:4 2001:1 
-5 5 1008:1 
-5 0 1365:1 1947:4 
-0.8634318674006722 0 1358:1 1365:1 1799:1 1848:1 1942:1 1947:4 
-5 5 1484:1 
-0.8407005750451036 0 515:1 808:2 1318:3 1358:1 1365:2 1376:1 1520:1 1566:1 1603:1 1609:1 1744:1 1799:2 1811:1 1913:1 1930:1 
-0 5 1931:1 
-4.166514649532222 5 1834:1 1931:1 
-4.817498688318999 1.466097573099251 1358:1 1568:1 1652:1 1656:1 1780:1 1829:1 
-0 5 
-0 5 1609:1 
-5 0 1744:1 1947:2 
-5 5 697:2 
-1.482440486095543 3.708994915156717 1481:1 1744:1 
-5 1.70551363034768 697:1 1494:1 1817:1 1826:1 
-5 0 627:1 795:1 1565:1 1947:2 
-0 5 1609:1 
-5 0 1244:1 1365:1 1528:1 1826:1 1931:1 1947:4 1953:1 1999:1 
-5 0 1318:1 1358:1 1418:1 1947:2 
-5 0 1008:2 1318:1 1358:1 1609:1 1947:4 1993:1 
-5 5 1422:1 
-0 5 
-5 2 1326:1 
-5 3.007220369728903 795:1 867:1 1365:1 1484:1 1603:1 
-5 5 875:1 1431:1 1484:1 1603:1 1811:1 1826:1 
-0 5 
-5 5 1365:1 
-0 5 572:1 
-5 5 795:1 1999:1 
-5 0 795:1 1358:1 1365:2 1609:1 1799:1 1870:1 1931:2 1947:8 1999:1 
-3.972813112190075 0 795:1 1008:1 1993:1 
-5 5 1365:1 
-0 4.676460817912321 594:1 
-5 0 795:2 1571:3 1609:1 1744:1 1748:1 1811:1 1947:4 1999:1 
-0 5 795:2 1609:1 
-0 5 
-5 0 1484:1 1609:1 1947:2 1990:1 1999:1 
-0 5 1799:1 
-5 5 795:1 1365:1 
-5 0 1318:1 1365:1 1947:2 
-5 5 627:1 
-5 0 1318:1 1643:1 1716:1 1947:2 
-5 5 1365:1 1747:1 
-0.6562369541820819 0 966:1 1652:1 1826:1 1947:2 1965:1 
-0 5 1484:1 
-5 5 1534:1 1546:1 
-5 5 1318:1 1365:1 
-5 0 1942:1 1947:2 
-5 0 697:1 1365:1 1429:1 1811:1 1932:1 1947:4 1999:1 
-5 5 1318:1 1528:1 1656:1 1829:1 
-5 0 1422:1 1947:2 
-0 5 795:1 
-5 0 795:1 1318:1 1365:2 1422:1 1656:1 1799:2 1811:1 1930:2 
-4.907286667844375 5 
-5 0 732:1 1930:2 
-5 0 1365:2 1947:2 
-5 5 
-5 0 571:1 572:1 1008:1 1018:1 1318:2 1358:1 1422:1 1429:1 1799:3 1826:1 1930:2 1942:1 1947:8 
-5 0 1358:1 1609:1 1942:1 1947:2 
-5 0 1656:1 1947:2 
-5 0 795:1 1318:1 1365:2 1609:1 1643:1 1716:1 1930:8 1947:8 1999:1 
-5 0 1947:2 1964:1 
-0 5 327:1 
-5 0 120:1 795:1 804:2 882:1 966:1 967:1 1318:1 1352:1 1353:1 1609:1 1747:1 1799:3 1811:1 1826:2 1931:1 1947:10 1967:1 
-0 1.025366296455863 433:2 1716:1 1826:1 
-5 5 1365:2 
-5 5 
-5 0 1365:1 1494:1 1826:1 1947:2 
-5 0 795:1 1534:1 1799:1 1947:4 
-0 0.3022628145222551 795:1 1979:1 
-0 0.2949435838379459 259:1 795:2 1609:1 1744:1 1899:1 1951:1 
-1.117790420106808 0 697:1 795:1 954:1 1264:1 1318:1 1365:1 1826:1 1847:1 1930:2 1931:1 1947:8 1967:1 1999:2 
-4.430206302451285 0 795:1 1422:2 1462:1 1744:1 1811:1 1947:4 2000:1 
-0 0.4235196731978826 1974:2 
-5 0 875:1 1318:1 1365:1 1947:6 
-5 0 1365:1 1528:1 1947:4 
-5 0 795:3 1365:2 1476:1 1484:1 1744:2 1932:1 1947:6 
-5 5 
-5 0 571:1 795:1 1365:1 1422:1 1565:1 1609:1 1799:1 1826:3 1947:4 
-5 5 
-5 0 1318:1 1947:4 
-0 0.9254215855128329 1932:1 
-5 0 1008:1 1365:1 1744:1 1780:1 1930:1 1947:2 
-5 5 
-5 0 1780:1 1826:1 1947:4 
-0.6176382739773114 0 1318:1 1609:1 1826:1 
-5 0 795:1 837:1 1318:1 1358:1 1494:1 1799:1 1899:1 1928:1 1947:6 
-5 0 1940:1 
-5 5 1318:1 1565:1 
-0.09138186907833312 0 795:1 1695:1 1947:2 
-5 0 1365:1 1947:4 
-5 0 795:1 1318:1 1780:1 1799:1 1947:4 
-5 0 1358:1 1947:2 
-0.1511184180419782 0 300:1 1358:1 1826:2 1947:2 
-5 0 1365:1 1744:2 1947:2 
-5 0 1358:1 1365:1 1947:4 
-5 0 1365:1 1930:2 1947:2 
-5 0 627:1 795:1 1494:1 1603:2 1609:2 1656:1 1799:1 1811:1 1826:1 1931:1 1947:10 
-5 5 1318:1 1780:2 
-5 0 1365:2 1716:1 1892:1 1930:2 
-5 0 1318:1 1947:4 
-0 1.55946189677253 707:1 1565:1 
-5 0 1365:3 1609:1 1930:5 1964:1 
-1.542471931653269 0 795:1 1318:3 1358:2 1378:1 1942:1 1947:8 1967:1 
-0.5441206347726443 0 496:2 795:1 1312:1 1365:3 1366:1 1475:1 1947:2 1999:1 
-5 0 795:1 1571:2 1947:4 
-0 5 1358:1 1931:4 
-3.49728326904475 2 1358:1 1837:1 
-5 5 327:1 627:1 1431:1 1826:1 
-5 0 418:1 571:1 1358:1 1528:1 1947:6 
-5 2.115639375274501 1008:1 1365:1 1716:1 
-4.67447590600744 0 1748:1 1930:1 1947:2 
-0 5 1609:1 
-0.5301408257306087 0 1008:1 1609:1 1716:2 1744:1 1799:2 1930:1 1947:6 
-5 5 1358:1 
-5 0 795:1 1318:1 1365:1 1609:1 
-5 0 795:2 1365:2 1947:4 
-5 0 1365:1 1947:4 
-1.813795168684962 0 1318:1 1826:1 1940:1 1979:1 
-5 0 1358:1 1656:3 1799:1 1947:2 
-5 0 795:1 1318:1 1365:1 1609:2 1885:1 1947:4 1959:1 
-5 5 1744:1 
-0 0.07335382612699583 364:1 874:2 1799:1 
-2.112884712327363 0 381:1 1318:1 1947:2 
-0 5 1799:1 
-4.106468504679351 0 364:1 795:1 1358:1 1376:1 1603:1 1609:2 1799:1 1942:1 1947:8 
-3.493788258505235 0 384:3 418:1 627:1 672:2 697:1 760:1 795:3 804:1 966:1 967:2 1008:1 1352:1 1358:2 1365:1 1407:1 1520:1 1747:1 1780:2 1781:1 1799:3 1811:2 1885:6 1930:1 1931:4 1947:6 
-5 0 795:1 1318:1 1365:1 1609:1 
-1.106742078534183 0 99:1 795:3 1334:1 1365:1 1422:1 1947:2 
-5 5 795:1 1484:2 1811:1 
-0.1974589403423062 0 430:1 795:1 1318:1 1365:1 1609:2 1744:2 1799:1 1811:1 1931:1 1947:2 
-0.03189438139558241 0 94:1 1609:1 1930:1 1942:1 
-2.880965574504588 0 697:1 795:2 875:1 1365:3 1422:1 1623:1 1656:1 1744:2 1780:1 1799:2 1811:1 1826:3 1885:1 1931:2 1947:12 1968:1 
-3.331603525406175 2.445956684304028 50:1 662:1 1318:2 1358:1 1365:1 1376:1 1528:1 
-5 0 1701:1 1834:1 1930:1 
-0 5 1609:1 
-0 5 572:1 1799:1 
-0.757351770450147 0 107:1 795:1 1365:1 1528:1 1695:1 1799:1 1875:1 1947:2 
-5 0 1318:1 1744:1 1947:8 
-0 5 572:1 1744:1 
-5 0 1520:1 1744:2 1799:1 1947:2 
-5 1.707510441038803 1318:1 1571:1 
-5 5 1885:1 
-5 5 1358:1 1882:1 
-5 0 1365:1 1931:1 1947:2 
-5 5 1318:1 1358:1 1365:1 1799:1 
-5 0 1609:1 1999:1 
-5 0 364:1 627:1 795:1 875:1 1422:1 1603:1 1643:1 1744:1 1811:1 1822:1 1947:8 
-5 0 1744:1 1799:1 1947:2 
-4.274353511500247 0 795:1 1318:1 1358:1 1422:2 1826:1 1828:1 1930:2 1947:6 
-5 0 1365:1 1603:1 1744:1 1826:1 1947:4 
-5 0 1004:1 1365:2 1930:1 
-5 0 1365:1 1744:1 1942:1 1947:4 
-5 0 1365:2 1947:4 
-5 0 795:1 875:1 1779:1 1947:2 
-5 0.001732674345943313 515:1 1779:1 1993:1 
-5 0 795:1 1947:2 
-5 5 795:1 1826:1 
-0.282145024271876 0 627:1 1318:5 1370:1 1422:2 1835:1 1890:2 1930:2 1947:2 
-0 5 795:1 1340:1 1422:1 1462:1 1780:1 1932:1 1959:1 
-0 4.465031460945482 764:1 
-0 5 1931:1 
-0 1.495854165700223 882:1 
-5 0 1780:1 1826:1 1947:4 
-0.06627928823286214 0 372:1 407:1 627:1 1358:1 1365:1 1839:1 1930:1 1947:2 
-5 0 1318:1 1365:1 1609:1 1885:1 1947:2 
-4.100078706083059 5 795:2 1826:1 
-5 5 795:1 
-5 0 1656:1 1799:1 1947:2 
-5 5 1318:1 1494:1 
-5 5 1365:1 1780:1 1826:1 1999:1 
-0 1.999999999999998 795:1 1251:1 
-1.994828513489213 0 107:1 764:1 1008:1 1353:1 1365:2 1476:1 1799:1 1947:8 
-5 5 
-0 5 1609:1 
-0 5 1318:1 1510:1 
-5 4.983837952413104 1528:1 1609:1 
-0 1.862271912429184 111:1 
-5 0 1365:1 1528:1 1947:2 
-5 0 1365:1 1826:2 1947:6 
-5 0 627:1 1947:2 
-1.713642430922176 0 627:3 628:1 697:1 795:2 817:2 990:1 1008:2 1318:5 1353:1 1365:1 1431:1 1484:1 1510:1 1520:1 1603:1 1643:1 1682:1 1747:1 1811:1 1826:1 1942:1 1947:12 1979:2 
-5 0 795:1 1528:1 1947:2 
-5 5 
-0 5 1931:13 
-5 5 
-5 5 1201:1 1358:1 1826:1 
-5 5 1358:1 
-0 5 1609:1 
-5 0 1365:2 1609:1 1744:1 1799:1 1930:1 1947:4 
-3.852627508616111 0 732:1 795:2 882:1 990:1 1358:1 1365:1 1656:2 1716:1 1811:1 1947:6 
-5 0 372:1 1358:1 1365:1 1656:1 1826:1 1930:1 1947:2 
-0.5530366866032916 0 235:1 571:1 795:2 805:1 875:1 1218:1 1318:1 1358:1 1744:3 1799:2 1826:1 1930:1 1947:2 
-0 5 1609:1 
-5 0 875:1 1716:1 1799:2 1947:4 
-5 5 1885:1 
-5 0 1566:1 1932:1 1947:2 
-5 0 1362:1 1886:1 1928:1 1930:2 
-5 5 872:1 1318:1 1811:1 
-5 5 795:2 1365:1 1799:1 1826:1 
-5 0 35:1 1609:1 1656:2 1826:1 1947:2 1999:1 
-2.573038082130151 0 1318:1 1358:1 1365:2 1366:1 1947:4 1994:1 
-4.390550109942061 0 35:1 570:1 793:1 1358:2 1811:1 1931:2 1947:6 
-5 5 
-5 0 795:2 1365:1 1609:1 1993:1 
-5 5 627:1 1365:1 
-0 1.651361541403767 1979:1 
-0.4580529840638914 0.4999358477214779 35:1 418:1 918:2 1365:1 
-5 0 245:1 795:1 1318:1 1365:1 1947:2 
-5 0 1358:1 1882:1 1947:4 
-5 0 1318:2 1365:1 1609:2 1930:3 1947:6 
-5 0 817:1 1554:1 1947:4 
-5 5 1484:1 
-5 5 1422:1 
-0 5 1358:1 1609:1 
-4.860206449774575 0 795:1 1008:1 1993:1 
-5 5 
-5 0 327:1 1326:1 1365:3 1947:4 
-5 0 1318:1 1947:2 
-0 5 
