svm_type c_svc
kernel_type linear
nr_class 3
total_sv 6481
rho 0.147364 1.00041 1.00021
label 1 -1 0
nr_sv 2301 2127 2053
SV
30 0.727454148719166 968:1 1933:1 
0.816685241163755 0 245:1 352:1 628:2 796:2 1657:2 1745:1 1781:1 1812:1 1835:1 1886:1 1932:1 1948:2 
1.587654985344389 0 1223:1 1610:1 1827:3 1948:8 2021:1 
30 30 
1.897102057733158 0 628:1 796:1 968:1 1202:1 1432:1 1474:1 1598:1 1610:1 1760:1 1837:1 1931:6 1932:2 1948:12 1958:2 
3.971660272684431 0 1009:1 1366:2 1948:2 
4.600760676378064 0 628:1 733:1 1327:1 1610:3 1800:1 2000:1 2010:1 2012:1 
0 1.806096614721558 663:1 796:1 876:2 1691:1 1780:1 1827:1 2000:1 
1.055854425833008 0 245:2 467:1 796:2 1326:1 1800:1 1948:4 2010:1 2012:1 
30 0 1653:1 1943:1 1948:2 
30 0 24:1 1745:1 1748:1 1800:2 1827:2 1931:1 1948:6 
1.714973282264143 0 234:1 572:1 1748:1 1948:10 1994:1 
0 1.998987403729418 245:1 1354:1 1572:1 1604:1 1748:1 1812:1 1827:1 1943:1 
30 30 406:1 1781:1 
0 1.998703602864564 1359:1 1366:2 1566:1 1624:1 1657:1 1781:1 
0 0.1634071719640635 838:1 1019:1 1245:1 1447:1 1726:1 1781:1 
0 0.7242165073391289 1444:1 1745:1 2000:1 
1.742492030696535 0 206:1 489:1 597:1 796:1 1245:3 1319:2 1367:1 1781:1 1931:2 1932:1 2010:2 
1.086634928434713 0 24:1 628:2 796:2 876:1 1319:1 1354:1 1366:4 1423:1 1691:1 1932:1 1948:8 1960:1 2010:2 2029:1 
0.8288410752333422 0 628:1 1359:4 1657:2 1745:4 1780:2 1781:1 1800:3 1931:4 1948:14 
0.9768189792693205 0 761:1 818:1 1009:1 1188:1 1283:1 1319:1 1341:1 1366:4 1505:1 1745:1 1800:3 1827:1 1837:1 1886:1 1948:8 
4.360800897963276 0 796:1 1245:1 1456:1 1535:1 1657:1 1781:1 1886:1 1932:2 1948:4 
2.425674645776943 0 628:1 1260:1 1359:1 1948:8 
30 0 1319:1 1354:1 1604:1 1745:2 1800:1 1948:2 2001:1 
0 30 796:1 1359:2 1604:1 1781:1 1827:1 
30 0 796:2 1319:1 1886:1 1948:4 
2.744319669251771 0 1366:4 1763:1 1800:2 1827:1 1886:1 1948:8 1954:1 
0.2323113662965752 0 107:1 643:1 791:1 1056:1 1477:1 1529:1 1681:1 1800:1 1812:1 1948:2 2032:1 2045:1 
0.4488961621194794 0 304:1 698:1 759:1 1319:2 1354:1 1447:1 1555:1 1610:1 1800:2 1827:1 1931:2 1948:10 
30 0 1319:2 1366:2 1800:1 1827:2 1931:1 1948:2 2010:1 
0.4215056005397186 0 673:2 876:1 1423:1 1657:2 1745:2 1762:1 1835:1 1948:4 2010:1 
7.752584567707888 0 245:1 698:2 796:1 797:1 876:1 1319:2 1359:2 1366:6 1610:1 1948:4 2010:1 
0 26.52612133067791 49:1 1019:1 1319:1 1521:1 1745:2 2000:1 2010:1 
0.6281823146187079 0 913:1 1319:1 1366:2 1812:1 1948:6 
4.458159145143143 0 455:1 1319:1 1359:1 1529:1 1610:1 1886:1 1948:12 2010:1 
3.23515017512365 0 245:1 796:1 1199:1 1319:2 1423:1 1511:1 1566:1 1781:1 1931:8 1943:1 1948:2 1964:1 
0 0.8841866116981364 129:1 337:1 381:1 796:1 1610:1 1657:1 2010:1 2012:1 
3.420241255109588 30 1319:1 1657:1 1745:1 2002:1 
0.1625940364189669 0 358:1 698:1 1319:1 1567:1 1683:1 1931:1 1948:2 
0.449294510029582 0 572:1 684:1 818:1 917:1 1319:2 1359:2 1366:4 1517:1 1529:1 1569:1 1743:1 1760:1 1948:4 2012:1 
10.89487133390386 0 245:1 796:3 1245:1 1313:1 1366:2 1485:1 1691:1 1745:1 1800:2 1887:1 1948:4 
0.6124424745785551 0 352:1 572:1 663:1 876:1 1319:4 1322:1 1366:2 1423:2 1466:1 1566:1 1610:1 1644:1 1653:1 1800:1 1812:1 1827:2 1838:1 1931:1 1932:1 1948:16 2021:1 
30 28.26113461746268 796:1 1359:1 1610:2 1827:2 1968:1 2000:1 2010:1 
1.410582636852558 0 126:1 485:1 516:1 628:1 796:1 1745:1 1931:1 
0 30 1009:1 1781:1 
0.350261359938337 0 796:1 1009:1 1230:2 1745:1 1827:1 1931:3 2021:1 
30 0 796:1 1359:1 1827:2 1948:6 2010:3 
15.57719023009517 0 628:1 796:1 1366:4 1424:1 1610:2 1717:1 1827:2 1948:8 2010:2 2012:1 
30 0 796:1 1359:1 1657:1 1745:1 1948:6 
3.030596016711611 0 58:1 1245:1 1319:1 1359:3 1432:1 1495:1 1820:1 1932:2 1948:6 
4.367234132214751 0 628:1 733:1 1359:1 1366:2 1604:1 1800:3 1837:1 1948:4 2010:1 
30 0 467:1 805:1 1745:1 1781:1 1932:1 1948:6 
30 0 572:1 1932:3 1948:4 2010:1 
30 30 
0.2039982688804629 0 514:1 649:1 876:1 1202:1 1359:1 1719:1 1755:2 1931:2 1948:8 1960:1 
11.81635274297754 0 35:1 162:1 698:1 796:4 1359:1 1598:1 1610:1 1657:1 1800:1 1931:3 1943:1 1948:4 2010:3 
0.5515308256797817 0 1009:2 1529:1 1842:1 1948:2 1954:1 2010:1 
0 5.096290576103101 381:1 1326:1 1359:1 1366:8 1485:1 1566:1 1626:1 1696:4 1745:1 1943:1 
30 1.999715810668317 572:1 1745:1 2029:1 
30 0 1319:1 1359:1 1366:2 1948:4 
0 29.76560549205776 796:1 1319:1 1366:2 1521:1 1610:1 1717:1 1745:3 1812:1 1900:1 
30 4.389927276810591 1696:1 1827:1 1931:1 1932:1 
5.868417804224441 0 566:1 796:2 1019:1 1319:1 1354:1 1432:1 1569:1 1657:2 1800:1 1948:4 2012:1 
30 0 628:1 1657:1 1812:1 1948:4 
0.7458216862566759 0 791:1 796:2 1366:2 1423:1 1529:1 1547:1 1610:1 1800:2 1827:2 1931:1 1948:6 
1.570719217241 1.666049409390128 524:1 796:3 818:2 1359:1 1511:5 1512:1 1972:1 1981:2 
13.78621096756507 0 628:1 1423:5 1800:4 1886:3 
22.57915602793624 0 733:1 796:2 1009:1 1432:1 1657:1 1745:1 1948:2 
0.6298512058069715 0 954:1 1359:2 1366:4 1719:1 1748:1 1800:2 1948:2 
30 30 
0.4356355460237422 0 234:1 327:1 572:1 657:1 796:2 808:1 1009:1 1327:1 1548:1 1948:4 
0.131292619971553 0 796:3 1366:4 1713:1 1800:1 1827:1 1931:1 1948:4 2000:1 
0 30 24:1 1696:2 1758:1 
0.5140969306452862 9.08640772137916 516:3 1717:1 1932:3 1950:1 
30 0 1230:1 1366:2 1604:1 1657:1 1686:1 1745:1 1948:6 2010:1 
1.432461112747441 0 838:1 1009:1 2010:2 
0.6999907379042937 0 372:1 796:1 1494:2 1610:1 1745:1 1800:1 1948:4 2010:3 
0.5330915195039776 0 1009:1 1366:2 1403:1 1657:1 1745:2 1930:1 1931:1 1932:2 1948:4 
30 30 
3.469030524561575 0 796:2 1566:1 1781:1 1886:1 1893:1 1948:4 
30 0 796:1 876:1 1319:1 1366:2 1610:1 1931:2 1933:1 1948:6 2000:1 2010:1 
30 30 
0.09974936074718591 0 314:1 796:2 838:1 1009:1 1359:2 1366:2 1745:2 1932:2 1948:2 2000:1 
30 0 1745:1 1931:2 1948:2 1965:1 2010:1 
0 30 796:1 1366:4 1800:1 
0.9072409243460273 0 119:1 663:1 695:1 1359:2 1432:1 1800:1 1838:1 1904:1 1948:14 
0.6060189626715498 0 304:1 673:1 796:1 797:1 837:1 930:1 1224:1 1319:1 1948:2 
30 0 796:2 1327:2 1657:1 1745:1 1827:1 1948:6 
6.533570378469506 0 482:1 698:1 1359:1 1366:2 1423:1 1610:1 1745:1 1931:2 1948:2 2010:1 
5.399910956387118 0 796:1 1482:1 1598:1 1931:2 1948:12 2000:2 2033:1 
27.90821782498553 0 107:1 514:2 663:1 761:1 796:2 1009:2 1604:1 1657:2 1800:3 1827:1 1886:2 1948:4 2010:2 
0.06484999129629038 0 572:1 968:1 1366:2 1367:1 1827:1 1843:1 1948:2 2010:1 
9.722168413552343 0 796:1 1435:1 1745:2 1800:2 1948:4 
0.407947569909716 0 1041:1 1245:1 1319:1 1564:1 1604:1 1800:2 1812:1 1932:1 1934:2 1948:8 
30 0 698:1 1366:2 1948:2 
30 0 566:1 818:1 1202:2 1610:1 1948:12 
30 0 319:1 796:1 1359:1 1366:2 1745:2 1800:2 1931:1 1948:6 1954:1 
30 30 
30 0 796:3 797:1 1336:1 1781:1 1948:6 2010:2 
0.2681143511546316 0.0007975675876527961 319:1 838:1 1415:1 1423:1 1529:1 1827:1 2010:2 
1.611900282935947 0 1827:1 1899:1 1948:2 
30 30 
1.561959985016075 0 146:1 245:3 628:1 663:1 796:1 1042:1 1245:2 1305:1 1319:3 1359:1 1610:1 1696:1 1726:1 1745:3 1800:1 1827:1 1886:1 1948:6 
0.1887179847776135 0 1245:1 1800:1 1939:1 2000:1 2010:2 
30 30 
30 30 
30 30 
2.9668992176952 0 628:1 838:1 1359:1 1717:1 1800:1 1931:4 1932:2 1948:2 2007:1 
30 30 
14.97419223975532 0 796:1 1366:4 1555:1 1610:1 1827:3 1931:5 1943:1 1948:8 
30 30 
0.480654476118845 0 698:1 796:1 876:1 1261:1 1610:1 1800:1 1812:1 1948:6 2001:1 2012:1 2020:1 
0 0.5455829113917575 628:1 805:1 1477:1 1604:1 1696:1 1745:1 1933:1 
3.257007528358448 0 572:1 1423:2 1534:1 1748:1 1865:1 1948:8 
0.3079180075479136 0 796:1 1359:2 1379:1 1437:1 1610:1 1745:1 1797:1 1948:6 
30 0 796:1 1827:1 1931:3 1932:1 1943:1 1948:4 2010:2 
30 30 
30 30 
30 3.290717312134695 628:1 796:1 1319:1 1610:1 1886:2 1932:2 
4.005371401556181 0 1235:1 1800:1 1829:1 1931:1 1948:6 
1.669743327360672 0 796:1 1245:1 1319:1 1359:1 1657:1 1745:1 1796:1 1911:1 1931:1 1948:6 
0.2238364625347947 0 733:1 796:3 1319:1 1366:2 1745:1 1748:1 1780:1 1781:1 1791:1 1932:1 1948:12 2012:1 
0 0.8265385246743454 126:1 319:2 516:1 818:1 1009:1 1019:1 1319:2 1547:2 1720:1 1759:2 1800:1 1990:1 
0.2509575841988274 0 733:1 1157:2 1354:1 1432:1 1535:2 1748:1 1931:1 1948:4 
30 30 
8.644901415048555 0 49:1 1319:1 1366:2 1529:1 1719:1 1745:1 1812:1 1932:4 1948:4 
1.093791659471096 0 24:1 628:2 796:1 1009:2 1319:1 1366:2 1423:1 1657:1 1745:1 1931:2 1948:4 1998:1 
1.459372675689233 1.999801721928264 796:1 876:1 969:1 1485:1 
30 30 
0.03042606813182528 0 552:1 628:1 1428:1 1566:1 1653:1 1745:1 1932:1 1933:1 1943:1 1948:8 2000:1 
2.113666314672341 0 663:3 796:2 1319:3 1738:1 1748:1 1800:1 1931:2 1948:2 
30 30 
1.851332982357524 0 441:1 1319:2 1948:4 
30 30 
30 30 
0 0.6509224115790763 876:1 883:1 1019:1 1245:3 1319:1 1377:1 1487:1 1657:1 1745:1 2000:1 2010:1 2012:1 
30 30 
30 30 
30 30 
30 30 
0.4135514797241099 0 796:1 838:1 1190:1 1366:2 1423:1 1459:1 1657:1 1719:1 1726:1 1827:1 1932:1 1948:6 1980:1 
30 30 
30 30 
30 0 1359:2 1529:1 1566:1 1610:2 1745:2 1800:2 1812:1 1827:3 1931:2 1948:4 
0 30 572:1 1319:1 1353:1 1827:1 1904:1 
11.0313988857499 0 1326:2 1423:7 1781:1 1827:1 1931:5 1948:4 
0 2.952037550830424 796:1 876:1 1188:1 1354:1 1359:1 1432:1 1657:2 1745:1 1812:1 1932:2 2000:1 
0 2.950607721361996 1423:1 1726:1 1745:1 1800:1 2001:1 
15.33714940518877 0 796:2 1009:1 1012:2 1319:1 1948:4 
1.576423204709843 0 733:1 1359:1 1657:2 1745:1 1833:1 1837:1 1933:1 1948:6 
22.96635519144106 0 234:1 327:1 796:1 1366:2 1529:1 1535:2 1745:1 2010:1 
0 1.998342619519508 876:1 1745:2 1763:1 1812:1 1827:3 
30 30 
30 30 
30 30 733:1 796:1 1319:1 1781:1 1800:2 
0.170127824942496 0 58:1 207:1 396:1 518:1 698:1 733:1 1359:1 1366:2 1487:1 1745:1 1780:1 1781:2 1827:3 1931:1 1948:8 
30 30 
30 30 
1.319125094478451 0 1304:1 1319:1 1366:2 1610:1 1931:2 2010:1 
2.009825507966515 0 761:1 1572:1 1837:1 1931:1 1946:1 1948:2 
0 30 673:2 1359:1 1366:4 1812:1 1827:1 
0.01075354683063804 0 963:1 1319:5 1366:2 1529:2 1610:1 1644:1 1745:1 1827:1 1837:1 1931:1 1948:8 2010:2 
0 0.749208576991678 1366:2 1485:1 1495:1 1521:1 1529:1 1568:1 1781:1 1800:1 1837:1 
0 30 1319:1 1366:4 1800:1 
30 30 
30 0 796:1 1319:1 1359:1 1657:1 1781:1 1800:3 1932:1 1948:6 2010:1 
2.383315110684423 0 796:1 797:1 1359:2 1657:2 1674:1 1719:1 1726:1 1745:1 1827:1 1829:1 1830:1 1891:1 1948:14 1980:1 2010:3 
0.6939058228477868 0 698:1 796:1 1319:1 1746:2 1931:1 1932:2 
0.5546520889461358 0 698:1 1534:1 1572:3 1706:1 1948:2 
30 30 
0.598112248409613 0 384:2 628:1 1230:2 1319:1 1657:1 1691:1 1696:1 1781:1 1812:1 1838:1 1948:4 
0.5550367542056057 0 433:2 796:3 1230:1 1245:1 1366:4 1566:1 1780:1 1827:1 1930:1 1931:3 1933:1 1948:4 1980:1 2010:1 2012:1 
1.455082569092446 0 796:1 1359:1 1366:2 1800:1 1827:1 1886:1 1931:7 1948:4 1974:1 2010:1 2012:1 
3.632030197628056 0 628:1 733:2 796:3 876:1 1811:1 1931:1 1948:2 
0.1271358462428638 0 663:1 1535:2 1604:1 1615:1 1781:3 1827:1 1886:1 1931:1 1948:4 1960:1 
0.2798500166210171 0 698:1 796:1 838:1 1432:1 1495:1 1821:1 1931:1 1948:2 
30 0 868:1 1482:1 1610:1 1800:1 1812:1 1827:5 1948:6 2010:1 2012:1 
30 30 876:1 1932:1 
7.694748228781179 0 796:1 873:1 1354:1 1781:2 1948:6 1990:1 2001:1 
8.235537281461907 0 1202:1 1366:2 1444:1 1610:2 1657:1 1812:1 1836:1 1891:3 1948:4 2010:3 
0.6297081973156761 0 968:1 1359:1 1423:1 1800:1 1886:1 1932:1 1948:4 2000:1 2010:1 
0.1842028154163544 0 10:1 991:1 1319:1 1341:1 1610:2 1674:1 1823:1 1886:1 1932:1 
0.9980611967189607 0 1423:2 1697:1 1948:2 2010:1 
13.80450689808384 0 796:1 1263:1 1535:1 1610:1 1800:1 1812:1 1827:3 1948:2 2010:1 
0 1.997897336859482 733:1 996:1 1009:1 1319:2 1366:2 1745:1 1780:1 1800:1 1812:1 1827:1 
0 28.79430352174228 628:1 796:2 805:1 876:1 1319:1 1366:2 1377:1 1529:1 1604:1 2000:2 
3.948809316286753 0 383:1 438:1 796:2 818:1 1423:1 1800:1 1827:1 1886:1 1948:4 
30 0 126:1 516:1 1366:2 1610:1 1745:1 1800:1 1932:1 1948:6 
20.45412615301467 0 1319:1 1657:4 1745:4 1780:1 1948:12 2000:1 2010:1 
30 30 796:1 1657:1 
0.9268827286996738 0 649:1 796:1 805:1 1019:1 1366:4 1535:1 1604:1 1748:1 1780:1 1800:1 1812:1 1883:1 1931:17 1948:4 
30 0 1359:1 1948:6 2012:1 
0 30 796:1 1319:1 1366:10 1745:2 1933:1 
1.69653883586327 0 327:1 628:1 796:4 1463:1 1567:1 1948:2 
2.066150785562708 0 58:1 372:1 418:1 663:1 685:1 1188:1 1319:1 1359:1 1366:2 1381:1 1487:1 1529:1 1598:1 1812:1 1823:1 1829:1 1838:1 1932:1 1948:10 2012:1 
0.2228315619672426 0 223:3 224:2 791:2 796:1 1745:1 1838:1 1948:8 2000:1 
18.95726232698974 0 245:1 327:1 1359:1 1366:4 1529:5 1745:2 1948:8 1989:1 
30 0 1800:1 1827:2 1886:1 2010:1 
30 0 796:1 1827:1 1948:2 
0.9238306632442772 0 796:1 1366:2 1466:1 1604:1 1745:3 1800:2 1931:2 1948:2 1954:1 2000:1 2010:1 
0 3.113593236943601 49:1 566:1 628:1 1319:3 1535:1 1932:1 
30 0 967:1 1005:1 1948:4 
30 30 
0.9469962165975101 0 381:1 698:1 996:1 1202:1 1319:2 1535:1 1566:1 1657:1 1948:10 2010:1 
0.2824981234295784 0 516:5 796:2 1230:2 1319:1 1423:1 1535:1 1601:1 1610:1 1726:1 1800:1 1948:6 2010:1 2012:1 
1.335318369964457 0 944:1 1485:1 1610:1 1745:1 1748:1 1948:4 
0.6144099683631075 0 515:1 698:1 958:1 1202:1 1319:3 1535:1 1610:1 1675:1 1948:6 
15.45085445149669 0 245:3 796:1 1366:2 1657:1 1745:1 1781:1 1800:5 1931:1 1948:6 2000:3 2012:1 
5.700041724384731 0 572:2 796:3 1354:1 1610:1 1748:1 1800:1 1812:1 1827:3 1848:1 1931:3 1948:20 2012:1 
30 0 103:1 1717:1 1745:1 1800:1 1886:1 1892:1 1931:1 1948:4 1954:1 2010:1 
0 1.331091284470031 796:1 1319:3 1353:1 1366:4 1529:1 1745:3 1823:1 
24.76891473615143 0 796:1 1341:1 1526:1 1547:1 1657:2 1827:2 1932:2 1948:4 
9.034419940382096 0 818:2 1005:2 1485:1 1657:1 1745:1 1812:1 1931:3 1932:6 1948:2 2018:1 
0.4567873744285871 0 93:1 162:1 818:1 985:1 1319:1 1495:1 1827:1 1932:2 1948:4 2029:3 
3.674606782469095 0 628:1 1194:1 1610:1 1800:1 1886:1 1948:12 2010:1 
30 0 628:1 1354:2 1366:6 1495:1 1572:1 1610:1 1932:1 1948:4 
2.738604098829048 0 14:1 58:1 628:1 1319:1 1610:1 1800:1 1883:3 1948:4 
0 0.04946489281206236 24:1 1474:1 1529:1 1547:1 1745:1 1780:2 1827:1 1992:2 2032:1 
1.819802316704328 0 796:2 1319:1 1366:8 1437:1 1657:2 1717:1 1748:1 1812:1 1931:11 1932:3 1948:10 2010:2 
2.78624567175897 0 418:1 572:1 628:1 796:1 1041:1 1202:1 1252:3 1329:1 1351:1 1354:1 1495:1 1566:1 1610:1 1649:1 1748:1 1780:1 1781:1 1800:3 1931:3 1948:8 2010:2 
1.225871187293921 0 138:1 733:1 1521:2 1745:2 1931:2 1948:2 2000:1 2010:1 
2.369233013817913 0 796:1 825:1 1319:1 1354:1 1931:1 1932:1 1948:14 1950:1 
1.971875339891525 0 733:2 796:1 1220:1 1781:1 1827:1 1948:4 2010:1 
30 0 1366:2 1827:2 1948:2 
5.560812034969502 0 1319:1 1657:2 1800:4 1827:1 1948:4 2010:1 
1.747031188916211 0 628:1 796:3 1366:2 1610:2 1948:8 1991:1 2010:1 2025:1 
0.7542804566615871 0 698:1 796:1 818:4 1202:1 1245:2 1318:1 1341:1 1347:1 1359:2 1366:2 1521:1 1578:1 1610:1 1745:2 1781:2 1948:8 2010:2 2012:1 
2.206701931153395 0 113:1 796:1 1009:1 1354:1 1610:1 1745:5 1800:1 1948:8 2000:1 
0.451655294890383 0 796:1 1621:1 1827:1 1948:10 1978:1 2012:1 
6.331067297840245 0 58:1 818:1 842:1 1319:1 1366:4 1547:2 1931:3 2044:1 
30 0 1366:2 1931:1 1948:2 
1.209617316855463 0 628:2 818:1 1319:2 1359:1 1476:1 1657:1 1837:1 1943:1 1948:8 1978:1 1992:1 
1.065791184185642 0 733:1 900:1 1753:1 1846:1 1948:8 
30 30 
30 30 1954:1 2010:1 
30 30 
30 30 
30 0 1948:6 
30 30 2010:1 
30 30 1366:2 
30 30 
30 30 1366:2 
30 30 796:1 1366:2 
0.5686113706989411 30 1459:1 1800:1 
30 0 1477:1 1948:2 
30 30 
30 2 107:1 
30 30 628:1 
30 30 2010:1 
30 30 1366:2 
1.286426184172145 2.00028453681716 796:1 1458:1 
30 0 1366:2 1931:1 1948:2 
30 30 1745:1 
30 0 1931:1 
0 30 1657:1 1830:1 
30 2 358:1 
30 0 1931:1 
30 30 796:1 
30 30 1366:2 
8.90285631993317 30 1354:1 1432:1 1827:1 
0 0.3342351542607589 1972:1 
30 0 1931:1 
30 0 628:1 1948:2 
30 0 1931:1 
30 30 
30 30 1745:1 
30 0 1931:1 
30 30 698:1 
0 0.001594986607084671 99:1 1886:1 
30 0 1009:1 1931:1 
0 0.4996768106757353 1359:1 1366:4 1991:2 
30 2.000148813894883 761:1 1319:1 
0 2 1978:1 
30 30 1366:2 1745:1 
30 30 1366:2 
19.79281737362906 0 1366:2 1800:1 1865:1 1948:2 1968:1 
0 2.000377942349679 1604:1 1974:1 
30 30 1366:2 
30 30 
30 0 418:1 1931:1 1948:2 2010:1 
30 30 1366:2 
30 30 1366:2 
1.147541468408771 2 1336:1 
0 2.708834579111811 698:1 1366:4 
30 30 
5.995805133543408 1 1010:1 1758:1 
30 30 1366:2 
30 0 1610:1 1745:1 1800:1 1948:2 
2.000424618094987 0 32:1 327:1 796:1 1319:1 1359:1 1610:1 1827:1 1948:2 
30 30 1366:2 1745:1 
30 30 796:1 
30 30 
30 0 1931:1 1932:1 
30 30 
0 1.999999999999998 1322:1 1366:2 
30 0 876:1 1827:1 1948:2 
0 30 1758:1 
30 0 1948:2 
0 30 1758:1 
30 0 698:1 1745:1 1886:1 1948:2 
0 30 1929:1 
0.3521216529879011 0 1305:1 1319:1 1948:4 
30 30 1366:2 
30 30 
30 0 1948:2 
30 30 1485:3 
30 30 
30 30 
30 30 
30 30 
30 30 
30 30 
30 30 
30 30 
30 30 2010:1 
7.875325104535367 0 628:1 1377:1 1948:2 
0 30 1745:1 1800:1 1991:1 
30 0 1366:2 1931:1 
30 30 1366:2 
0 30 1366:4 
0 2.121628431605341 1800:1 1929:1 
30 30 1529:1 
30 30 
0.6084066530689867 0 663:1 1366:2 1930:1 1948:4 
1.147424543314775 2 1947:1 
30 30 
1.585194991231618 0 99:1 1931:1 
30 0 1931:1 
30 0 1931:1 
30 30 1319:1 1366:2 
30 0 796:1 1931:2 1948:2 
0 2.36043503835316 570:1 1354:1 1394:1 1437:1 1779:1 1887:2 
30 0 1800:1 1948:4 
30 0 1800:2 1827:5 1948:2 
30 30 2010:1 
30 30 1366:2 
30 30 
30 30 2010:1 
30 0 1800:1 1948:2 
30 30 
30 0 1319:1 1800:1 1931:4 1948:2 2010:1 
21.02535534495998 0 1931:1 1943:1 
0.3850268774683007 1.495401205641677 1986:1 
0 9.056232746140578 796:1 1359:1 1423:1 1965:1 
1.330495665036366 0 1535:1 1779:1 2010:1 
0 2.498158821124991 1848:1 
30 0 1948:2 
30 0 1948:2 
18.62335491980044 0 1691:1 2010:1 
30 30 1359:1 
30 30 
30 0 1319:1 1366:2 1931:3 1943:1 
6.344495828914113 20.96948346427713 1485:1 1965:1 
30 30 1202:1 
0 1.999999999999999 1366:2 1706:1 
0 2 1435:1 
30 30 
30 30 1366:2 
0 3.146634062842469 796:1 1430:1 
30 30 1319:1 
30 0 1827:1 1948:2 2000:1 
3.327511609170176 0 1526:1 1948:2 
0 29.50222478109344 1848:1 
30 0 1366:2 1624:1 1948:4 
30 0 1827:1 1948:2 2000:1 
20.65156860081496 30 24:1 2000:1 
30 30 796:1 
0 30 1359:1 2010:1 
1.891838739310217 0 663:2 796:1 1005:1 1287:1 1366:6 1929:1 1931:3 1948:6 
30 30 
30 30 
30 30 
30 30 
30 30 
30 30 
30 30 
30 30 
30 30 
28.23687300567583 0 1423:1 1482:1 1800:2 1827:1 1893:1 1948:4 
30 30 
30 30 
30 30 
30 30 
30 30 
30 30 
30 30 
13.06394603305759 30 2000:1 
30 30 
30 30 
30 30 
30 30 
0.4333635245724841 0 571:1 1366:2 1913:1 1931:1 
30 30 
30 30 
30 30 
30 0 572:1 1319:1 1335:1 1948:6 
30 30 
30 30 
30 30 
30 30 
30 2.123968888949798 418:1 1485:1 1812:1 
30 30 
1.126372556021019 0 1569:1 1800:1 1948:2 1977:1 2022:1 
30 30 
30 30 796:1 1366:2 
30 30 
30 30 
30 30 
30 30 
30 30 
30 30 
30 30 
30 30 
30 30 
0 24.90325355533654 1326:1 1827:1 
30 30 
0.9143810528310338 3.33066907387547e-16 1871:1 
30 30 
30 30 
3.401634556466299 0 1319:1 1359:1 1366:2 1948:2 
30 30 
30 30 
30 0 796:1 1359:1 1931:1 
30 30 
30 30 
30 30 
30 0 1948:2 2010:1 
30 30 
30 30 
30 30 
30 0 1948:2 2010:1 
30 30 
30 30 
30 30 
30 30 
30 30 
30 30 
30 4.228635405233444 120:1 1366:2 1932:2 
30 30 
30 30 
30 30 
18.29319559040046 0 24:1 1748:1 1948:2 
30 30 
30 30 
30 0 381:1 1827:1 1948:2 
30 30 
0 30 1359:1 1800:1 1886:1 
30 30 
30 30 
30 30 
30 30 
30 30 
30 30 
30 30 
30 30 
30 30 
30 30 
30 30 
30 30 
30 30 
30 30 1366:2 1800:1 
30 30 
30 0 1604:1 1800:1 1931:1 1948:2 
30 30 
30 30 
30 30 
30 30 
30 0 1319:2 1745:1 1948:4 2012:1 
30 30 
30 30 
30 30 
30 30 
30 30 
30 0 1745:1 1948:2 2000:1 
30 30 
30 30 
30 30 
30 30 
30 30 
30 30 
30 30 
30 30 
0 30 1359:1 1366:2 
30 30 
30 30 
30 30 
30 30 
30 30 
30 30 
30 0 796:1 1359:1 1366:2 1948:2 
30 30 
21.47966087178776 0 1717:1 1931:1 1948:2 
30 30 
30 30 
30 30 
30 30 
0 30 796:1 1359:1 1366:4 1800:2 1812:1 
30 30 
30 30 
30 30 
30 30 
30 30 
30 30 
30 30 1529:1 1800:1 
30 30 
30 30 
30 30 
30 30 
30 0 1319:1 1948:2 
30 30 
30 30 
30 30 
30 30 
30 30 
30 30 
30 0 698:1 1719:1 1886:1 
30 30 
13.99926201012635 0 1430:1 1827:1 1932:1 1948:6 
30 30 
30 30 
0 3.999642387746562 1366:2 1572:1 2007:1 
30 30 
30 30 
30 30 
30 30 
25.40077416776787 0 1019:1 1948:2 
30 30 
30 30 
30 30 
30 30 
30 30 
30 30 
30 30 
0.2776353800083847 0.12417393671853 1341:1 1903:1 
30 30 
0 0.01691692889722973 1941:1 
30 30 
30 30 
30 30 
30 30 
30 30 
2.363695474279001 29.26273185935899 796:1 1965:1 
30 30 
30 0 1948:2 
30 30 
30 0 1948:2 
30 30 
30 30 
30 30 
30 30 2010:1 
30 30 
30 30 
30 30 
30 30 
30 30 
30 30 
30 30 
30 0 1948:2 
30 30 
30 0 1948:2 
30 30 
30 30 1366:2 
30 30 
30 30 
30 30 
30 30 
30 30 
30 30 
30 30 
30 30 
30 30 
30 30 
30 30 
0.1044366376371824 0 1230:1 1948:2 2025:1 
30 30 
30 30 
30 30 
30 30 
30 30 
30 30 
30 30 
30 30 
30 30 
30 30 
30 0 1948:2 
30 30 
30 30 
30 30 
30 30 
30 30 
2.447930332810927 5.998473330833514 1596:1 
30 30 
30 30 
30 0 1931:1 
30 30 
30 30 
30 30 1366:2 
30 30 
30 30 
30 30 
30 30 
30 30 
30 30 
30 30 
30 30 
30 30 
30 30 
30 30 
30 30 
30 30 
30 30 
30 0 1366:2 1948:2 
30 30 
30 30 
30 30 
30 30 
30 30 
30 30 
30 30 
30 30 
30 30 
30 30 
30 30 
30 30 
30 30 
30 30 
30 30 
30 30 
30 30 
0 0.4679429449647734 1717:1 
30 30 
30 0 1366:2 1931:1 
30 30 
30 30 
30 30 
30 30 
30 30 
30 30 
30 30 
30 30 
29.40599661827698 0 1691:1 2010:1 
30 30 
30 30 
30 30 
30 30 
30 30 
30 30 
30 30 
30 30 
30 30 
30 30 
30 0 1931:1 2010:1 
30 30 
30 30 
27.44647382610695 0 628:1 796:1 2000:1 2010:1 
30 30 
3.627013925292175e-05 0 796:1 1480:1 1840:1 1965:1 
30 30 
30 30 
30 30 
30 30 
30 30 
5.788078490257178 30 1230:1 1366:4 
30 30 
30 30 1366:2 
30 30 
30 30 
30 30 
30 0 2010:2 
30 30 
30 30 
30 30 
30 30 
30 30 
30 30 
30 30 
30 0 1948:2 
30 30 
30 30 
30 30 
30 30 
30 30 
30 30 
30 0 1366:2 1931:1 
30 30 
30 30 
30 30 
30 30 
30 30 
30 30 
30 30 
13.16194627137026 0 796:1 1366:2 1812:1 1948:2 
30 30 
30 30 
30 30 
30 30 
30 30 
30 0 796:1 1366:2 1800:1 1827:1 1883:1 1948:2 
30 30 
30 30 
30 30 
30 30 
30 30 
30 30 
30 30 
30 0 1366:2 1948:2 
30 30 
30 30 
30 30 
30 30 1319:1 
30 30 
30 30 
30 30 
30 30 
30 30 
30 0 1366:2 1948:6 2010:1 
30 30 
30 30 
1.982015405110269 0.0001368644510059881 75:1 552:1 1005:1 2010:1 
30 30 
30 30 
30 30 
30 30 
30 30 
30 30 
30 30 
30 30 
30 30 
30 17.82662152792266 876:1 1319:1 2010:1 
30 30 
30 30 
30 30 1883:1 
30 30 
30 30 
30 30 
30 30 
30 30 
30 0 1644:1 1931:1 2010:1 
30 30 
30 30 
30 30 
30 30 
30 30 
30 30 
30 30 
30 30 
30 30 796:1 
30 30 
30 30 
0 0.4160530400250658 1394:1 1566:1 1691:1 
30 30 
30 30 
30 30 
0 30 1748:1 
30 30 
30 30 
30 30 
30 30 
30 30 
30 30 
30 0 1319:1 1948:2 2010:1 
30 30 
30 30 
30 30 
30 30 
30 30 
30 0 1931:1 2010:1 
30 30 
30 30 
30 30 
30 30 
30 30 
30 30 
30 30 
30 30 
30 30 
30 30 
30 0 628:1 698:1 1359:1 1948:2 
30 30 
30 30 
30 30 
30 30 
30 30 
30 30 
30 30 
0.0316888290957851 0 1394:1 1720:1 
30 30 
30 30 
30 30 
30 30 
30 30 
30 30 
30 30 
30 30 
30 30 1366:2 
30 30 
30 30 
30 30 1485:1 2010:1 
30 30 
30 30 1745:1 2010:1 
30 30 
30 0 1319:1 1529:1 1931:2 
30 30 
30 0 1948:2 
30 30 
30 30 
30 30 
30 30 
30 30 1319:1 1366:2 
30 30 
30 30 1009:1 
30 30 
30 30 
30 30 
0 0.0002186171162686934 1943:1 
30 30 
30 0 1948:2 
30 30 
30 0 1948:2 
30 30 
30 30 1366:2 
30 30 
30 30 
30 30 
30 0 796:1 1800:1 1812:1 1948:2 1989:1 
30 30 
30 30 
30 30 
30 30 
30 0 1948:4 
30 30 
30 30 1319:1 2010:1 
30 30 
30 30 
30 30 
30 30 
30 30 
30 30 
30 30 
30 30 
30 30 
30 30 
30 30 
30 30 
30 30 
30 30 
30 30 
30 30 
30 30 
30 30 
30 0 1948:2 
30 30 
30 30 
30 30 
30 30 
30 30 
30 30 571:1 
30 30 
30 0 1931:1 
30 30 
30 30 
30 30 
30 30 
30 30 
30 30 
30 30 
30 30 
28.81212674142311 0 597:1 1366:2 1800:1 1948:4 2010:1 
30 30 
30 30 
30 30 
30 30 
30 30 
30 30 
30 30 
30 30 
30 30 
30 30 
30 30 
30 30 
0 30 796:1 1359:1 1366:4 1800:2 1812:1 
30 30 
30 0 1366:2 1931:3 2010:3 
30 30 
30 29.87592789662463 418:1 1485:1 1812:1 
30 30 
30 30 628:1 
30 30 
30 30 
30 0 1745:1 2010:2 
30 30 
30 30 
30 30 
30 1.454764696435173 1477:1 
30 30 
30 30 
30 30 
30 30 
30 30 
30 30 
30 30 
30 30 
30 30 2010:1 
30 30 
0 30 796:1 876:1 1892:1 
30 30 
30 30 
30 30 
30 0 1359:1 1800:1 1948:2 
30 30 
30 30 
0 30 2010:1 2012:1 
30 30 
30 30 
30 30 
30 30 
30 30 1610:1 
30 30 
0 30 1432:1 2010:1 
30 30 
30 30 1800:1 
30 30 
30 30 
30 30 
30 30 
30 30 796:1 1800:1 
30 30 
30 0 1359:1 1948:2 
30 30 
30 30 
30 30 
0.4446645746875061 0 796:1 1948:2 1984:1 
30 30 
30 30 
30 30 
30 30 
30 30 1202:1 
30 30 
30 30 
30 30 
30 30 
30 30 
30 30 
30 30 
30 30 
28.95987390500337 30 2000:1 
30 30 
30 0 1948:4 
30 30 
1.147556246351001 2.000423423237677 45:1 
30 30 
30 30 
30 30 
0.2670343725265589 0 1215:1 1354:1 1838:1 2010:2 
30 30 
30 30 
30 30 
30 30 
30 30 
30 30 
30 30 
30 30 796:3 
30 30 
30 30 
30 30 
30 0 1800:1 1948:2 1965:1 
30 30 
30 30 
30 30 
30 30 
30 30 
30 30 
30 30 2010:1 
30 30 
30 30 
30 30 
30 30 
30 30 
30 30 
30 30 
30 30 
30 30 
30 30 
30 30 
30 30 
30 30 
30 30 
30 30 
30 0 2010:2 
30 30 
0 0.05949375397237239 1965:1 
30 30 
30 30 
30 0 1948:2 
30 30 
30 30 
30 30 
30 30 1366:2 1800:1 
30 30 
30 2.000393922729768 2011:1 
30 30 
30 0 796:1 1931:2 1943:1 
30 30 
30 30 
30 30 2010:1 
30 30 
0.8018242386649859 0 418:1 1948:2 1965:1 
30 30 
0 30 1359:1 1780:1 
30 30 
30 0 796:1 1827:1 1948:2 
30 30 
1.400654576279621 30 352:1 
30 30 
30 30 
30 30 
30 30 
30 30 
4.053451709445914 0 87:1 111:1 372:1 796:1 1354:1 1366:2 1780:1 1800:1 1886:1 1948:6 2001:1 
30 30 
30 30 1366:2 
30 30 
30 0 1202:1 1359:1 1948:4 
30 30 
30 30 1366:2 
30 30 
30 30 
30 30 
30 30 
30 30 
30 30 
30 30 1366:2 1624:1 
30 30 
30 30 
30 30 
30 30 796:1 
30 30 
30 30 
30 30 838:1 1780:1 1800:1 
30 30 
30 30 
30 30 
30 30 1366:2 1745:1 
30 30 
30 0 1359:1 1948:2 2010:1 
30 30 
30 30 
30 30 
0 30 1883:1 2010:1 
30 30 
30 30 
30 30 
30 30 
30 30 
30 30 
30 30 
30 30 
30 30 
30 30 
30 0 796:1 1366:2 1948:2 
30 30 
30 30 
30 30 
30 30 
30 30 
30 30 
30 30 
6.68308371648324 0 1359:2 1948:2 
30 30 
30 30 1521:1 
30 30 
30 2.000307238157663 1212:1 
30 30 
30 30 
0 30 1748:1 
30 30 
30 30 
30 30 
30 30 
30 30 
30 30 
30 30 2010:1 
30 30 
30 30 
30 0 698:2 1319:1 1948:2 2010:1 
30 30 
30 30 
30 30 
30 30 
30 30 
0 2.000327167531522 1964:1 
30 30 
30 30 698:1 1529:1 
30 30 
30 30 
30 30 
8.115145792106221 0 1202:1 2010:1 
30 30 
30 30 
30 0 1009:1 1948:2 
30 30 
30 30 2010:1 
30 30 
30 30 
30 30 
30 30 
30 30 
30 30 
30 30 
30 30 
30 30 
30 30 
30 30 
0 0.01918616789712601 2022:1 
30 30 
30 30 1521:1 
30 30 
30 30 
30 30 
30 30 796:1 
30 30 
6.734949949330578 30 515:1 
30 30 
30 30 
30 30 
30 30 
30 0 572:1 1359:1 1948:2 
30 30 
30 30 
30 30 
30 30 
30 30 
30 30 
30 30 
30 30 
30 30 
30 0 1354:1 1566:1 1610:1 1624:1 1948:2 
30 30 
0.429041410539416 1.999999999999998 1366:2 1895:1 
30 30 
30 30 
30 30 
30 30 
30 30 
30 30 
30 30 
30 30 
30 30 
0 6.764594444528009 1366:2 2010:1 
30 30 
30 30 
30 30 
30 30 
30 0 1745:1 1948:2 2010:1 
30 30 
30 30 
30 30 
30 30 1812:1 
30 30 
18.25077390856733 0 2000:1 2001:1 2010:1 
30 30 
30 30 
0 3.045075720537441 796:1 1430:1 
30 30 
0 25.19194772853624 1009:1 1649:1 2010:1 
30 30 
30 0 1485:1 2010:2 
30 30 
30 30 
30 30 
30 30 
30 30 
30 30 
30 30 
30 30 
30 30 
30 30 
30 30 1366:2 
30 30 
30 30 
30 30 
30 30 
30 30 
30 30 
30 30 
30 30 
30 30 
30 30 
30 30 
30 30 796:1 
30 30 
30 30 
0 10.14511691894212 1366:2 1529:1 2010:1 
30 30 
0 0.09828754934642454 2022:1 
30 30 
30 30 
30 30 
30 30 1423:1 1800:1 
30 30 
30 30 
30 30 
30 30 1800:2 
30 30 
30 30 
30 30 
30 30 
30 30 
30 30 
30 30 
0 30 2000:1 2012:1 
30 30 
30 30 
30 30 
30 30 
30 30 
30 30 
29.62922758361063 0 319:1 1359:1 1366:2 1800:1 1948:2 
30 30 
30 30 
30 0 1319:1 1485:1 2010:2 
30 30 
0 0.0003060788081515163 1977:1 
30 30 
30 0 876:1 1948:2 1965:1 
30 30 
30 30 
30 30 
30 30 
30 30 
30 30 1800:1 
30 30 
30 30 
30 30 
30 30 
0.9361662007421995 0 967:1 2010:1 
30 30 
30 30 1521:1 
30 30 
0 30 1991:1 2012:1 
30 30 
30 30 
30 30 
30 30 
30 30 
30 30 
30 30 
30 30 
30 30 
0.9520258981816182 0 796:4 871:1 923:1 1359:1 1366:2 1800:1 1886:1 1948:2 2010:1 
30 30 
30 30 
30 30 
30 30 
29.07583295098439 30 515:1 
30 30 
19.33758590712654 0 162:1 1359:1 1948:6 
30 30 
30 30 
30 30 
30 30 1359:1 
30 30 
30 30 
0 30 1202:1 2012:1 
30 30 
30 30 
30 30 
30 30 
1.962490234314018 0 1569:1 1800:1 1948:2 1977:1 2022:1 
30 30 
30 30 
30 0 1932:1 1948:6 
30 30 
30 30 
30 30 
30 30 
30 30 
30 0 1366:4 1800:1 1948:6 
30 30 
30 30 
30 30 
30 30 
30 30 
30 30 
30 30 
30 30 
30 30 
30 30 
30 30 
30 30 
30 30 
30 30 
30 30 
30 0 319:1 1359:1 1366:2 1800:1 1948:2 
30 30 
0 0.5325712907087801 1943:1 
30 30 
30 0 1319:1 1485:1 2010:2 
30 30 
30 30 
30 0 1366:2 1948:2 
30 30 
30 30 
30 30 
30 30 
30 30 
0.2331448712473554 2 1871:1 
30 30 
2.312213835253663 0 1202:1 1359:2 1800:1 1931:2 1941:1 1948:2 1965:1 2010:2 2019:1 2043:1 
30 30 
30 30 
30 30 
30 0 796:1 1948:2 
30 30 
30 30 
30 30 
30 0 828:1 1366:2 1948:2 2010:1 
30 30 
30 30 
30 30 
30 30 
30 30 
30 0 1931:1 2010:1 
30 30 
30 0 1948:2 
30 30 
0 9.231139385998631 1366:2 2010:1 
30 30 
30 30 
30 30 
30 30 1366:2 1800:1 
30 30 
30 0 1800:1 1812:1 1886:1 1948:2 
30 30 
30 30 
30 30 
30 30 
30 30 1485:1 
30 30 
30 30 
0 10.62853565844714 1748:1 1965:1 
30 30 
30 30 
30 30 
0.3052087339801078 1.999288304306994 1366:2 1521:1 1818:1 
30 30 
30 30 
30 30 
30 30 
30 30 
30 30 
30 30 
30 30 
30 30 1009:1 
30 30 
30 30 
30 30 
30 30 
30 30 
30 30 
30 30 
30 30 
30 30 
30 30 
30 30 
30 0 1948:2 
30 30 
30 30 
30 30 
30 30 1319:1 2010:1 
30 30 
30 30 
30 30 
30 30 
30 30 
30 30 
0 30 1463:1 2010:1 
30 30 
30 30 
30 30 
30 30 
30 30 
30 30 
30 30 
30 30 
30 30 
30 30 
30 30 
1.884283785251753 0 698:1 1566:1 1610:1 1772:1 1800:1 1931:1 
30 30 
30 30 
30 30 
30 30 
30 30 
30 30 
30 30 
30 30 
30 30 
30 30 
0 22.58070931951059 1965:1 
30 30 
30 30 
30 30 
0.7625443817980008 0.5045987943583236 1986:1 
30 30 
30 30 
30 30 
30 30 
11.95418918623356 12.97804090024696 1781:2 1886:1 
30 30 
30 30 1800:1 1827:1 
30 30 
30 30 
30 0 1948:2 1965:1 
30 30 
30 30 1745:1 
30 30 
30 30 
30 30 
30 30 
30 30 
30 0 1319:1 1341:1 1948:2 
30 30 
30 30 
30 30 
30 30 
30 30 698:1 1366:2 
30 30 
30 30 
30 23.55550844835322 796:1 1319:1 1359:1 1800:1 1827:1 1886:1 
30 30 
30 30 
30 30 
30 30 
30 30 
30 30 
30 30 
30 30 
30 30 
30 30 
30 30 
30 30 
30 30 
0 0.2996283560180316 2019:1 
30 30 
30 30 
30 30 
30 30 
30 30 
30 30 
30 0 1931:1 
30 30 
30 30 
30 30 
30 30 
30 30 
30 30 
30 30 
30 30 
30 30 1202:1 
30 30 
30 6.065114378543297 1644:1 
30 30 
16.35347742349995 0 1521:1 1644:1 
30 30 
30 0 1202:1 1948:4 
30 30 
30 30 
30 30 
0 30 1359:1 1366:2 
30 30 
30 30 
30 30 
30 30 
30 30 
30 30 
30 30 
30 30 
30 30 
30 30 2010:1 
30 30 
14.45151850882876 1.999839363498036 663:1 1041:1 1359:1 
30 30 
30 30 
30 30 
30 30 
0 16.51012298107685 1359:2 1745:1 2010:1 
30 30 
30 30 
0.7013939775945405 0 796:1 876:2 1202:1 1354:2 1606:1 1883:1 1931:1 1948:2 
30 30 
30 0 708:1 1359:1 1745:1 1948:4 2010:1 
30 30 
30 30 
30 30 
30 30 
4.036223025364027 0 1644:1 1948:2 2010:1 
30 30 
30 30 
30 30 
30 30 
30 30 
0 28.50104396383206 1394:1 1566:1 1691:1 
30 30 
30 30 
30 30 
0 30 1748:1 
30 30 
30 30 
30 30 
0 8.735317334813793 1366:2 2010:1 
30 30 
30 0 698:1 1202:1 
30 30 
30 30 
30 30 1202:1 
30 30 
30 30 
30 30 
30 30 
0 30 1965:1 
30 30 
30 30 
30 30 1366:2 
30 30 
30 30 
30 0 1319:1 1366:2 1948:2 2010:1 
30 30 
30 0 1359:1 1366:2 1948:2 
30 30 
30 30 
30 30 
30 30 
30 30 
30 30 
30 30 
0 29.99890611408772 1800:1 1812:1 2010:1 
30 30 
30 30 
30 30 
30 30 
30 30 
30 30 
30 30 572:1 2010:1 
30 30 
30 30 
30 0 796:2 1359:1 1363:1 1948:4 
30 30 
30 30 
0 28.46506781449442 1812:1 2010:1 2012:1 
30 30 
30 30 
30 30 
30 0 1931:1 
30 30 
30 30 
30 30 
30 30 
30 30 
30 30 
30 30 
0 0.01095167100025541 698:1 1319:1 1366:4 
30 30 
30 30 
30 30 
30 30 
30 30 
0 30 1366:4 1485:1 
30 30 
30 30 
30 0 1948:2 
30 30 
30 30 
0 0.5368669972141862 1359:1 1930:1 
30 30 
30 30 
30 30 
30 30 1366:2 
30 30 
30 30 1009:1 
30 30 
30 30 
30 30 796:1 1800:1 
30 30 
30 0 1359:1 1948:2 
30 30 
30 30 
30 30 
1.256399546075345 0 796:1 1948:2 1984:1 
30 30 
30 30 
30 30 
30 30 
30 30 
30 30 
30 30 
0 18.00506710281132 571:1 796:1 1526:1 
30 30 
30 30 
30 30 
30 30 
30 30 
0 11.33081847163575 571:1 1319:1 1366:2 2010:1 
30 30 
30 30 
30 30 
30 30 
30 30 
30 0 1948:2 2010:1 
30 30 
30 30 
2.037113642800382 0 1366:2 1883:1 1948:2 
30 30 
30 30 
30 30 
30 30 
30 30 2010:1 
30 30 
26.21489750728141 0 418:1 1948:2 1965:1 
30 30 
0 30 1359:1 1780:1 
30 30 
30 0 796:1 1827:1 1948:2 
30 30 
28.31764317088394 30 352:1 
30 30 
30 30 
30 30 
17.68843655261055 0 800:1 1529:1 1948:2 
30 30 
30 30 
30 0 1948:2 
30 30 
30 30 
30 30 
30 30 
30 30 
30 30 
30 30 
30 30 
30 30 
0 30 1366:2 2010:1 
30 30 
30 30 
30 30 
30 30 
30 30 698:1 1366:2 
30 30 
30 30 
30 24.87941275969094 796:1 1319:1 1359:1 1800:1 1827:1 1886:1 
30 30 
30 30 
30 30 
30 30 
30 30 
30 30 
0 8.611443325104394 2022:1 
30 30 
30 0 1948:2 
30 30 
30 30 
30 30 
0 29.87869390091058 796:1 1929:1 
30 30 
30 30 
30 30 
30 30 
19.49543164853756 30 24:1 2000:1 
30 30 
30 30 
30 30 796:1 
30 30 
30 30 
30 30 
30 30 
30 30 
30 30 
30 30 
30 30 
30 30 
30 30 
30 30 
30 30 
30 30 
30 30 
30 30 
30 30 
30 30 
30 30 
30 30 
30 30 
30 30 
30 30 
30 30 
30 30 
30 30 
30 30 
30 30 
30 30 
30 30 
30 0 1366:2 1948:2 2010:1 
30 30 
30 30 
30 30 
30 30 
30 30 1691:1 
30 30 
30 30 
30 0 1529:1 1800:1 1883:1 1948:4 
30 30 
30 30 
30 30 
30 30 
30 30 
30 30 
30 30 1485:1 1800:1 1883:1 
30 30 
30 30 
30 30 
30 30 
30 30 
0 3.788039757509739 628:1 1430:1 
30 30 
30 30 796:1 
30 30 
30 30 
30 30 
30 30 
30 30 
30 30 
30 30 
30 30 
30 30 
30 30 
30 30 
30 30 
30 30 
30 30 
30 30 
30 30 2010:1 
30 30 
30 30 
30 30 
10.51910361300283 30 796:1 876:1 1892:1 
30 30 
30 30 
30 30 
30 30 
30 30 
30 30 
30 30 
30 30 
30 30 
30 30 
30 30 
30 30 
30 30 
3.465581718174435 0 1526:1 1948:2 
30 30 
0 1.700589252590038 2019:1 
30 30 
30 30 
30 30 
30 30 
30 30 
30 30 
30 30 
30 30 
30 30 
30 30 
30 30 
30 30 
30 30 1319:1 2010:1 
30 30 
30 30 
30 30 
30 30 
30 30 
0 2.000245478122959 1567:1 
30 30 
30 30 
30 0 1359:1 1529:1 1948:2 
30 30 
30 0 1827:1 1931:2 
30 30 
30 30 
30 30 
30 30 
30 30 
30 30 
30 2.000413034467275 327:3 1009:1 1319:1 1566:1 1948:2 
30 30 
30 30 1354:1 
30 30 
30 0 1359:1 1610:1 1948:2 
30 30 
30 30 
30 30 
30 30 
30 30 
30 30 
30 30 
30 30 
30 0 1702:1 1800:1 1948:2 
30 30 
30 30 
30 30 
30 30 
30 30 
0 3.463073668097954 1359:1 1930:1 
30 30 
30 30 
30 30 
30 30 
0 2 1977:1 
30 30 
30 30 
30 30 
30 30 
30 30 
30 30 
30 0 796:1 1319:1 1948:2 
30 30 
30 30 
30 30 
30 11.49995719406661 1319:1 1827:1 2010:1 
30 30 
30 30 
30 30 
30 30 
0 30 698:1 1287:2 1359:1 1366:2 1529:1 1827:1 1883:1 
30 30 
30 30 
30 30 
0.6852873823466298 0 628:1 1351:1 1827:1 1948:2 
30 30 
1.331612857382452 0 1319:1 1366:2 1990:1 2010:1 
30 30 
30 30 
30 30 
30 30 
30 30 
0 22.68021335604048 1717:1 
30 30 
30 30 
30 0 1948:4 2000:1 
30 30 
30 30 
30 30 
30 30 
30 30 
30 30 
30 30 
30 30 
30 30 
0 30 1717:1 
30 30 
30 30 
30 30 
30 30 
16.66896063680298 30 1800:1 1812:1 
30 30 
30 30 
30 30 
30 30 
30 30 
30 30 
30 0 796:1 1319:2 1359:2 1423:1 1781:1 1931:1 1948:6 2010:1 
30 30 
30 0 796:1 1800:3 1931:1 1948:4 2000:1 2010:1 
30 30 
0 12.38737267639424 796:1 2022:1 
30 30 
30 30 
30 30 
30 30 
0 30 2022:1 
30 30 
30 30 
30 30 
30 30 
30 30 
30 30 
30 0 1319:1 1948:2 
30 30 
30 30 
30 30 
30 30 
30 30 
30 30 
30 30 
30 30 
30 30 
0 29.21203338019606 1366:2 2010:1 
30 30 
0 30 1965:1 
30 30 
30 30 
30 30 
30 0 1319:1 1477:1 2010:1 
30 30 
30 30 
30 30 
30 30 
30 30 
30 30 
30 30 
30 0 1948:4 
30 30 
30 30 
25.90048307782719 30 1800:1 1812:1 
30 30 
1.953987723602183 1.876038416184632 1341:1 1903:1 
30 30 
0 1.98308307110277 1941:1 
30 30 
30 30 
0.08374656585489744 0 354:1 797:1 1366:2 1719:1 1745:1 2010:3 
30 30 
30 30 
0 30 2022:1 
30 30 
30 30 
30 0 35:1 1948:2 
30 30 
30 30 1800:1 1883:1 
30 30 
30 30 
30 30 
30 30 
30 30 
30 30 
30 30 
30 30 
30 0 1366:2 1800:1 1948:2 
30 30 
30 30 
30 30 
30 30 
30 30 
30 30 
30 0 1366:4 1800:1 1948:6 
30 30 
30 30 
30 30 
30 30 
30 30 
30 30 
30 30 1529:1 
30 30 
30 30 
30 0 796:1 1366:2 1800:1 1931:1 1948:2 
30 30 
1.39676915667975 0 1800:1 1948:2 2034:1 
30 30 
30 2.945002429676705 876:1 1319:1 2010:1 
30 30 
30 30 
30 30 1319:1 2010:1 
30 30 
30 0 1948:2 2010:1 
30 30 
30 30 
30 0 1827:1 2010:2 
30 30 
30 30 2010:1 
30 30 
30 30 1800:1 2010:1 
30 30 
30 30 
0.6926920734673093 0 1359:2 1948:2 
30 30 
30 30 
30 30 
30 30 1827:1 2010:1 
30 30 
30 30 1812:1 
30 30 
30 30 
30 30 
30 0 1948:2 
30 30 
30 30 
30 30 
0 30 1359:1 1566:1 2000:1 
30 30 
30 30 
30 30 
30 30 
30 30 
30 0 1948:2 2012:1 
30 30 
30 0 1948:2 
30 30 
30 30 
30 30 
30 30 1354:1 1827:1 1886:1 
30 30 
8.344423522632626 30 1495:1 
30 30 
30 30 
30 30 
30 30 
30 30 
30 30 1366:2 
30 30 
30 0 1009:1 1948:2 
30 30 
30 30 
30 30 
30 30 
30 30 
30 30 
30 30 
30 30 
30 30 
30 30 
30 30 
30 30 
30 30 
30 30 
30 30 
1.637796225870897 0 628:1 796:2 828:1 1202:1 1335:1 1366:2 1411:1 1485:1 1693:1 1717:1 1745:2 1800:3 1827:9 1883:1 1932:2 1948:8 1980:1 
30 30 
30 0 1212:1 1366:2 1485:1 1800:1 1931:2 
30 30 
30 30 
30 30 
30 30 
30 30 
30 30 
30 30 
30 30 
30 30 1366:2 
30 30 
0 29.4429103481487 1965:1 
30 30 
0 30 1359:1 1883:1 
30 30 
30 30 
30 30 
30 30 
30 30 
30 30 
30 30 
30 30 
30 30 
30 30 
30 30 
30 30 
30 30 
30 30 
30 0 1319:1 1359:1 1366:2 1948:8 2000:1 
30 30 
30 30 
30 30 
30 30 
30 30 
30 30 
30 30 
0 2 967:1 1366:2 
30 30 
0 30 1717:1 
30 30 
30 30 
30 30 
30 30 
30 30 
30 30 
30 30 
30 30 
30 0 1610:1 1948:4 
30 30 
30 30 
30 30 
30 30 
30 30 
30 30 
30 30 
30 30 
30 30 
30 30 
30 30 
0 30 1883:2 
30 30 
30 30 1883:1 
30 30 
30 30 
30 0 838:1 1359:1 1948:4 
30 30 
0 23.34510330212242 1366:2 2010:1 
30 30 
30 30 
30 30 
30 0 796:1 1644:1 1948:2 
30 30 
30 30 
30 30 
30 30 
1.849583092329215 0 1319:1 1353:1 1931:1 
30 30 
30 30 
30 30 
30 30 
30 30 
30 30 
30 30 
30 0 1948:2 
30 30 
30 30 
30 30 
30 30 
30 30 
30 30 
30 30 
30 30 
30 30 
30 30 
30 30 
30 30 
30 30 
30 30 
30 30 628:1 
30 30 
30 30 
30 30 
30 30 
30 0 698:1 796:1 1800:2 1931:1 1932:1 
30 30 
30 30 
30 30 
30 30 
30 30 
30 30 
30 0 1900:1 1948:2 
30 30 
30 30 
30 0 1518:1 1948:2 
30 30 
30 30 1827:1 
30 30 
30 30 
30 30 
0 30 1202:1 1359:2 
30 30 
30 0 1359:1 1745:1 1948:2 
30 30 
30 30 1827:2 
30 30 
30 30 
30 30 
30 30 
0 30 796:1 1202:1 1366:2 1527:1 1800:2 
30 30 
30 30 
30 0 1394:1 1931:2 1932:1 1948:8 1960:1 2010:2 
30 30 
30 30 
30 30 
30 30 
30 0 1359:2 1495:1 1948:8 
30 30 
30 30 
0 10.88395193040881 1657:1 1800:1 2022:1 
30 30 
30 30 
30 30 
30 30 
30 30 796:3 
30 30 
30 30 
30 30 
30 30 
30 30 
30 30 
30 30 
30 30 
30 30 
30 30 
30 30 
30 30 
0 30 1319:2 1354:1 1432:1 1485:1 1745:1 1812:1 2000:1 
30 30 
0 4.000710427181703 327:1 1319:1 1984:1 
30 30 
30 30 
11.44795972013137 0 838:2 1948:4 2000:1 2010:2 2012:1 
30 30 
30 30 
30 30 
30 0 327:1 1827:1 1932:1 1948:8 
30 30 
30 30 
13.2893085965608 0 1366:2 1424:1 1644:1 2010:1 
30 30 
30 30 
30 30 
30 30 
30 30 
30 30 
30 30 
30 30 
30 30 
17.00332237896584 0 1931:1 1943:1 
30 30 
30 30 
30 30 
30 30 
30 30 
30 30 
30 30 
30 0 796:1 1319:1 1948:2 
30 30 
30 30 
30 30 
0 30 1604:1 1780:1 1886:1 
30 30 
30 0 1948:2 1954:1 
30 30 
8.916762320731047 0 1069:1 1886:1 1931:1 
30 30 
0 2.000780947725561 319:1 511:1 1326:1 1411:1 1780:1 1800:1 
30 30 
30 30 
30 30 
30 0 796:1 1827:1 1883:1 1948:2 2010:1 
30 30 
30 30 
30 0 1948:2 
30 30 
30 30 
30 30 
30 30 
30 30 
30 30 
30 30 
30 30 
30 30 
30 30 
30 30 
30 30 
30 30 
30 30 
30 30 
0 24.37217256333443 1943:1 
30 30 
30 30 
30 30 
30 30 
30 0 1948:2 
30 30 
30 30 1366:2 
30 30 
30 0 1359:1 1948:2 1968:1 
30 30 
30 30 
30 30 1366:2 1485:1 1800:1 
30 30 
30 30 
30 0 1366:2 1948:6 2001:1 
30 30 
30 30 
30 30 
30 30 
0 4.000655100342671 327:1 2021:1 
30 30 
30 30 
30 30 
30 30 
30 30 
30 30 
30 30 
30 30 
30 30 
30 30 
30 30 796:1 
30 30 
30 30 
30 30 
30 30 
30 30 
30 30 
30 30 1319:1 1366:2 
30 30 
30 30 
30 30 
30 30 
30 30 
30 0 1366:2 1931:2 2010:1 
30 30 
30 30 
30 30 
30 30 
30 0 1366:2 1948:6 2010:1 
30 30 
30 30 
30 30 
30 0 1948:2 
30 30 
30 30 
30 30 
-30 30 
-30 0 1948:2 
-30 0 805:1 1366:2 1610:1 2010:1 
-30 0 1745:1 1800:1 1948:2 
-0 2.499142214447792 1683:1 2010:1 2011:1 
-23.16169042654011 0 1005:1 1359:1 1948:2 
-30 2.000160771769778 1012:1 1359:1 
-30 30 1319:1 
-30 30 698:1 
-30 0 1423:1 1948:2 2000:1 
-15.54633572058743 0 796:1 1477:2 1610:1 1948:4 
-4.552626343847653 3.39250820754023 515:1 628:1 1980:1 2012:1 
-30 30 2000:1 2010:1 
-30 0 796:1 1781:1 1948:2 
-30 30 24:1 1366:4 1745:1 1827:1 2010:1 
-30 0 1948:2 2010:1 
-30 0 1624:1 1931:1 1948:4 2010:2 2012:1 
-30 0 418:1 1948:2 
-30 30 1800:1 
-30 0 1327:1 1423:1 1948:4 
-30 30 1319:1 
-0 4.735795089416683e-15 796:1 1971:1 
-2.16648031864048 0.06508648628598712 49:1 75:1 775:1 796:2 876:1 968:1 1245:1 1366:2 1511:1 1604:1 1943:1 
-1.064993173789642 0 780:1 796:2 1009:1 1327:1 1366:4 1717:1 1886:1 1948:2 2010:2 2029:1 
-30 0 796:3 1319:2 1610:1 1800:1 2010:2 
-30 30 2010:1 
-0.7171309351464762 0.2501006837657325 1319:1 1366:4 1529:1 1967:2 
-30 30 796:1 
-30 0 796:1 1366:2 1948:2 
-3.773084288182633 0 49:1 954:1 1948:2 
-0.9073137262169823 0 119:1 1931:1 1948:2 
-0.85238795023508 2 1953:1 
-30 30 
-1.127387807600801 0 1319:1 1366:2 1483:1 1745:1 1827:1 1948:4 2010:1 
-30 0 1610:1 2010:1 
-6.489053054458897 0 35:1 868:1 1610:1 1948:2 
-30 30 1886:1 
-30 0 1610:1 2010:2 
-30 0 1800:1 1948:2 
-30 0 1948:2 
-30 0 1943:1 1948:2 
-29.8373945724971 14.52769557253447 327:2 1366:2 1610:1 
-30 0 1319:1 1948:2 
-30 0 1319:1 1366:2 1827:1 1948:2 2010:2 
-30 0 1359:1 1948:4 
-3.434719391187735 0 1366:4 1654:1 1886:1 1932:1 1943:1 
-30 0 571:1 1341:1 1366:4 1423:2 1604:1 1717:1 1800:1 1931:3 1948:6 1954:1 
-30 0 796:1 1931:1 1948:2 2010:1 
-0.874735059892491 0 50:1 796:1 1028:1 1800:1 1830:1 1948:2 2010:2 
-30 30 
-30 30 1319:1 1366:2 
-30 0 796:1 1931:1 1948:2 2010:1 
-30 30 1366:2 
-3.126278230880687 0 629:1 1717:1 1886:1 
-30 30 1366:2 2010:1 
-30 0 1366:2 1948:2 
-30 0 796:1 1948:2 
-0 1.935209107215182 775:1 
-30 29.96318743440727 1529:1 1610:1 
-30 0 1359:1 1366:6 1529:5 1745:1 1800:1 1886:1 1948:2 
-30 30 
-30 0 1319:1 1366:2 1610:1 
-30 11.73223491173095 796:1 1319:2 1745:1 
-30 30 1009:1 1657:1 2010:1 
-30 30 1827:1 
-1.468575757952366 0 266:1 572:1 796:1 868:1 1319:1 1366:4 1423:1 1485:1 1604:1 1745:1 1931:1 2010:2 
-30 0 1319:1 1657:1 1719:1 1931:1 1948:2 2010:1 
-0 0.0001179920830234656 780:1 940:1 1359:1 
-30 0 1366:2 1547:1 1610:1 2010:1 2029:1 
-30 30 1745:1 
-30 0 1366:2 1948:4 
-30 0 698:1 1354:1 1948:2 
-0 2 111:1 
-30 30 
-0.02311462440702424 0 1948:4 2038:1 
-30 0 1359:1 1610:1 1948:2 
-0 2 372:1 
-2.275468706013717 1.999763812397415 796:1 1359:2 1979:1 
-30 0 1948:2 
-30 30 2010:2 
-30 30 796:1 
-30 0 1366:4 1948:2 
-30 0 1366:2 1610:1 1745:1 2001:1 
-1.425781787466841 0 876:1 1745:1 1780:1 1800:1 1948:2 2004:1 
-0 30 1932:6 
-3.334311135528012 0 733:1 1327:1 1366:6 1485:3 1745:1 1748:1 1827:1 1886:1 1900:1 1931:1 1943:1 1948:4 1980:1 2010:3 2040:1 
-30 0 1604:1 1948:4 
-10.62104193586345 0 572:1 1019:1 1252:1 1354:1 1366:2 1827:1 1948:2 2010:1 
-30 0 1948:2 
-0.1645936513502189 0 515:1 796:1 1610:2 1827:1 1935:1 1948:2 
-30 0 1948:4 
-30 0 1009:1 1319:1 1886:1 1948:2 
-30 30 1319:1 1366:2 1943:1 
-30 0 1800:1 1948:2 
-30 30 1359:1 1366:2 1932:2 2010:1 
-4.89679245769541 0 516:1 663:1 1009:1 1019:1 1359:2 1516:1 1529:1 1780:1 1827:1 1838:1 1883:1 1886:1 1948:10 2010:1 
-1.018380010404668 0 35:1 364:1 628:1 1474:1 1657:1 1886:1 1932:1 1948:2 2001:1 2010:3 
-30 30 1366:2 1423:1 1933:1 
-0 2.000922955307681 629:1 1485:1 
-30 30 1319:1 1366:2 
-4.940335136033742 0 111:1 796:1 1319:1 1359:1 1827:1 
-30 30 1932:1 
-10.59337058821255 0 572:1 628:1 1319:1 1657:1 1827:1 1948:2 2010:1 
-30 0 1827:1 1948:2 
-8.50280434784252 0 372:1 796:2 1319:2 1359:3 1745:1 1781:1 1827:1 1931:2 1948:6 2010:1 
-30 30 1319:2 
-30 30 1529:1 
-7.849121654993523 23.32010761825784 818:1 1423:1 1610:1 
-30 0 1948:4 
-30 30 1319:1 1657:1 
-30 0 796:1 876:1 1359:1 1366:2 1781:1 1827:2 1948:4 
-30 0 876:1 1535:1 1644:1 1812:1 1948:2 2010:1 
-30 30 1319:1 1366:2 2010:1 
-30 0 1366:2 1948:4 
-7.605703531132047 0 796:3 1069:1 1319:2 1359:1 1366:2 1435:1 1717:1 1745:1 1781:2 1932:1 1948:2 2010:1 2016:1 
-24.20110730175952 1.499260343862054 234:1 1529:1 1598:1 2010:1 
-0 30 1932:13 
-30 0.2493121955589901 572:1 1933:1 
-30 0 1319:1 1610:2 1948:2 2012:1 
-2.452443730463006 0 1521:1 1780:1 1948:2 2002:1 2003:1 
-30 0 796:1 1319:1 1366:2 1948:2 
-10.95044882386339 0 1521:1 1610:1 1827:1 1865:1 1931:1 1932:1 1948:2 
-0 1.499456100208552 1745:1 2010:1 2016:1 
-30 30 
-0.3011776586913246 30 673:1 1366:2 1827:1 1877:2 
-30 30 1812:1 
-30 30 1319:1 1745:2 1827:1 2010:1 
-30 0 797:1 1319:1 1327:1 1948:4 2010:2 2012:1 
-27.73614400271725 0 120:1 2010:1 
-30 0 381:1 1948:2 2010:1 
-0.6106567625979527 0 572:1 628:1 1366:2 1407:1 1423:1 1886:1 1948:2 2010:1 
-0 2 1005:1 
-30 0 1319:1 1931:1 
-30 0 796:1 1745:3 1943:1 1948:4 
-30 0 628:2 796:3 1529:1 1610:1 1657:1 1948:2 2010:4 
-30 0 1827:3 1948:2 
-30 30 1827:1 
-30 0 1529:1 1610:1 1745:1 1948:4 2010:1 
-1.83745214277358 0 1359:1 1932:1 1933:1 1948:6 
-0 1.000604770280019 364:1 1009:1 1319:1 1366:2 
-2.407876468139768 0.6668835439240673 1225:1 1547:1 1748:1 1956:1 
-30 1.250803881314135 327:1 418:1 1686:1 
-6.297563264498454 0 572:1 876:2 1319:1 1948:2 2010:1 
-1.000582379293531 0 1800:1 1823:1 1931:1 1948:4 2015:1 
-30 0 1572:1 1948:4 2010:1 
-30 0 796:1 1827:1 1948:2 2010:3 
-30 0 1359:1 1948:4 
-1.947769864323462 0 364:1 1366:2 1948:4 2000:1 2010:2 
-30 30 
-30 0 1485:1 1948:2 
-30 30 1366:2 
-0 29.61416546697366 796:2 1610:1 
-30 30 1366:2 2010:1 
-0 30 1932:2 
-29.86102630564186 0 708:1 1948:2 1968:1 
-8.111564412901494 0 796:2 1812:1 1827:2 1931:2 1948:8 2010:2 
-30 30 796:1 2010:1 2012:1 
-30 0 1359:1 1948:2 
-30 0 796:3 1359:1 1366:2 1827:1 1948:2 
-1.778873526571621 0 628:1 733:1 791:1 1009:1 1319:1 1359:1 1423:2 1610:1 1781:1 2010:1 2039:1 
-30 0 1948:2 
-30 0.999345785699277 1359:1 1518:1 1604:1 1745:1 1827:1 1891:1 2000:1 2010:1 
-30 0 1948:4 
-16.4770991160784 0 1745:1 1800:1 1931:1 1948:2 
-30 0 796:2 1610:1 1948:2 2010:1 
-30 30 1009:1 
-30 0 1657:1 1948:2 
-30 0 1319:1 1485:1 1827:1 1931:1 
-30 30 1319:1 1781:2 
-30 0 319:1 1948:2 
-1.390993810198743 1.499702591852682 2010:1 2031:1 
-30 0 1948:2 
-30 30 
-0.8525001075500228 2 1971:1 
-29.58498416586283 0 1989:1 
-0 30 796:1 1511:1 2010:1 
-30 0 597:1 1932:1 1948:2 
-1.847658860295641 0 628:1 698:2 1366:2 1610:1 1649:1 1931:2 1948:6 
-30 30 1485:1 
-20.50859486033774 0 572:1 1319:2 1366:4 1610:2 1800:2 1827:2 1886:2 1948:2 1968:1 
-0 30 1359:1 1932:10 
-30 0 1359:1 1657:3 1800:1 1948:2 
-30 30 
-30 0 1948:4 
-0.09917531726024344 0 1572:1 1800:1 1936:2 1948:2 1967:1 2002:1 2010:1 
-30 0 35:1 1745:1 1781:2 1827:1 1932:2 1948:2 
-30 0 1359:1 1948:2 
-30 0 1827:1 1948:2 
-0.8420563697156114 1 1945:1 2029:1 
-30 0 1745:1 1948:2 
-0.993449733239003 1.000123213480374 1334:1 1437:1 1545:1 
-0.5658920070692924 0 595:1 1223:1 1366:2 1511:1 1610:2 2000:1 
-5.352706648097068 0 780:1 873:1 1377:1 1423:1 1521:1 1717:1 1931:2 
-30 28.32693203805761 1366:4 1800:1 1886:1 
-30 30 1319:1 1366:2 1657:1 1745:1 2010:1 
-30 30 
-0.2762721253722221 0 1566:1 1928:1 1948:2 
-30 0 1610:1 2010:1 
-30 0 1319:1 1812:1 1948:2 
-5.678006445249454 0 482:1 698:1 796:1 1009:1 1319:2 1359:1 1366:2 1931:1 2010:1 2011:1 
-0.04906715174214756 0 572:1 643:1 1423:1 1610:1 2010:1 
-14.18752847794237 1.999397623303031 1359:1 1569:1 1717:1 2000:1 
-30 0 1800:1 1827:1 1948:4 
-30 0 1657:1 1948:2 
-30 30 1827:1 
-30 30 
-1.909137261862199 4.000093101973798 1359:1 1696:1 1957:1 
-30 30 1359:1 1366:2 1745:1 
-30 0 1948:2 2010:1 
-30 30 
-30 0 1005:1 1931:1 2000:1 
-30 0 1948:4 
-30 0 1366:2 1745:2 1948:4 
-30 30 
-30 30 
-30 0 1319:1 1644:1 1948:2 
-22.89495090478517 2 868:1 
-30 30 796:1 1932:1 2010:1 
-2.876712105374234 0 383:1 737:1 1009:1 1319:1 1326:1 1359:1 1485:1 1534:1 1745:1 1948:4 2010:1 
-30 29.93233286197377 1610:1 1800:1 
-30 0 796:1 1366:2 1423:1 1827:2 1948:4 
-30 30 
-30 30 
-30 30 
-30 30 
-12.54545638531825 0 698:1 733:1 796:1 876:2 1263:1 1354:1 1359:4 1366:2 1432:1 1555:1 1657:2 1719:1 1827:1 1837:1 1886:2 1948:14 2044:1 
-0.5604044869274712 0 515:1 809:2 1319:3 1359:1 1366:4 1377:1 1521:1 1567:1 1604:1 1610:1 1745:1 1800:2 1812:1 1914:1 1931:1 2010:3 2029:1 2044:1 
-30 30 
-30 30 
-0.3170734882248892 0 496:2 796:1 1313:1 1366:6 1367:1 1476:1 1948:2 2000:1 2010:1 2044:1 
-0.3270288195741577 0 384:3 418:1 628:1 673:2 698:1 761:1 775:1 796:3 805:1 967:1 968:2 1009:1 1353:1 1359:2 1366:2 1408:1 1521:1 1748:1 1781:2 1782:1 1800:3 1812:2 1886:6 1931:1 1932:4 1948:6 2010:1 2012:1 2044:1 
-30 30 
-30 30 
-30 30 
-0 4.000227891100244 1696:1 1827:1 2044:1 
-30 30 
-30 0 796:1 1359:1 1366:2 1948:2 2010:1 
-30 30 
-0 30 572:1 
-30 0 1948:2 
-30 2 358:1 
-30 30 
-30 30 
-30 30 1745:1 
-0 2.500647259075605 515:1 1962:1 
-30 0 1485:1 1948:2 
-30 0 107:1 162:1 1495:1 1948:4 
-30 0 1366:2 1948:2 
-30 0 1948:2 
-0.2988997094067721 0 796:1 1671:1 1948:2 
-30 1.999694388083452 1521:2 1529:1 1702:1 
-30 30 
-1.495316819734892 30 1653:1 
-30 30 
-30 0 733:1 1948:2 
-1.874620684549761 0 1366:4 1380:1 1948:2 
-15.11618256142693 0 876:1 1019:1 1245:2 1604:1 1800:1 1948:2 
-1.30176073951943 2 917:1 
-16.84104150345936 0.6668191679889982 58:1 800:1 1041:1 
-30 30 
-30 0 1948:2 
-30 30 1366:2 1827:1 1932:1 
-30 0 1366:2 1931:1 
-30 30 
-30 30 
-30 30 
-10.29899910480119 0.1240815834128954 418:2 1511:1 2010:1 
-30 30 
-30 30 
-30 30 
-30 30 796:1 1566:1 
-30 30 1366:2 1529:1 2010:1 
-30 30 
-30 30 
-4.191742916195911 0 663:1 1948:2 
-30 0 1948:2 
-30 0 1948:2 
-0.8525657312495376 2 1901:1 
-26.82590868127573 0 796:1 1485:1 1900:1 1948:2 
-30 0 1948:2 
-30 0 1800:1 1931:1 
-30 0 1931:1 
-30 0 1931:1 
-30 0 628:1 1366:2 1931:1 
-30 30 1657:1 
-30 30 
-30 0 1948:2 
-30 30 
-30 0 818:1 1800:1 1931:1 
-30 0 1931:1 
-30 0 628:1 1931:1 
-0.8100949554350326 30 586:1 673:1 1886:1 
-0 30 796:1 1952:1 
-30 30 818:1 1800:1 
-0 0.005893625378495762 818:1 1800:1 2004:1 
-30 0 1485:1 1931:1 
-30 0 1931:1 
-30 0 1432:1 1931:1 1948:4 
-30 0 1485:1 1745:1 1931:1 
-30 30 1485:1 
-30 0 1931:1 
-30 0 1931:1 
-30 0 1931:1 
-30 30 1932:1 
-30 0 1931:1 
-30 0 1812:1 1893:1 1931:1 
-24.99650827488701 0 1931:1 1948:2 
-30 0 1931:1 
-30 0 1931:1 
-30 0 467:1 1931:1 1948:4 
-30 0 1931:1 
-30 0 1948:2 
-30 30 
-30 30 796:1 
-30 0 1366:2 1931:1 1948:2 
-0 30 572:1 
-30 30 
-30 0 1341:1 1366:2 1800:1 1948:2 
-30 30 
-30 0 1827:1 1931:1 
-30 30 
-30 0 1366:2 1800:1 1931:3 1948:2 
-30 0 1202:1 1354:1 1800:1 1931:2 1948:2 
-30 0 698:1 1800:1 1948:2 
-30 0 1948:2 
-30 30 1009:1 
-30 0 1948:2 
-30 30 
-30 30 
-30 30 
-30 30 
-30 0 1948:2 
-30 0 1745:1 1886:1 1948:2 
-30 30 
-0.852460853314859 30 575:1 
-30 0 1745:1 1948:2 
-30 0 1948:2 
-30 0 327:1 1800:1 1931:1 
-30 0 796:1 1485:1 1800:1 1886:1 1948:2 2010:1 
-30 30 
-0 2 2015:1 
-30 30 
-30 30 
-30 30 
-30 0 1931:1 1948:2 
-30 0 1931:1 
-30 0 1931:1 
-30 0 628:1 796:2 1009:1 1359:2 1745:1 1800:1 1931:1 1948:4 
-30 0 628:1 1800:2 1948:2 
-30 0 1800:1 1948:2 
-30 0 1931:1 
-30 0 1366:2 1745:1 1948:2 
-30 0 1366:2 1948:4 
-30 30 1932:1 
-30 0 1336:1 1948:2 
-30 30 1932:1 
-3.824397895201177 0.0001180651636250068 1283:1 1366:2 1610:1 1748:1 1800:2 
-29.9751367312181 0.7286907289300719 1696:1 1932:1 1948:2 
-30 0 796:1 1359:1 1745:1 1800:1 1948:4 
-30 30 796:1 
-30 30 1932:1 
-30 0 1366:2 1812:1 1948:4 
-0.2327909985279703 0 81:1 838:1 1812:1 1948:4 
-30 0 796:1 1366:2 1948:4 
-30 0 1366:2 1800:1 1948:2 
-30 0 1948:4 
-30 0 1931:1 
-30 0 1931:1 
-30 30 796:1 1485:1 1745:1 1800:1 
-30 30 
-30 30 
-30 30 
-30 30 1932:1 
-30 30 
-30 30 1932:1 
-30 30 1800:2 
-30 0 796:1 1948:2 
-30 30 1495:1 1932:1 
-7.684323730763712 0 406:1 1485:1 1604:1 1610:1 1948:2 
-0.3452285863342621 0 854:2 991:1 1359:1 1366:2 1384:1 1495:1 1931:1 1948:4 1949:1 
-30 30 
-30 0 1800:1 1948:2 
-30 28.39446269177746 838:1 1319:2 1745:1 1780:1 1800:1 
-10.84401669783121 0 1010:1 1430:1 1865:1 1948:2 
-30 0 1800:1 1948:4 
-30 0 1948:2 
-30 0 1800:1 1948:4 
-30 0 1948:2 
-30 0 1800:1 1948:4 
-30 0 1948:2 
-30 30 
-30 30 796:1 1366:2 
-30 30 
-30 30 
-30 0 1359:1 1948:4 
-30 0 1800:1 1931:1 1948:2 
-30 30 1932:1 
-30 0 1948:2 
-30 30 
-30 30 1485:1 
-30 0 1827:1 1948:2 
-30 30 
-1.695848014822216 30 1088:1 1883:1 
-30 30 
-30 30 838:1 1366:2 
-30 30 
-0.1225104972799193 1.000183653253563 436:1 838:1 1179:1 1800:1 
-0 1.994337569612696 2004:1 
-30 30 
-30 2.000873907372267 245:1 1812:1 
-0 30 572:1 
-14.98693792690507 0 1482:1 1624:2 1800:4 1932:1 1948:4 
-10.66826611732585 0 418:1 1932:1 1948:2 
-27.55746466080564 30 796:1 1932:1 
-30 30 
-30 0 245:1 418:1 1009:1 
-30 30 
-30 30 
-30 0 1948:2 
-30 0 245:1 2010:1 
-30 30 
-30 0 733:1 1359:1 1931:1 1932:1 
-30 30 
-30 0 1931:1 
-30 0 1366:2 1624:1 1948:2 
-30 30 1745:1 
-30 30 1657:1 
-30 30 796:1 1812:1 
-30 0 1948:2 
-30 0 1202:2 1931:1 
-30 30 796:1 
-30 30 796:1 1202:1 
-30 0 1931:1 
-30 0 1800:1 1948:4 
-30 30 1423:1 1932:1 
-0.8635370944342213 0 759:1 1931:1 
-30 0 1931:1 
-30 0 1931:1 
-30 0 1800:1 1931:1 1948:2 
-30 0 1359:1 1800:1 1948:2 
-22.73027375662109 2.999573127452458 406:1 1931:1 
-30 0 1931:1 
-30 0 1931:1 
-30 30 1932:1 
-30 30 566:1 1800:1 
-30 30 1800:1 
-30 30 
-30 30 1800:1 
-27.0975133256107 0 514:1 
-12.49674606359084 0 107:1 796:1 1009:1 1366:2 1931:1 1948:2 
-30 0 1359:1 1366:2 1653:1 1800:1 1948:2 
-30 0 1948:2 
-26.18878241029629 0 698:2 796:1 1827:1 1931:2 1948:2 
-30 0 628:1 1366:2 1800:1 1948:4 
-2.10610865950131 0 1931:1 1948:2 
-30 30 796:3 1745:1 1800:1 1883:1 1932:1 
-30 0 1948:2 
-30 30 
-30 30 
-30 30 
-30 30 
-30 30 
-30 30 
-30 30 
-30 30 
-30 30 
-30 30 
-30 30 
-30 30 
-30 30 
-30 30 
-30 30 
-30 30 
-30 30 
-30 30 
-30 30 
-30 30 
-30 30 
-30 30 
-30 30 
-30 30 
-30 30 
-30 30 
-30 30 
-30 30 
-30 30 
-30 30 
-30 30 
-30 30 
-30 30 
-30 30 
-30 30 
-30 30 
-30 30 
-30 30 
-30 30 
-30 30 
-30 30 
-30 30 
-30 30 
-30 30 
-30 30 
-30 30 
-30 30 
-30 30 
-30 30 
-30 30 
-30 30 
-30 30 
-30 30 
-30 30 
-30 30 
-30 30 
-30 30 
-30 30 
-30 30 
-30 30 
-30 30 
-30 30 
-30 30 
-30 30 
-30 30 
-30 30 
-30 30 
-30 30 
-30 30 
-30 30 
-30 30 
-30 30 
-30 30 
-30 30 
-30 30 
-30 30 
-30 30 
-30 0 1948:2 
-30 30 
-30 30 
-30 30 
-30 30 
-30 30 
-30 30 
-30 30 1827:1 
-30 30 
-30 30 
-6.130079135525082 0 245:1 613:1 1313:1 1366:2 1604:1 1800:4 1948:6 1965:1 
-30 30 
-30 0 1800:1 1948:4 2010:2 
-30 30 
-30 30 
-30 30 
-30 30 
-30 30 
-30 30 
-30 30 
-30 30 
-30 30 
-30 30 
-30 30 
-30 30 
-30 30 
-30 30 
-30 0 1948:2 2010:1 
-30 30 
-30 30 
-30 0 1948:2 
-30 30 
-30 0 1948:2 
-30 30 
-30 30 
-30 30 
-30 30 
-30 30 
-30 30 
-30 30 
-30 30 
-30 30 
-30 30 
-30 0 1359:2 1948:2 
-30 30 
-30 30 
-30 30 
-30 30 
-30 30 
-30 30 
-30 30 
-30 0 1366:2 1529:1 1748:1 1931:1 1932:1 1948:2 
-30 30 
-30 30 
-30 30 
-0 1.499675602363609 1827:1 1966:1 2010:1 
-30 30 
-30 30 
-30 30 
-30 30 
-30 30 
-30 30 
-30 30 
-30 30 
-30 30 
-30 30 
-30 30 
-30 30 
-30 30 1366:2 
-30 30 
-30 30 
-30 30 
-30 30 
-30 30 
-30 30 
-30 30 
-30 30 
-30 30 
-0 1.297619423054173 2012:1 2030:1 
-30 30 
-30 30 
-30 30 
-30 30 
-30 30 
-30 30 
-30 30 
-30 30 
-30 30 
-30 30 
-30 30 
-30 30 
-30 30 
-30 30 
-30 30 
-30 30 
-30 30 
-30 30 
-30 30 
-30 30 
-30 30 
-0 2.000370205532159 1800:1 2014:1 
-30 30 
-30 30 
-30 30 
-30 30 
-30 30 
-30 0 1319:1 1359:1 1566:1 1691:2 1948:2 2010:1 
-30 30 
-30 30 
-30 30 
-30 30 
-30 30 
-30 30 
-30 30 
-30 30 
-30 30 
-30 30 
-30 30 
-30 30 
-30 30 
-30 30 
-30 30 796:1 1423:1 1745:1 1800:1 2000:1 2010:2 
-30 30 
-30 30 
-30 30 
-30 30 
-30 30 
-30 30 
-30 30 
-30 30 
-30 30 
-30 30 
-30 30 
-30 30 
-30 30 
-30 30 
-30 30 
-30 30 
-30 30 
-30 30 
-30 30 
-30 30 
-30 30 
-30 30 
-30 30 
-30 30 
-30 30 
-30 30 
-30 30 
-30 30 
-30 30 
-30 30 
-30 30 
-30 30 
-30 30 
-0.8038846451667857 0 871:1 1604:1 1800:1 1931:1 
-30 30 
-30 30 
-30 30 
-30 30 
-30 30 
-30 30 
-30 30 
-2.347071463144328 0 1366:2 1381:1 1931:2 1948:2 
-30 30 
-30 30 2010:1 
-30 30 
-30 30 
-30 30 
-30 30 
-30 30 
-30 30 1319:1 1745:1 
-30 30 
-30 30 
-30 30 
-3.757723177851267 0 1354:1 1827:1 1948:4 
-30 30 
-30 30 
-30 30 
-30 30 
-30 30 2010:1 
-30 30 
-30 30 
-30 30 
-30 30 
-30 30 
-30 30 
-30 30 
-30 0 796:1 1948:2 
-30 30 
-30 30 
-30 30 
-30 30 
-30 30 
-30 30 
-30 30 
-30 0 1948:2 2010:1 
-30 30 
-30 30 
-30 30 
-30 30 
-30 30 
-30 30 
-30 30 
-30 30 
-30 30 
-30 30 
-30 30 
-3.278187897034394 0 35:1 631:1 1644:1 1948:6 2010:3 
-30 30 
-30 30 
-30 30 
-30 30 
-30 0 1827:1 1948:2 2000:1 2010:1 
-30 30 
-30 0 1359:1 1827:1 1948:2 
-30 30 
-30 30 2010:1 
-30 30 
-30 30 
-30 30 796:1 
-30 30 
-30 30 
-30 30 
-30 30 
-30 30 
-30 30 
-30 30 
-30 30 
-30 30 
-30 30 
-30 30 
-30 30 
-30 30 
-30 30 
-30 30 
-30 30 
-30 0 1366:2 1948:2 2010:1 
-30 30 
-30 0 1366:2 1948:2 
-30 30 
-30 30 1319:1 
-30 30 
-30 30 
-30 30 
-2.283509590991585 1.499625691803144 1476:1 2010:1 
-30 30 
-30 30 
-30 30 
-30 30 
-30 30 
-30 30 
-30 30 
-30 30 
-30 30 
-30 30 
-30 30 
-30 30 
-30 30 
-0 0.5932374653290937 1354:1 1359:1 2030:1 
-30 30 
-30 30 
-2.632768658346811 0 1547:1 1780:1 1800:1 1931:1 1932:1 1948:2 2014:1 
-30 30 
-30 30 
-30 30 
-30 30 
-30 0 796:1 828:1 1202:1 1883:1 
-30 30 
-30 30 
-30 30 
-30 30 
-30 30 
-30 0 1644:1 1800:1 1827:1 1948:2 2010:1 
-30 30 
-30 30 
-1.571030197207075 2.000154038095307 197:1 1366:2 
-30 30 
-30 30 1366:2 
-30 30 
-30 0 1800:1 1948:2 
-30 30 
-30 30 
-9.795936883613171 30 1827:1 1829:1 2010:1 
-30 30 
-30 30 319:1 628:1 1745:1 2010:1 
-30 30 
-30 30 628:1 1800:1 2010:1 
-30 30 
-30 30 
-30 0 1948:4 
-30 30 
-18.67266548318067 0 1482:1 1948:4 
-30 30 
-30 30 
-30 0 663:1 796:1 1482:1 1745:1 1800:2 1948:2 
-30 30 
-30 30 
-30 30 
-30 30 1521:1 
-30 30 
-30 30 
-30 30 
-30 30 
-30 30 
-30 30 
-30 30 
-30 30 
-30 30 
-30 0 1948:4 
-30 30 
-30 30 
-30 0 1948:2 
-30 30 
-1.300253501534964 0 50:1 327:1 572:1 1359:1 1366:2 1596:1 1948:2 2010:1 
-30 30 
-30 30 1359:1 1366:2 1745:1 2010:1 
-30 30 
-30 30 
-30 0 1948:2 
-30 30 
-30 30 1366:2 
-30 30 
-30 0 1948:2 
-30 30 
-30 30 
-30 30 
-30 30 
-30 30 
-30 30 
-30 30 
-30 30 
-30 30 
-30 30 
-30 30 
-30 30 
-30 30 
-30 30 
-30 30 
-30 30 
-30 30 
-30 30 
-30 0 327:1 1009:1 1931:1 1948:2 
-30 30 
-30 30 
-30 30 
-30 30 
-30 30 
-30 30 
-30 30 352:1 876:1 1009:2 1366:2 1827:2 
-30 30 
-30 30 
-30 30 
-30 30 
-30 30 
-30 30 
-30 30 
-30 30 
-30 30 
-30 30 
-30 30 
-30 30 
-30 30 
-30 30 
-30 30 2010:1 
-30 30 
-30 30 
-30 30 
-30 30 
-30 30 
-30 30 
-30 30 
-30 30 
-30 30 
-30 30 
-30 30 
-30 30 
-30 30 
-30 30 
-30 30 
-30 30 
-30 30 
-30 30 
-30 30 
-30 30 
-30 30 
-30 0 1948:2 
-30 30 
-30 30 
-30 30 
-30 30 
-30 30 
-30 30 
-30 30 
-30 30 
-30 30 
-30 30 
-30 30 
-30 30 2010:1 
-30 30 
-30 30 1366:2 1657:2 1812:1 2010:1 
-30 30 
-30 30 
-26.95040608440729 30 1954:1 2010:2 
-30 30 
-30 30 
-30 30 
-30 30 
-30 30 
-30 0 796:1 1359:1 1366:4 1691:1 1745:1 1827:1 1886:1 1948:4 
-30 30 
-30 30 
-30 0 1359:1 1827:1 1948:2 2010:1 
-30 30 
-30 30 
-30 0 1335:1 1948:2 
-30 30 
-30 30 
-30 30 
-30 30 
-30 0 24:1 796:1 1827:1 1948:2 1965:3 2000:1 2010:2 
-30 30 
-30 30 
-30 30 
-30 30 
-30 30 
-30 30 
-30 30 
-30 30 
-30 30 
-30 30 
-30 30 
-30 30 796:1 1800:1 1883:1 
-30 30 
-30 30 
-30 30 
-30 30 
-30 30 
-30 30 
-30 30 
-30 30 
-30 30 
-30 30 
-30 30 
-22.88960309297799 0 1931:1 1948:2 
-30 30 
-30 30 1319:1 
-30 30 
-0 1.606648966536918 319:1 628:1 1780:1 1932:1 1987:1 2000:1 
-30 30 
-30 30 
-30 30 
-30 30 
-30 30 
-30 30 
-30 30 
-30 30 
-30 30 
-30 30 
-30 30 
-30 30 
-30 30 
-30 30 
-30 30 
-30 30 
-30 30 
-30 30 
-30 30 
-30 30 
-30 30 
-30 30 
-30 30 
-30 30 
-30 0 1319:1 1948:2 
-30 30 
-30 30 
-30 30 
-30 30 
-30 30 
-30 30 
-0.6206312183805222 0 24:1 111:1 956:2 1359:2 1800:1 1948:2 1965:1 2010:1 
-30 30 
-30 30 
-30 30 
-30 30 
-30 0 1948:2 2010:1 
-30 30 
-30 30 
-30 0 1948:2 
-30 30 
-30 30 
-30 30 
-30 30 
-30 30 1883:2 
-30 30 
-3.654807287003501 2.000155084287508 120:1 1366:2 1572:1 1827:2 
-30 30 
-30 30 
-30 30 
-30 30 
-30 30 
-2.490360005072863 2 828:1 
-30 30 
-30 30 
-30 30 
-30 30 
-30 30 
-30 30 
-30 30 
-30 30 
-30 30 
-30 30 
-30 30 
-30 30 
-30 30 
-30 30 
-30 30 
-30 30 
-30 30 
-30 30 796:2 1366:4 1954:1 
-30 30 
-30 30 
-30 30 
-30 0 1319:2 1948:4 
-30 30 
-30 30 
-30 30 
-30 30 
-30 0 1948:2 
-30 30 
-30 30 
-30 30 
-30 30 
-30 30 
-30 30 
-30 30 
-30 30 
-30 30 
-30 30 
-30 30 
-30 30 
-30 30 
-30 30 
-30 30 
-30 30 
-30 30 
-30 30 
-30 30 
-30 30 
-30 30 
-30 30 
-30 30 
-30 0 796:1 1800:1 1886:2 1931:1 1948:6 2010:1 
-30 30 
-28.77380578091191 0 838:1 1354:1 1366:2 1477:1 1800:2 1827:1 1943:1 1948:4 2000:1 2010:2 2011:1 
-30 30 
-30 30 
-30 30 
-30 30 
-9.198720280516122 0 698:1 1202:3 1230:1 1326:2 1354:3 1366:2 1394:1 1717:1 1748:3 1780:2 1800:2 1812:1 1887:1 1892:1 1948:4 1954:1 1990:1 2030:1 2043:1 
-30 30 
-30 30 
-30 30 
-30 30 
-30 30 
-30 30 
-30 28.49080503655508 1319:1 1366:2 2010:2 
-30 30 
-30 30 
-30 30 2010:1 
-30 30 
-30 30 
-30 30 
-30 30 
-30 30 
-30 30 
-30 30 
-30 30 
-0 3.999761821854447 1696:1 1745:1 1800:1 2043:1 
-30 30 
-30 30 
-30 30 
-30 30 
-30 30 
-30 30 
-30 0 1948:2 
-30 30 
-30 30 
-30 0 1948:2 
-30 30 
-30 14.56059936982384 698:2 1800:1 2010:3 
-30 30 
-30 0 1948:2 
-30 30 
-30 30 
-30 30 
-30 30 
-30 30 
-30 30 
-30 30 
-30 30 
-30 0 1931:1 
-30 30 
-30 30 
-0 2 780:1 
-30 30 
-30 0 1477:1 1948:2 
-30 30 
-30 30 
-30 30 
-30 30 
-30 30 
-30 30 
-30 30 
-30 30 
-30 30 
-30 30 
-30 30 
-30 30 
-30 30 
-30 30 
-30 30 
-30 30 
-30 30 
-30 30 
-30 30 
-30 30 
-30 30 
-30 30 
-30 30 
-30 30 
-30 30 
-30 30 
-30 30 
-30 30 
-30 30 
-30 30 
-30 30 
-30 30 
-30 30 
-30 30 
-30 30 
-30 30 
-30 30 
-30 30 
-30 30 
-30 30 
-30 30 
-30 30 
-30 30 
-30 30 
-30 30 
-30 30 
-30 30 
-30 30 
-30 30 
-30 30 
-30 30 
-30 30 
-30 30 
-30 30 
-30 30 
-30 30 
-30 30 
-30 30 
-30 30 
-30 30 
-30 30 
-30 30 
-30 30 
-30 30 
-30 30 
-30 30 
-30 30 
-30 30 
-30 30 
-30 30 
-30 30 
-30 30 
-30 30 
-30 30 
-30 30 
-30 30 
-30 30 
-30 30 
-30 30 
-30 30 
-30 30 
-30 30 
-30 30 
-30 30 
-30 30 
-30 30 
-30 30 
-30 30 
-30 30 
-30 30 
-30 30 
-30 30 
-30 30 
-30 30 
-30 30 
-30 30 
-30 30 
-30 30 
-30 30 
-30 30 
-30 30 
-30 30 
-30 30 
-30 30 
-30 30 
-30 30 
-30 30 
-30 30 
-30 30 
-30 30 
-30 30 
-30 30 
-30 30 
-30 30 
-30 30 
-30 30 
-30 30 
-30 30 
-30 30 
-30 30 
-30 30 
-30 30 
-30 30 
-30 30 
-30 30 
-30 30 
-30 30 
-30 30 
-30 30 
-30 30 
-0 30 571:1 1954:1 
-30 30 
-30 30 
-30 30 
-30 30 
-30 8.402296740518697 1886:1 2000:1 2001:1 
-30 30 
-30 30 
-30 30 
-30 30 
-30 30 
-30 30 
-30 30 
-30 30 
-30 30 
-30 30 
-30 30 
-30 30 
-30 0 628:1 967:1 1931:1 
-30 30 
-30 30 
-30 30 
-30 30 
-30 30 
-30 30 
-30 30 
-30 0 1943:1 1948:4 
-30 30 
-1.907500819111017 0 1359:1 1886:1 1987:1 
-30 30 
-30 30 
-30 30 
-0.9877112081803593 0 83:1 236:1 1366:4 1931:1 1948:2 2010:1 
-30 30 
-30 30 
-30 30 
-30 30 
-30 30 
-30 30 
-30 30 
-8.838816934824138 0 1800:1 1836:1 1948:2 
-30 30 
-30 30 
-30 30 1827:1 
-30 30 
-30 30 1359:1 
-30 30 
-30 30 
-30 30 
-30 30 
-30 30 
-30 30 
-30 30 
-30 30 
-30 30 
-30 30 
-30 30 
-30 30 
-30 30 
-30 30 
-30 30 
-30 30 
-30 30 
-30 30 
-30 30 
-30 30 
-30 30 
-30 30 
-30 30 
-30 30 
-30 30 
-30 30 
-30 30 
-30 30 
-30 30 
-30 30 
-30 30 
-0 0.5000995747223278 838:1 1535:2 1883:1 
-30 30 
-30 30 
-30 30 
-30 30 
-30 30 
-30 0 1366:2 1948:4 
-30 30 
-0 2 2039:1 
-30 30 
-30 30 
-30 30 
-30 30 
-30 30 
-30 30 
-30 30 
-30 30 
-30 30 
-30 30 
-30 30 
-29.77545722912615 2 514:1 
-30 30 
-17.0671171259585 0 107:1 796:1 1009:1 1366:2 1931:1 1948:2 
-30 30 
-30 30 
-30 30 
-30 30 
-30 0 1800:1 1812:1 1886:1 1948:2 
-30 30 
-30 30 
-30 30 
-30 30 
-30 30 
-30 30 
-30 30 
-30 30 
-30 30 
-30 30 
-30 30 
-30 30 
-30 30 
-7.571971363057145 0 103:1 
-30 30 
-30 0 1948:2 2010:1 
-30 30 
-30 30 
-30 0.2713956228239418 24:1 126:1 319:1 516:1 968:1 1745:1 1948:2 
-30 30 
-20.22479906921979 2 1989:1 
-30 30 
-30 30 
-30 0 1359:1 1366:4 1931:1 1948:4 2000:1 
-30 30 
-30 0 1931:1 1948:2 
-30 30 
-30 30 
-30 30 
-30 30 
-30 30 
-30 30 
-30 30 
-30 0 796:1 1202:2 1800:2 1892:1 1948:2 
-30 30 
-30 30 
-30 30 
-30 0 796:1 1359:1 1943:1 1948:6 2000:1 
-30 30 
-30 30 
-30 30 
-30 30 
-30 30 1781:1 1968:1 
-30 30 
-30 30 
-30 30 
-30 30 
-30 30 
-30 30 1319:1 1366:2 1827:3 
-30 30 
-30 0 1948:2 1965:1 
-30 30 
-2.576812102910529 0 133:1 455:1 1366:2 1931:2 
-30 30 
-30 30 
-30 30 1366:2 
-30 30 
-30 30 
-30 30 
-30 30 
-30 30 
-30 30 
-30 30 
-30 30 
-30 0 1948:2 
-30 30 
-30 30 
-30 30 
-30 30 
-30 30 
-30 30 
-30 30 
-30 30 
-30 30 
-30 30 
-30 30 
-30 30 
-30 30 
-30 30 
-30 30 
-30 30 
-30 30 
-30 30 
-30 30 
-30 30 
-30 30 
-30 30 
-30 30 
-30 30 1566:1 1657:1 2012:1 
-30 30 
-30 30 
-30 30 
-30 30 
-30 30 
-30 30 
-30 30 
-30 30 
-1.459673819263706 0 383:2 698:1 758:1 796:1 871:1 1351:1 1359:1 1366:2 1717:1 1781:1 1800:1 1883:3 1886:1 1931:7 1948:2 
-30 30 
-30 30 
-30 30 
-0.7255317962975614 0 698:2 876:1 1886:2 1931:1 1948:4 1952:1 
-30 30 
-30 30 
-30 30 
-30 30 
-30 30 
-30 30 
-30 30 
-30 30 
-30 0 1363:1 1800:1 1948:2 2000:1 
-30 30 
-30 30 
-30 30 
-30 30 
-30 30 
-30 30 
-30 30 
-30 30 
-30 30 
-30 30 
-30 30 
-30 30 
-30 30 
-30 30 
-30 30 
-30 30 
-30 30 
-30 30 
-30 30 
-30 0 1800:1 1948:2 
-30 30 
-30 0 1202:1 1948:4 
-30 30 
-30 30 
-30 30 
-30 30 
-30 30 
-30 30 
-30 30 
-30 30 
-30 28.43738886250416 1886:1 
-30 30 
-30 30 
-30 30 
-30 30 
-30 30 
-30 30 
-30 30 
-30 30 
-30 30 
-30 30 
-30 30 
-30 30 
-30 30 
-30 30 
-30 30 
-0 0.2635647656287101 956:2 
-30 30 
-30 30 
-30 30 
-30 30 
-30 30 
-2.055808729152092 0 327:1 628:1 698:1 1030:1 1319:1 1359:2 1366:4 1827:1 1948:6 
-30 30 
-30 30 
-30 30 
-30 30 
-30 30 
-30 30 
-30 30 
-30 30 
-30 30 
-30 30 
-30 30 796:1 
-30 30 
-30 30 
-30 30 
-30 30 1319:1 
-30 30 
-30 0 1354:1 1948:4 2000:1 
-30 30 
-30 30 
-30 30 
-30 30 
-30 30 
-30 30 
-30 30 
-30 30 
-30 30 
-30 30 
-30 30 
-30 30 
-30 30 
-30 30 
-30 30 
-30 30 
-30 0 698:3 796:2 1366:2 1812:1 1948:2 1954:1 
-30 30 
-30 30 
-30 0 1800:1 1948:2 2012:1 
-30 30 
-30 30 
-30 30 
-30 30 
-30 30 
-30 30 
-30 30 
-30 30 
-30 30 
-30 30 
-30 30 
-30 30 
-30 30 698:1 1319:1 
-30 30 
-30 0 572:1 1812:1 1827:2 1948:2 
-30 30 
-30 30 
-30 30 
-30 30 1800:1 1883:1 
-30 30 
-30 30 
-30 30 
-30 30 
-30 30 
-30 30 
-30 30 
-30 30 
-30 30 
-30 30 
-30 30 
-30 30 
-30 30 
-30 30 
-30 30 
-30 30 
-30 30 
-30 30 
-30 30 
-30 30 
-30 30 
-30 30 
-30 30 
-30 30 
-30 30 
-30 30 
-30 30 
-30 30 
-30 30 
-30 30 
-30 30 
-30 30 
-30 30 
-30 30 
-30 30 
-30 30 
-30 30 
-30 30 
-30 30 
-30 30 
-30 30 
-30 30 
-30 30 
-30 30 
-30 30 
-30 30 
-30 30 
-30 30 
-30 30 
-30 30 
-30 30 
-30 30 
-30 30 
-30 30 
-30 30 
-30 30 
-30 30 
-30 30 
-30 30 
-30 30 
-30 30 
-30 30 
-30 30 
-30 30 
-30 30 
-30 30 
-30 30 
-30 30 
-30 30 
-30 30 
-30 30 
-30 30 
-30 30 
-30 30 
-30 30 
-30 30 
-30 30 
-30 30 
-30 30 
-30 30 
-30 30 
-30 30 
-30 30 
-30 30 
-30 30 
-30 30 
-30 30 
-30 30 
-30 30 
-30 30 
-30 30 
-30 30 
-30 30 
-30 30 
-30 30 
-30 30 
-30 30 
-30 30 
-30 30 
-30 30 
-30 30 
-30 30 
-30 30 
-30 30 
-30 30 
-30 30 
-30 30 
-30 30 
-30 0 1931:1 
-30 30 
-30 30 
-30 30 
-30 30 
-30 30 
-30 30 
-30 30 
-30 30 
-30 30 
-30 30 
-30 30 
-30 30 
-30 30 
-30 30 
-30 30 
-30 30 
-30 30 
-30 30 
-30 30 
-30 30 
-0 0.2365710060092427 956:2 
-30 30 
-30 30 
-30 30 
-30 30 
-30 30 
-30 30 1366:2 
-30 30 
-30 30 
-30 30 
-30 0 1319:1 1366:4 1948:6 2010:3 
-30 30 
-30 30 
-30 30 
-30 30 
-30 30 
-30 30 
-30 30 
-30 30 
-30 30 
-0 2 2037:1 
-30 30 
-30 30 
-30 30 
-30 30 
-30 30 
-30 30 
-0.7349765901758113 0 1547:1 1931:1 1948:2 1966:2 2010:1 
-30 30 
-30 30 
-30 0 1931:1 1948:2 
-30 30 
-30 30 
-30 30 796:1 1827:1 
-30 30 
-30 30 
-30 30 
-30 30 
-30 30 
-30 30 
-30 30 
-30 30 
-30 30 
-30 30 
-30 30 
-30 30 
-30 30 1800:1 1932:1 
-30 30 
-30 30 
-30 0 761:1 1800:3 1827:1 1948:4 
-30 30 
-30 0 761:1 1948:4 
-30 30 
-30 30 
-30 30 
-30 0 1827:1 1931:1 
-30 30 
-30 30 
-30 30 
-30 30 
-30 30 
-30 30 
-30 30 
-30 30 
-30 30 
-30 30 
-30 30 
-30 30 
-30 30 
-30 30 
-30 30 
-30 30 
-30 30 
-30 30 
-30 30 
-30 30 
-30 30 796:1 1485:1 1827:1 2010:1 
-30 30 
-19.71721834072804 0 663:1 796:1 1354:1 1366:2 1394:1 1535:2 1827:3 1883:1 1931:2 1948:10 2010:2 
-30 30 
-30 0 796:1 1800:1 1827:1 1948:2 
-30 30 
-30 30 
-0.8525168393245642 2 520:1 
-30 30 
-30 0 1359:1 1948:2 
-30 30 
-30 30 
-30 30 
-30 30 
-30 30 
-30 30 
-30 30 
-30 30 
-30 30 
-30 30 
-30 30 
-30 30 
-30 30 
-30 30 
-30 30 
-30 30 
-30 30 
-30 30 
-30 30 1800:1 
-30 30 
-30 30 
-30 30 
-30 30 
-30 30 
-30 30 
-30 30 
-30 30 
-30 30 
-30 30 
-30 30 
-30 30 
-30 30 
-30 30 
-30 30 
-30 30 
-30 30 
-30 30 
-30 30 
-30 30 
-30 30 
-30 30 
-30 30 
-30 0 1948:2 
-30 30 
-30 30 
-30 30 
-30 30 
-30 30 
-30 30 
-30 30 
-30 30 876:1 1745:1 1812:1 1827:1 
-30 30 
-30 30 
-30 30 
-30 30 
-30 30 
-30 1.501459142921091 572:1 698:1 
-30 30 
-30 30 
-30 30 
-30 0 1931:1 
-30 30 
-30 30 
-30 30 
-30 30 
-30 30 
-30 30 
-30 30 
-30 30 
-30 30 1319:1 
-30 30 
-30 12.56206563150988 1366:2 1886:1 2001:1 
-30 30 
-30 0 1202:1 1359:1 1781:1 1931:1 1948:2 
-30 30 
-30 30 
-30 30 
-30 30 796:1 1424:1 1800:1 2000:1 
-30 30 
-23.28053463913185 2 103:1 
-30 30 
-30 30 
-30 30 
-30 30 1366:2 
-30 30 
-30 30 
-30 30 
-30 30 
-30 30 
-0 1.00156154156868 2012:1 2030:1 
-30 30 
-30 30 
-30 30 
-30 30 
-30 30 
-30 30 
-30 30 
-30 30 
-30 30 
-30 30 
-30 30 
-30 30 
-30 30 
-30 30 
-30 30 
-30 30 
-30 30 
-13.40488284058663 0 327:1 1359:1 1495:1 1566:1 1931:3 1948:4 
-30 30 
-30 30 
-30 30 
-30 30 
-30 30 
-30 30 
-30 30 
-30 30 
-30 30 
-30 0 1948:2 
-30 30 
-30 30 1319:1 
-30 30 
-30 30 
-30 30 
-30 30 
-30 30 
-30 30 
-30 30 
-30 0 1800:1 1948:2 
-30 30 
-30 30 
-30 30 1960:1 
-30 30 
-30 30 
-30 30 1366:2 
-30 30 
-1.391002329938237 0 2010:1 2037:1 
-30 30 
-30 30 
-30 30 
-30 30 
-30 30 
-30 30 
-30 30 
-30 30 
-30 30 
-30 30 
-30 30 
-30 30 
-30 30 
-30 30 
-30 30 
-30 30 
-30 30 
-30 30 
-30 30 
-30 30 
-30 30 
-30 30 796:1 
-30 30 
-30 30 
-30 30 
-30 30 1319:1 
-30 30 
-30 0 1354:1 1948:4 2000:1 
-30 30 
-30 30 
-30 30 
-30 0 1948:2 
-30 30 
-30 30 
-30 30 
-2.349129594126734 0 796:1 1366:2 1529:1 1800:1 1887:1 1948:8 
-30 30 
-30 30 
-30 30 
-30 30 
-30 30 
-30 30 
-30 30 
-30 30 796:1 
-30 30 
-30 30 
-11.74399292404826 0 698:1 796:6 797:1 1359:1 1485:1 1800:2 1827:13 1883:1 1948:8 2010:2 
-30 30 
-30 0 1230:1 1359:1 1366:2 1948:4 2010:1 
-30 30 
-3.881213073820912 0 566:1 1319:1 1366:2 1423:1 1948:4 1962:1 2010:2 
-30 30 
-30 30 
-30 30 
-30 30 
-30 30 
-30 30 
-30 30 
-30 30 
-30 30 628:1 
-30 30 
-30 30 
-0.2425752897165729 0 572:1 876:2 1359:1 1485:1 1542:2 1779:1 1800:2 1827:1 1883:1 1931:1 1948:4 2000:1 2012:1 2014:1 
-30 30 
-30 30 
-30 30 
-30 30 
-30 30 
-30 30 
-30 30 
-0.0978530936428146 0 327:1 1521:1 1800:2 1948:4 
-30 30 
-30 30 
-30 30 
-30 30 
-30 0 1948:2 
-30 30 
-30 30 
-30 30 
-30 30 
-30 30 
-30 30 
-30 30 
-30 30 
-30 30 
-30 30 
-30 30 
-30 30 
-30 30 
-30 30 
-30 30 
-30 30 
-30 30 1800:1 1965:1 
-30 30 
-30 30 
-30 30 
-30 30 
-30 30 
-30 30 
-30 30 
-30 30 
-30 30 
-30 30 
-30 30 
-30 30 
-30 30 
-30 30 
-30 30 
-30 30 
-30 0 1366:2 1948:2 
-30 30 
-30 30 
-30 30 
-30 30 
-30 30 
-30 30 
-30 30 
-30 30 
-30 30 
-30 30 
-30 30 
-30 30 
-30 0 515:1 796:1 1359:2 1931:1 2010:1 
-30 30 
-30 30 
-30 30 
-30 30 
-30 30 
-30 30 
-30 30 
-30 30 
-30 30 
-30 30 
-30 30 
-30 30 
-30 30 
-30 30 
-1.390973201069719 1.499691181168944 534:1 2010:1 
-30 30 
-30 30 
-30 30 
-30 30 
-30 30 
-30 30 
-30 30 
-30 30 
-30 30 
-30 30 
-30 30 
-30 30 
-30 30 
-30 30 
-30 30 
-30 30 
-30 0 1366:2 1931:2 1948:2 2010:1 
-30 30 
-30 30 1319:1 
-30 30 
-30 30 
-30 30 
-30 30 
-30 30 
-30 0 876:1 1212:2 1366:4 1526:1 1931:1 2010:2 
-30 30 
-30 0 1644:1 1800:1 1827:1 1948:2 2010:1 
-30 30 
-30 30 
-30 30 
-30 0 572:1 796:1 1485:1 2010:1 
-30 30 
-30 30 
-30 30 
-30 0 1366:2 1948:2 
-30 30 
-30 30 
-30 30 
-30 30 
-30 30 
-30 30 
-30 30 
-8.001920267785573 -0 1526:2 1780:1 2010:2 2045:1 
-0 -0.04259229942937302 796:2 1341:1 1529:2 1610:2 2010:1 2045:1 
-0 -4.41578356642914 1495:5 2045:1 
-4.152824246213365 -0 1745:1 
-30 -0 1366:2 
-30 -0 1848:1 
-30 -0 1366:2 
-0 -30 1319:1 
-1.141453454438088 -0.03447282161522895 628:2 
-3.435503148260576 -0 1359:1 
-12.01903172662472 -0 1800:1 
-30 -0 1230:1 1366:2 1827:1 
-3.281901777023797 -0 1366:2 2002:1 
-30 -27.91565239186238 1319:1 1965:1 
-30 -3.083673206115106 1319:1 1965:1 
-30 -30 2010:1 
-0 -30 1932:2 
-30 -0 1366:2 
-28.49721497147717 -0 1366:2 
-1.652242482842595 -0 1883:1 
-30 -30 1485:1 2010:1 
-0 -4.576401368124663 1883:1 
-0 -20 1827:1 
-30 -30 2010:1 
-30 -0 1745:1 
-30 -1.761635862965318 1359:2 1827:1 
-14.4421710095752 -0 1366:2 
-0 -0.0004448614326992339 1780:1 1932:2 
-21.74699389955258 -0 1800:1 1827:1 
-23.89085174244214 -30 1745:1 1954:1 
-6.351888398634857 -0 796:1 1800:1 
-13.80104178412747 -0 1354:1 
-30 -1.355300041344829 1366:2 1800:1 
-8.12938178050439 -0 1812:1 
-0 -17.17895489133653 1566:1 1932:1 
-30 -0 1287:1 1812:1 1827:1 2000:1 
-4.065000728035146 -0 1287:1 1644:1 2001:1 
-30 -0 796:1 1202:1 
-0 -30 1423:1 1932:1 
-2.001479497781281 -0 796:1 1366:2 1411:1 1529:1 
-2.501351539077145 -0 1366:2 
-0 -0.4358565376368033 1572:1 1745:1 
-30 -30 1366:2 1745:1 2010:1 
-30 -30 628:1 1366:2 2000:1 
-16.1637013800437 -0 1366:2 
-7.63872076073372 -4.256382039823599 352:1 1566:1 
-29.49889646141508 -0 1748:1 
-2.110645632115258 -0 1800:1 1827:1 
-30 -30 1366:2 2010:1 
-0 -0.2080893775961766 796:1 
-0 -30 796:1 
-0 -0.6670167635713968 1748:1 1932:1 
-0 -30 1877:1 
-0 -30 796:1 
-2.144372074536852 -0 1827:1 
-0 -29.99977302901214 1877:1 
-0 -30 1653:1 
-0 -3.498602512701425 1319:1 1683:1 
-0 -12.64138554374308 796:1 
-30 -20.63203886090438 24:1 1366:2 
-1.998918918942242 -30 1800:3 1886:1 1952:1 
-28.46503891884808 -19.46089718482707 1883:1 
-30 -30 1812:1 2010:1 
-30 -30 1800:1 1886:1 2010:1 
-30 -0.03874770182146266 796:1 1202:1 
-30 -30 2010:1 
-30 -30 796:1 1745:1 
-0 -30 1932:2 
-12.12678152512805 -0.5456075771758406 796:1 1359:1 
-29.9996506867124 -0 1904:1 
-11.36806676598759 -6.334183080479595 1566:1 1800:1 
-22.82633415358442 -1.465582860270321 352:1 1359:1 
-30 -30 1319:1 
-1.550372023704651 -0 1366:2 
-0 -0.0002906201139597133 628:2 1359:1 1411:1 1419:1 1529:1 1932:4 2040:1 
-30 -30 1319:1 
-29.53467216213069 -2.710513610245234 352:1 
-17.81278634936366 -0.000532866534671772 796:1 1780:1 
-6.109080044320086 -10.09312430372261 1954:1 
-30 -0 1366:2 1800:1 
-30 -0 1432:1 1485:1 1745:1 
-30 -0 1892:1 
-30 -0 1691:1 
-17.0071922363647 -29.62445471940983 1366:2 1566:1 
-30 -30 1319:1 1827:1 
-4.651970833662457 -30 1319:1 
-30 -30 1319:1 
-0 -1.526541484855059 1800:1 1932:1 
-30 -0 24:1 
-3.2819075913836 -0 1892:1 
-5.677001253367925 -1.611733284298786 24:1 
-30 -30 1009:1 1366:2 2010:1 
-9.030025430483732 -0 24:1 1432:1 1485:1 
-0.0228727997257336 -0 1009:1 1812:1 
-0.1822921681869128 -0 1009:2 1812:1 
-0.001881428850057968 -0 805:1 1069:1 1800:2 1827:2 
-30 -30 876:1 1319:1 1657:1 1827:2 
-7.998817320404427 -1.564370867240415 1366:2 1572:1 1604:1 2010:1 
-30 -0 1353:1 
-0.6655758811232071 -0 1353:1 1432:1 1485:1 1745:1 1960:1 
-30 -0 1717:1 
-30 -0 1758:1 
-5.280920365640393 -30 1319:1 
-30 -30 1319:1 1800:1 
-1.293001653301335 -0 1800:1 
-4.665988211746029 -0 1812:1 
-0.5130147435078949 -0 1366:2 
-0 -30 1827:1 1932:1 
-3.981722236177356 -0 1432:1 1485:1 
-0 -30 1932:1 
-16.54382002862004 -0 1812:1 
-0 -1.421028115377326 1529:1 1932:1 
-30 -17.84432188873366 2000:1 
-27.14303559468634 -30 1319:1 
-30 -0 2022:1 
-10.02946501454364 -0 1529:1 
-0.08697495481936719 -0 1366:2 
-11.05930887911481 -12.63449694351128 1423:1 1800:1 
-0.0005186971588112035 -0 243:1 1781:1 
-30 -0 1366:2 
-20.9827048514086 -30 1319:1 
-0 -30 1932:1 
-1.092300596191105 -0 876:1 
-0 -30 1932:1 
-0.1954348260364362 -0 1800:1 
-1.689840851203752 -0 1529:1 
-21.13131523534676 -0 1812:1 
-0 -30 1932:1 
-0 -0.7348210396943173 1827:1 
-30 -30 2010:1 
-0 -30 1827:1 
-30 -30 1883:1 
-30 -30 796:1 1366:2 1485:1 2010:1 
-0 -30 1827:1 
-30 -0 1366:2 
-30 -30 2010:1 
-0.3926867340017537 -24.54981876566948 1827:2 
-30 -0 1366:2 
-30 -0 1366:2 
-29.99987957105986 -30 572:1 
-30 -0 1366:2 1780:1 
-0.01695490125041599 -30 1827:1 
-30 -0 1366:2 
-30 -0 1929:1 
-0 -30 1932:1 
-10.81189266772826 -0 796:1 1800:1 
-13.95549194786832 -1.931132594652727 876:1 1800:1 
-0 -30 1657:1 1932:1 
-30 -30 2010:1 
-30 -30 1319:1 1366:2 1800:1 
-30 -30 1745:1 1932:1 1933:1 
-0 -29.87252451054375 1657:1 
-30 -3.083425050228828 1359:2 1366:2 
-0 -30 796:1 1359:1 1800:1 1932:2 
-30 -12.92243978473493 1745:1 
-30 -30 1319:1 
-30 -29.91777738555125 838:1 1202:1 
-0 -30 1932:1 
-30 -30 698:1 
-4.158694647347497 -19.26389026024332 628:1 818:1 1009:1 
-0 -18.76425992843826 1954:1 
-30 -29.99447766580135 1366:2 1827:2 
-30 -30 1812:1 2010:1 
-9.723791587092997 -0 
-30 -0 
-30 -0 
-30 -0 
-30 -0 
-30 -0 
-30 -0 
-30 -0 
-30 -0 
-0 -30 1827:1 
-30 -0 
-30 -0 
-30 -0 
-30 -0 
-30 -0 
-30 -0 
-30 -0 
-30 -0 
-30 -30 796:1 1812:1 2010:1 
-30 -0 
-30 -30 2000:1 2010:1 
-30 -0 
-1.999659197866438 -0.5003978914855089 1936:1 2010:1 
-30 -0 
-30 -0 
-30 -0 
-30 -0 
-7.662151031248664 -17.0600933583053 628:1 
-30 -0 
-30 -0 
-30 -0 
-30 -0 
-26.65284346360298 -0 1800:2 
-30 -0 
-30 -6.393438210415084 515:1 2010:1 
-30 -0 
-30 -0 
-30 -30 1610:1 
-30 -0 
-0 -18.70106219072773 796:1 1800:1 
-30 -0 
-30 -0 1529:1 1781:1 1800:1 1965:1 
-30 -0 
-30 -30 1359:1 1366:2 1529:1 1883:2 
-30 -0 
-30 -0 
-30 -0 
-30 -0 
-30 -0 
-30 -0 
-30 -0.04343541835304058 1202:1 1359:2 
-30 -0 
-30 -30 1366:2 1827:1 2010:1 
-30 -0 
-30 -0 
-30 -0 
-30 -10.40279566208853 
-30 -30 
-30 -30 
-30 -30 
-0 -30 1827:1 
-30 -30 
-30 -30 
-30 -30 
-30 -30 2010:1 
-30 -30 
-30 -30 
-30 -30 
-30 -30 
-30 -30 
-30 -30 
-30 -30 
-30 -30 
-30 -30 
-30 -30 
-30 -30 
-0 -2.355510824771804 1566:1 
-30 -30 
-30 -30 
-18.66327733246707 -0 1745:1 
-30 -30 
-30 -30 
-30 -30 
-0 -30 1800:1 1932:1 
-30 -30 
-30 -6.165325208255254 1529:1 1745:1 
-30 -30 
-0 -18.01296076780748 1529:1 1932:1 
-30 -30 
-30 -30 
-30 -30 
-0 -30 1932:1 
-30 -30 
-27.05941487918368 -0 876:1 1604:1 1800:1 
-30 -30 
-30 -30 
-30 -30 
-30 -30 
-0 -30 1745:1 1932:1 
-30 -30 
-30 -30 
-30 -30 
-30 -30 
-30 -30 
-30 -30 
-30 -30 
-30 -30 
-30 -30 
-0 -0.6262015316071499 1009:1 
-30 -30 
-0 -30 1366:2 
-30 -30 
-28.36455297904642 -0 796:1 1354:1 
-30 -30 
-30 -30 
-30 -30 
-30 -30 
-30 -30 
-0 -30 1366:2 1745:1 1932:1 
-30 -30 
-30 -30 
-0 -30 1800:1 1932:1 
-30 -30 
-30 -30 
-30 -30 
-30 -30 
-30 -30 
-30 -2.05725667156685 1366:2 1800:1 
-30 -0 
-30 -30 
-30 -30 
-30 -30 
-30 -30 
-30 -30 
-30 -30 
-30 -30 
-30 -30 
-30 -30 
-30 -30 
-30 -30 
-30 -30 
-0 -10.72727272727243 1932:1 
-30 -30 
-30 -30 
-30 -30 
-30 -30 
-30 -30 
-30 -30 
-30 -30 
-30 -30 698:1 
-30 -10.86427418705572 
-30 -30 
-30 -30 
-30 -30 
-30 -10.13216277915299 1359:1 1366:2 
-30 -30 
-30 -30 
-30 -30 
-30 -30 
-30 -30 
-30 -30 
-0 -8.947977392206491 1366:2 1932:1 
-30 -30 
-30 -30 
-30 -30 
-30 -30 
-30 -30 
-0 -16.76584000632522 2001:1 
-30 -30 
-30 -30 
-30 -30 
-30 -30 
-30 -30 
-30 -30 
-30 -30 
-30 -30 
-30 -30 
-30 -30 
-30 -30 
-30 -8.493223572859463 
-30 -30 
-30 -30 
-30 -30 
-30 -30 
-30 -30 
-30 -30 
-30 -30 
-30 -30 
-30 -30 
-30 -30 
-30 -30 
-30 -30 
-30 -30 
-30 -30 
-30 -30 
-30 -0 1604:1 1781:1 
-30 -30 
-30 -30 
-30 -30 
-30 -30 
-30 -30 
-30 -30 
-30 -30 
-30 -30 
-0 -30 1932:1 
-30 -30 
-30 -30 
-30 -30 
-0 -30 1366:2 
-30 -30 
-30 -30 
-30 -30 
-30 -30 
-30 -30 
-0 -30 1932:1 
-30 -30 
-0 -30 1657:1 
-30 -30 
-30 -30 1319:1 
-30 -30 
-30 -30 
-30 -30 
-0 -30 1366:2 
-30 -30 
-30 -30 
-30 -30 
-30 -30 
-30 -30 
-30 -30 
-30 -30 
-30 -30 
-30 -30 
-0 -30 1366:2 
-30 -30 
-30 -30 
-30 -30 
-30 -30 
-30 -30 
-30 -30 
-30 -30 
-30 -30 
-30 -30 
-19.81581955268321 -13.32207411878223 1009:1 
-30 -30 
-30 -30 
-30 -30 
-30 -30 
-30 -30 1009:1 1800:1 2010:1 
-30 -30 
-30 -30 1800:1 1886:1 
-30 -30 
-30 -30 
-30 -30 
-30 -30 
-30 -30 
-30 -30 
-30 -30 
-30 -30 
-30 -30 
-30 -30 
-0 -30 1366:2 
-30 -30 
-30 -30 
-30 -30 
-30 -30 
-30 -30 
-30 -30 
-30 -30 
-30 -30 
-30 -30 
-30 -30 
-0 -9.455450311659003 1366:2 1932:1 
-30 -30 
-30 -30 1009:1 
-30 -30 
-30 -30 
-30 -30 
-30 -30 
-30 -30 
-30 -30 
-30 -30 
-30 -30 
-30 -30 
-30 -30 
-0 -30 1366:2 
-30 -30 
-30 -30 
-30 -30 
-0 -1.142615767839132 1954:1 
-30 -30 
-0 -30 1366:2 
-30 -30 
-30 -30 
-30 -30 
-30 -30 
-30 -30 
-0 -30 796:1 
-30 -0 
-30 -30 796:1 1366:4 1800:1 
-30 -30 
-30 -30 
-30 -30 
-30 -30 
-30 -30 
-30 -30 
-30 -30 
-30 -30 
-30 -30 
-30 -30 
-30 -22.67547103840996 
-30 -30 
-30 -30 
-30 -30 
-30 -30 
-30 -15.82628422480252 
-30 -30 
-30 -30 
-30 -30 
-30 -30 
-30 -30 
-30 -30 
-30 -30 
-30 -30 
-30 -0 
-30 -30 
-30 -30 
-30 -30 
-30 -30 
-30 -30 
-30 -30 
-30 -30 
-30 -30 
-30 -30 
-30 -30 
-30 -30 
-30 -0 1965:1 
-30 -30 
-30 -30 
-30 -30 
-30 -30 
-30 -30 
-0 -30 1932:1 
-30 -30 
-30 -30 
-30 -30 
-30 -17.15226067616095 876:1 1366:2 
-30 -30 
-18.5001071444809 -0 876:1 1812:1 
-30 -30 
-30 -30 
-30 -30 
-30 -30 
-30 -30 
-3.579317935510976 -30 796:1 1827:1 
-30 -30 
-1.999588433149136 -0.5002526090613048 482:1 2010:1 
-30 -30 
-30 -30 
-30 -30 
-30 -30 
-30 -30 
-30 -30 
-30 -30 
-30 -30 
-30 -30 
-0 -8.075529562774021 1366:2 1932:1 
-30 -30 
-30 -30 
-30 -30 
-2.062977074568377 -0 796:1 1800:1 
-30 -30 
-30 -0 1366:2 1800:1 
-30 -30 
-30 -30 
-30 -30 
-30 -30 1366:2 1943:1 
-30 -30 
-30 -30 
-30 -30 
-0 -21.56727037064647 352:1 1932:1 
-30 -30 
-30 -30 
-30 -30 
-30 -30 
-30 -30 
-30 -30 
-30 -30 
-30 -30 
-30 -30 
-30 -30 
-30 -30 
-30 -30 
-30 -30 
-30 -30 
-30 -30 
-30 -30 
-30 -30 
-30 -30 
-30 -30 
-30 -30 
-30 -30 
-30 -30 
-30 -30 
-30 -30 
-30 -21.21200273676989 
-30 -30 
-30 -30 
-30 -30 
-24.68884076891481 -20.09348989327613 1883:1 
-30 -30 
-30 -30 
-30 -30 
-30 -30 
-30 -30 
-30 -30 
-30 -30 
-30 -30 
-30 -30 1319:1 
-30 -30 
-30 -30 
-30 -30 
-30 -30 
-30 -30 
-30 -30 
-30 -30 
-30 -30 
-30 -30 
-30 -30 
-30 -30 
-30 -30 
-30 -30 
-30 -30 
-30 -3.020134223366169 
-30 -0 
-30 -0 
-30 -30 
-30 -30 
-30 -30 
-30 -30 
-30 -30 
-30 -30 
-30 -30 
-30 -30 
-30 -30 
-30 -30 
-30 -30 
-30 -30 
-30 -30 
-30 -30 
-30 -30 
-30 -30 
-30 -30 
-30 -30 
-30 -30 
-30 -30 
-30 -30 
-30 -30 
-30 -30 
-30 -30 
-30 -30 2010:1 
-30 -30 
-0 -30 1745:1 1800:1 1827:1 1932:2 
-30 -30 
-2.102584908683725 -0 1827:1 
-30 -30 
-30 -30 
-30 -30 
-30 -30 
-30 -30 
-30 -30 
-0 -30 1359:1 1366:2 1932:1 
-30 -30 
-0 -30 1529:1 1745:1 1800:1 1932:1 
-30 -30 
-30 -30 
-30 -30 
-30 -30 
-30 -30 
-30 -30 
-30 -30 
-30 -30 
-30 -30 
-30 -30 
-30 -30 
-30 -30 
-30 -30 
-30 -30 
-30 -30 
-30 -30 
-30 -30 
-30 -30 
-30 -30 
-0 -30 796:1 1932:1 
-30 -30 
-30 -30 
-30 -30 
-30 -30 
-30 -30 1319:1 2012:1 
-30 -30 
-30 -30 
-30 -30 
-30 -0 1359:1 2022:1 
-30 -30 
-14.22702030602619 -0 1529:1 
-30 -30 
-30 -30 
-30 -30 
-30 -0 1800:2 
-30 -30 
-30 -0 1812:1 1827:1 
-30 -30 
-30 -30 
-30 -30 
-30 -30 
-30 -30 
-30 -30 
-0 -30 1745:1 1932:1 
-30 -30 
-30 -30 
-30 -30 
-30 -30 
-30 -30 
-30 -30 
-30 -30 
-30 -30 
-30 -30 
-30 -30 
-30 -30 
-30 -30 
-0 -30 796:1 1932:1 
-30 -30 
-30 -30 
-30 -30 
-30 -1.998837458092998 1717:1 
-30 -30 
-30 -30 
-30 -30 
-30 -30 
-30 -30 
-30 -30 
-30 -0 
-30 -30 
-30 -19.125 
-30 -30 
-30 -30 1319:1 
-30 -30 
-30 -30 
-30 -30 
-30 -30 
-30 -30 
-30 -30 
-30 -30 
-30 -30 
-30 -30 
-30 -30 
-30 -30 
-30 -30 
-30 -30 
-30 -30 
-30 -30 
-30 -30 
-30 -30 
-30 -30 
-30 -30 
-30 -19.39981599474635 
-30 -30 
-30 -30 
-30 -30 
-0 -25.11220050939357 1359:1 1932:2 
-30 -30 
-30 -30 1319:1 1780:1 
-30 -30 
-30 -30 
-30 -30 
-30 -30 
-30 -30 
-30 -30 
-30 -30 
-30 -1.713876762829285 2000:1 
-30 -30 
-30 -30 
-30 -30 
-30 -30 1485:1 1812:1 2010:1 
-30 -30 
-30 -30 
-0 -2.945307744817524 1800:1 1932:1 
-30 -30 
-30 -30 
-30 -30 
-30 -30 
-30 -30 
-30 -30 
-30 -30 
-30 -0 1366:2 
-30 -30 
-30 -30 
-30 -30 
-30 -0 1366:2 
-30 -30 
-30 -30 
-30 -30 
-30 -30 
-30 -30 
-30 -30 
-30 -30 
-30 -30 
-30 -30 
-30 -30 
-0 -2.039999999999999 1932:1 
-30 -30 
-30 -30 
-30 -30 
-30 -0 2022:1 
-30 -30 
-30 -30 
-30 -30 
-30 -30 
-30 -30 
-30 -30 
-30 -30 
-30 -30 
-30 -30 
-30 -30 
-0 -30 1932:2 
-30 -30 
-30 -30 
-30 -30 
-30 -30 
-30 -30 
-30 -30 
-30 -0 1366:2 
-30 -30 
-30 -30 
-30 -30 
-30 -30 
-30 -30 
-30 -30 
-30 -30 
-30 -0 1366:2 
-30 -30 
-30 -30 
-30 -30 
-30 -30 
-30 -30 
-30 -30 
-30 -30 
-2.082199857150507 -30 1366:2 1423:1 
-30 -30 
-30 -30 1800:2 1886:1 
-30 -30 
-30 -30 
-0 -30 1932:1 
-30 -30 
-30 -30 
-27.88295077348554 -0 1463:1 
-30 -30 
-30 -30 
-30 -30 
-0 -10.76454019955504 876:1 1932:1 
-30 -30 
-30 -19.89860030952012 1366:4 
-30 -30 
-30 -0 1326:1 
-30 -30 
-30 -0 1366:2 
-30 -30 
-30 -30 
-30 -30 
-30 -30 
-30 -30 
-30 -30 
-30 -30 
-30 -0 796:1 1359:1 1965:1 
-30 -30 
-30 -30 
-30 -0 1366:2 
-30 -30 
-30 -30 
-30 -30 
-30 -30 
-30 -30 
-30 -30 
-30 -30 
-30 -30 
-30 -30 
-30 -0 1366:2 
-30 -30 
-30 -30 
-30 -30 
-30 -30 
-30 -30 
-30 -29.99966522685963 1781:1 
-30 -30 
-0 -1.49896789476165 234:1 1932:1 
-30 -30 
-30 -30 
-30 -30 
-30 -0 1529:1 
-30 -30 
-30 -30 
-30 -30 
-30 -30 
-30 -30 
-0 -30 1610:1 1932:1 
-30 -30 
-30 -30 
-29.33671210741532 -0 571:1 805:1 1359:1 
-30 -30 
-30 -0 1717:1 1812:1 1932:1 
-30 -30 
-0 -30 1932:1 
-30 -30 
-30 -30 
-30 -30 
-30 -30 
-30 -30 
-30 -30 571:1 1610:1 
-30 -30 
-30 -30 
-30 -30 
-30 -30 
-30 -0 1366:2 
-30 -30 
-30 -30 
-30 -30 
-30 -30 
-30 -30 
-30 -30 
-30 -30 
-30 -30 
-30 -30 
-30 -30 
-30 -30 
-30 -30 
-30 -30 
-30 -30 
-30 -0 1366:2 
-30 -30 
-10.91857160261247 -0.323837827187311 1827:2 
-30 -30 
-30 -0 1366:2 
-30 -30 
-30 -30 
-30 -30 
-30 -30 
-30 -30 
-30 -30 
-30 -30 
-0 -10.72412888846048 796:1 1827:1 
-30 -30 
-30 -30 
-30 -30 
-30 -30 
-30 -30 
-30 -30 
-30 -30 
-30 -30 
-30 -30 
-30 -30 
-30 -30 
-30 -30 
-30 -30 
-30 -30 
-30 -0 796:1 1800:1 
-30 -30 
-30 -30 
-30 -30 
-30 -30 
-30 -30 
-30 -30 
-30 -30 
-30 -30 
-30 -30 
-30 -0 1529:1 
-30 -30 
-30 -0 1812:1 1965:1 2000:1 
-30 -30 
-30 -30 
-30 -30 
-30 -30 
-30 -30 
-30 -0 1366:2 
-30 -30 
-30 -30 
-30 -30 
-30 -30 
-30 -30 
-30 -30 
-30 -30 
-30 -30 
-30 -30 
-30 -30 
-30 -30 
-30 -30 
-30 -30 
-30 -30 
-30 -0.00241264569562075 796:1 1812:1 2000:1 
-30 -30 
-0 -30 1932:1 
-30 -30 
-30 -30 
-30 -0 1366:2 
-30 -30 
-30 -0 1359:1 1432:1 1485:1 1780:1 
-30 -30 
-30 -30 
-30 -30 
-30 -30 
-0 -30 1954:1 
-30 -30 
-30 -30 
-30 -0 
-30 -30 
-30 -0 1366:2 
-30 -30 
-30 -0 1366:2 
-30 -30 
-30 -30 
-30 -30 
-30 -10.07285247590207 1800:1 1827:1 
-30 -30 
-30 -30 
-30 -30 
-30 -30 
-30 -0 1366:2 
-30 -30 
-0 -24.3427743586949 796:1 1827:1 
-30 -0 
-30 -30 
-30 -30 
-30 -30 
-30 -30 
-30 -30 
-0 -30 1932:1 
-30 -30 
-30 -30 
-30 -30 
-30 -30 
-30 -0 
-30 -6.518267781938246 2000:1 
-30 -0 
-0 -23.38955752987589 1932:2 
-30 -0 
-30 -30 
-30 -30 
-30 -30 
-30 -0 1366:2 
-30 -30 
-30 -30 
-30 -30 
-30 -30 
-30 -30 
-30 -30 
-30 -30 
-0 -30 1932:1 
-30 -30 
-30 -30 
-30 -30 
-30 -30 
-30 -30 
-30 -30 
-30 -30 
-30 -30 
-30 -0 1366:2 
-30 -30 
-30 -0 1366:2 
-30 -30 
-30 -30 
-30 -30 
-30 -30 
-30 -30 
-30 -30 
-30 -30 
-30 -30 
-30 -30 
-30 -30 
-29.5361116995341 -0 1748:1 
-30 -30 
-30 -30 
-30 -30 
-30 -30 
-30 -30 
-30 -30 
-30 -30 
-30 -30 
-30 -30 
-30 -30 
-30 -30 
-30 -30 
-30 -30 
-0.2312811727635103 -1.999897948617436 375:1 1610:1 
-30 -30 
-30 -30 
-30 -30 
-30 -30 
-30 -30 
-30 -30 
-30 -30 
-30 -30 
-30 -30 
-30 -30 
-30 -30 
-30 -30 
-30 -30 
-30 -30 
-30 -30 
-30 -30 
-30 -30 
-0.7211001235138105 -0.124516034663839 649:1 698:1 1019:1 
-30 -30 
-30 -30 
-30 -30 
-30 -30 
-30 -30 
-30 -30 
-30 -0 1354:1 
-30 -30 
-7.436673330969599 -0 1745:1 
-30 -30 
-30 -30 
-30 -30 
-30 -30 
-30 -30 
-30 -30 
-30 -30 
-30 -30 
-30 -1.499919276056829 1319:1 1527:1 2010:1 
-30 -30 
-30 -30 
-30 -30 
-30 -30 
-30 -30 
-30 -30 
-0 -11.39883198221559 1657:1 1800:1 
-30 -30 
-30 -30 
-30 -19.01718672299318 1745:1 1800:1 
-30 -30 
-30 -6.583530436577202 796:1 1495:1 2012:1 
-30 -30 
-1.998546359953727 -0.2503394266995199 733:1 1359:1 1566:1 1902:1 2010:1 
-30 -30 
-30 -0.0002800826049457611 796:1 1359:1 1691:1 1717:1 
-30 -30 
-3.805639504084359 -0 663:1 
-30 -30 
-30 -30 
-0 -0.01811084730685752 796:1 
-30 -15.67240183009851 
-30 -30 
-30 -30 
-30 -30 1745:2 1800:1 
-30 -30 
-30 -0 
-30 -0 
-30 -0.5856129039078746 1745:1 
-30 -30 
-30 -30 
-30 -30 
-30 -30 
-30 -30 
-30 -30 
-30 -30 
-30 -30 
-30 -30 
-30 -30 
-30 -30 
-30 -30 
-30 -30 
-30 -30 
-30 -30 
-30 -30 
-30 -30 
-30 -0 
-30 -29.72383188088196 
-30 -30 
-30 -30 
-30 -30 
-30 -30 
-30 -30 
-30 -30 
-30 -30 
-30 -30 
-30 -30 
-30 -30 
-30 -30 
-30 -30 
-30 -30 
-30 -30 
-30 -30 
-30 -30 
-30 -30 
-30 -30 
-30 -30 
-30 -30 
-28.86620261695252 -30 1423:1 1781:1 
-30 -30 
-30 -0 1366:2 
-30 -30 
-0.001581434930974633 -0.0001879988357871532 628:1 737:1 1366:4 
-30 -30 
-30 -30 
-30 -30 
-1.999561896237749 -30 1829:1 2010:1 
-30 -30 
-30 -30 
-30 -30 796:1 2010:1 
-30 -30 
-30 -30 
-30 -30 
-30 -30 2010:1 
-30 -30 
-30 -30 
-30 -30 
-30 -30 1319:1 2012:1 
-30 -30 
-30 -30 
-30 -30 
-30 -30 1319:1 1781:1 
-30 -30 
-30 -30 
-30 -30 
-30 -30 
-30 -30 
-30 -30 
-30 -30 698:1 1968:1 
-30 -30 
-30 -30 
-30 -30 
-30 -30 
-30 -30 
-30 -30 
-30 -30 
-19.27452769652404 -0 1354:1 1432:1 1604:1 
-30 -30 
-2.116594920756347 -0.03236690372103566 1245:1 1463:1 
-30 -30 
-30 -16.92839914756904 2000:1 
-30 -30 
-30 -30 
-30 -30 
-30 -30 
-30 -30 
-30 -30 
-30 -30 
-30 -30 
-30 -30 
-0.2496968972075269 -0.4457816760106583 162:1 624:1 1495:1 1800:1 
-30 -30 
-30 -30 
-30 -0.8641329771223375 796:1 1366:2 
-30 -30 
-0 -30 319:1 2010:1 
-30 -30 
-30 -30 
-30 -30 
-30 -30 
-30 -30 
-0 -6.209001830772628 796:1 1359:1 
-30 -30 
-0 -30 575:1 
-30 -30 
-30 -0 1366:2 
-30 -30 
-30 -30 
-30 -30 
-30 -0 
-30 -30 
-30 -30 
-30 -30 
-30 -0 
-30 -30 
-30 -30 
-30 -0 
-30 -26.03322242231837 
-30 -30 
-30 -0 
-30 -30 
-30 -8.376160050988894 1827:1 
-30 -30 
-30 -30 
-30 -30 
-30 -30 
-30 -30 
-30 -30 
-10.32952509411526 -30 1511:1 2010:1 
-30 -30 
-30 -30 
-30 -30 
-0 -29.99992621871974 796:1 1088:1 
-30 -30 
-30 -30 
-30 -2.385513726584733 
-30 -6.271197485058524 
-30 -30 
-30 -30 
-30 -30 
-8.558379080054918 -0 796:1 
-30 -30 
-30 -30 
-30 -14.8333009660784 1359:1 1883:1 
-30 -30 
-29.99980659076577 -0 515:1 
-30 -30 
-30 -30 
-30 -30 
-30 -30 
-30 -30 
-30 -30 
-30 -30 
-30 -30 
-30 -30 796:3 1745:1 1883:1 
-30 -30 
-30 -30 2010:1 
-30 -30 
-30 -30 
-30 -30 
-29.6395714779798 -0.06517473056041792 49:1 1521:1 
-30 -30 
-30 -30 
-30 -0 1459:1 
-30 -30 
-30 -29.29601543556478 
-30 -30 
-30 -30 
-30 -7.745097989715143 1745:1 
-30 -30 
-30 -30 
-30 -0 
-30 -0 
-30 -0 
-30 -0 
-30 -0 
-30 -0.3197368800507388 1359:1 1366:2 
-30 -30 
-0 -0.1888350427809134 1511:1 
-30 -30 
-30 -0.9548734804716756 1366:6 
-30 -30 
-30 -30 
-30 -30 
-30 -30 
-30 -30 
-30 -30 
-30 -30 
-30 -30 
-30 -30 
-25.19160820106812 -0 1649:1 
-30 -30 
-30 -30 
-30 -30 
-30 -30 
-30 -30 
-30 -30 
-30 -30 
-30 -30 
-30 -30 
-30 -30 
-30 -30 
-30 -30 
-30 -30 
-30 -30 
-30 -30 
-30 -30 
-30 -30 
-30 -30 
-30 -0 796:1 
-30 -30 
-30 -30 
-30 -30 
-30 -30 
-30 -30 
-30 -30 
-30 -30 
-30 -30 
-30 -30 
-30 -30 
-30 -30 
-30 -30 
-30 -0 1202:1 
-30 -30 
-30 -30 
-30 -30 
-30 -30 
-30 -30 
-30 -30 
-30 -30 
-30 -0.2169112915801614 796:1 876:1 1359:1 1366:2 1485:1 
-30 -30 
-30 -30 
-30 -30 
-0.2595749702135863 -0 796:1 1485:1 
-30 -30 
-30 -0.02466010800907721 796:1 1800:1 
-30 -30 
-30 -30 
-30 -30 
-30 -30 
-15.86376880149202 -0 1800:1 
-30 -30 
-30 -30 
-30 -0 1800:1 
-30 -30 
-30 -30 
-30 -30 
-30 -30 
-30 -30 
-30 -30 
-30 -30 
-30 -30 
-30 -30 
-30 -30 
-0 -1.439868679604065e-05 571:2 796:2 1366:4 1800:1 1932:1 
-30 -30 
-30 -0 1800:1 
-30 -30 
-30 -30 
-30 -30 
-30 -30 
-30 -30 
-10.08879065756076 -0 1780:1 
-30 -30 
-30 -30 
-30 -30 
-30 -30 
-30 -30 2010:1 
-30 -30 
-30 -30 
-30 -30 
-30 -30 
-30 -0 1366:2 
-30 -30 
-30 -30 2010:1 
-30 -30 
-0.2161901585631 -0 796:1 1354:1 1487:1 1827:1 
-30 -30 
-0.4352698172631505 -0 1366:2 1485:1 1487:1 
-30 -30 
-30 -30 
-30 -30 
-30 -0 1354:1 1827:1 
-30 -30 
-30 -30 
-30 -0 1366:2 
-30 -30 
-30 -0 796:1 
-30 -30 
-30 -27.52438432494111 1745:1 
-30 -30 
-30 -30 
-30 -30 
-30 -30 
-30 -30 
-30 -30 
-30 -30 
-30 -30 
-30 -0 1359:1 1929:1 
-30 -30 
-30 -30 
-30 -30 
-30 -0 1366:2 
-30 -30 
-1.331006322338126 -0 796:2 1485:1 
-30 -30 
-30 -0 796:1 1991:1 
-30 -30 
-30 -0.5005996695548387 628:1 1991:1 2010:1 
-30 -30 
-30 -30 
-30 -30 
-1.999463206721511 -30 572:1 
-30 -30 
-30 -30 
-30 -30 
-30 -30 
-13.12206765735664 -8.027382963507453 24:1 796:1 1529:1 
-30 -30 
-30 -30 
-30 -30 
-30 -30 
-30 -30 
-30 -30 
-30 -30 
-30 -30 
-30 -10.26662892928797 796:7 1366:6 
-30 -30 
-29.9996494678564 -0 1657:1 1830:1 
-30 -30 
-30 -0.1337210226776572 1359:1 
-30 -30 
-0 -30 1960:1 
-30 -30 
-30 -30 
-30 -30 
-30 -0 1359:1 
-30 -30 
-30 -0 796:1 
-30 -30 
-30 -30 
-30 -30 
-30 -30 1485:1 2010:1 
-30 -30 
-30 -30 
-30 -30 
-30 -30 
-30 -30 
-30 -30 
-30 -30 
-30 -0 1624:1 
-30 -30 
-30 -30 
-30 -30 
-30 -30 
-30 -30 
-30 -30 
-30 -30 
-30 -26.30275435713858 796:2 1009:1 1366:2 
-30 -30 
-30 -30 
-30 -30 
-30 -30 
-0 -0.2787509905930055 796:1 1359:1 
-30 -30 
-30 -30 
-30 -30 
-30 -30 
-30 -30 
-30 -30 
-30 -30 
-0 -30 
-30 -30 
-30 -30 
-30 -0 1758:1 
-30 -30 
-0 -30 
-30 -30 
-30 -30 
-30 -30 
-1.999818758639151 -0 903:1 1930:1 
-30 -30 
-30 -30 
-30 -30 
-30 -30 
-30 -30 
-30 -30 
-30 -30 
-30 -30 
-30 -30 
-30 -30 
-30 -30 
-30 -30 
-30 -30 
-30 -30 
-30 -30 
-30 -30 
-30 -30 
-30 -30 
-30 -30 
-30 -30 
-30 -30 
-30 -30 
-30 -30 
-30 -30 
-30 -30 
-30 -30 
-30 -30 
-30 -30 
-30 -30 
-30 -30 
-30 -30 
-30 -30 
-3.113593256453304 -16.80137208760984 566:1 1366:2 
-30 -30 
-30 -30 
-30 -30 
-30 -30 
-30 -30 
-30 -30 
-30 -30 
-30 -30 
-30 -30 
-30 -30 
-30 -30 
-30 -30 
-30 -30 
-30 -30 
-30 -30 
-4.223085371635463 -0 1748:1 1800:1 
-30 -30 
-30 -30 
-30 -30 
-0 -13.1982983012734 566:1 
-30 -30 
-30 -30 
-30 -30 
-30 -30 
-30 -30 
-30 -30 
-30 -30 
-10.64643194095613 -0 1748:1 1800:1 
-30 -30 
-0.9999702391721637 -0 1341:2 1800:1 
-30 -30 
-30 -30 
-30 -30 
-30 -30 
-30 -30 
-30 -30 
-30 -30 
-30 -30 
-30 -30 
-0 -30 
-0 -10.79470849020711 1657:1 
-0 -30 
-0 -30 
-0 -30 
-0 -30 1932:1 
-0 -30 
-30 -30 
-30 -30 
-30 -0 698:1 733:1 
-30 -30 
-0 -30 
-21.94314032628713 -30 
-30 -30 
-30 -30 
-14.9997810916982 -2.369960866266768 673:2 1657:1 
-30 -30 
-30 -30 
-30 -30 1657:1 2010:2 
-30 -30 
-30 -30 
-0 -30 
-0 -30 
-0 -30 
-0 -30 
-0 -30 
-0 -30 
-30 -30 
-30 -30 1745:1 
-30 -30 
-30 -30 
-30 -30 
-30 -30 
-0 -29.84458518172309 818:1 
-30 -30 
-30 -30 
-30 -30 
-30 -25.26029074260131 673:1 796:1 1366:2 
-30 -30 
-0 -30 796:2 1424:1 
-30 -30 
-30 -30 
-0 -29.9997338152716 586:1 673:1 1657:1 
-30 -30 
-30 -30 
-30 -30 
-0.09292174763988155 -0 174:1 575:2 883:1 1054:1 
-30 -30 
-7.979816398982121 -0 381:1 1430:1 
-30 -30 
-30 -30 
-0.1643322847559787 -29.97692584748498 796:1 838:1 
-30 -30 
-30 -30 
-30 -30 
-30 -30 
-30 -7.863786392397405 1521:1 1800:2 
-30 -30 
-30 -30 
-29.40025990581671 -1.861001411415992 1521:1 
-30 -30 
-30 -30 796:2 1319:1 
-30 -30 
-30 -30 
-0 -2.500201205007685 818:1 1319:2 1366:2 1745:1 1800:1 2010:1 2046:1 
-30 -30 
-30 -30 
-30 -30 
-0 -1.717250138498405 818:1 
-30 -30 
-30 -30 
-0 -10.6854015573608 1423:1 
-30 -30 
-30 -30 
-30 -30 
-30 -30 
-30 -30 
-30 -30 
-30 -30 
-30 -30 
-30 -30 
-30 -30 
-30 -30 
-30 -30 
-30 -30 
-30 -30 
-30 -30 
-30 -30 
-30 -30 
-30 -30 
-30 -30 
-30 -30 
-30 -30 
-30 -30 
-30 -30 
-30 -30 
-30 -30 
-30 -30 
-30 -30 
-30 -30 
-30 -30 
-30 -30 
-30 -30 
-30 -30 
-30 -30 
-30 -30 
-30 -30 
-30 -30 
-30 -30 
-30 -30 
-30 -30 
-30 -30 
-30 -30 
-30 -30 
-30 -30 
-30 -30 
-30 -30 
-30 -30 
-30 -30 
-30 -30 
-30 -30 
-30 -30 
-30 -30 
-30 -30 
-30 -30 
-0 -30 1745:1 
-30 -30 
-30 -22.67335735682112 1521:1 
-30 -30 
-30 -30 
-30 -30 
-30 -30 
-30 -30 
-0 -4.198504208529215 2001:1 
-30 -30 
-30 -22.33039282137741 628:1 
-30 -30 
-30 -30 
-30 -30 
-30 -30 
-0 -2 1366:2 
-30 -30 
-30 -30 
-30 -30 
-30 -30 
-30 -30 
-30 -30 
-13.05493955130786 -3.787923869523598 1359:1 1827:1 
-30 -30 
-5.193506613855195 -0 1485:1 1883:1 
-30 -30 
-30 -1.53579490413413 1485:1 1521:1 1800:1 1883:1 
-30 -30 
-30 -30 
-30 -30 
-30 -30 
-30 -30 
-30 -30 
-30 -30 
-30 -30 
-30 -30 
-30 -30 
-30 -0.2486385554254165 698:1 1485:1 1827:1 1900:1 
-30 -30 
-30 -30 
-30 -30 
-30 -30 
-30 -30 
-30 -30 
-30 -30 
-30 -30 
-30 -30 
-30 -30 
-30 -30 
-30 -30 
-30 -30 
-30 -30 
-30 -30 
-30 -30 
-30 -30 
-0 -30 1319:1 
-30 -30 
-30 -30 
-30 -30 
-30 -30 
-30 -30 
-30 -30 
-30 -30 
-1.22060480682076 -5.564027819164492 628:1 1657:1 
-30 -30 
-30 -30 
-30 -30 
-26.7180924086164 -0 1892:1 2002:1 
-30 -30 
-30 -30 
-30 -30 1485:1 1610:1 
-30 -30 
-30 -30 
-30 -30 
-30 -30 
-0 -30 796:1 1932:1 
-30 -30 
-30 -30 
-30 -30 
-30 -30 
-30 -30 
-30 -30 
-30 -30 
-30 -30 
-30 -30 
-30 -30 
-30 -30 
-30 -30 
-30 -30 
-30 -30 
-30 -30 
-0 -5.298132944346936 796:2 
-30 -30 
-30 -30 
-30 -30 
-30 -30 
-30 -30 
-30 -30 
-30 -30 
-30 -30 
-30 -30 
-30 -30 
-30 -30 
-30 -30 
-30 -30 
-0.1717273653839686 -0 876:1 
-30 -30 
-30 -30 
-30 -30 
-30 -0 1202:1 
-30 -30 
-30 -30 
-30 -30 
-30 -0.7493405479304103 418:1 1377:1 
-30 -30 
-30 -0 1883:1 
-30 -30 
-3.999282475685251 -0 2010:2 2046:1 
-30 -30 
-0 -30 1932:1 
-30 -30 
-30 -30 
-6.720026904372383 -0.5003494691584371 1887:1 2010:1 
-30 -30 
-30 -30 
-30 -30 
-30 -30 
-30 -30 
-30 -30 
-28.72289852731749 -0 1019:1 1202:1 1748:1 1800:1 
-30 -30 
-30 -30 
-30 -30 
-30 -30 
-30 -30 
-30 -30 
-30 -30 
-30 -30 
-0 -0.0004291662227580251 805:1 1366:2 1745:1 1932:1 
-30 -30 
-30 -30 
-30 -30 
-30 -30 
-30 -30 
-30 -30 
-30 -30 
-0 -0.7141858272858028 1827:1 
-30 -30 
-30 -30 
-30 -30 
-30 -0 1394:1 
-30 -30 
-3.998333721088127 -0.9999079406830731 1596:1 1886:1 1976:1 
-30 -30 
-30 -30 
-30 -30 
-30 -30 
-30 -30 
-0 -30 1366:2 
-30 -0 
-2.360347585104803 -0.9997831548439894 1437:1 
-30 -30 
-30 -30 
-30 -30 
-30 -30 
-30 -30 
-30 -30 
-30 -30 
-30 -30 
-30 -30 
-30 -30 
-30 -30 
-30 -30 
-30 -30 
-30 -30 
-30 -30 
-30 -30 
-30 -30 
-30 -30 
-30 -30 796:1 1366:2 
-30 -30 
-30 -30 
-30 -30 
-30 -30 
-30 -30 
-30 -30 572:1 
-30 -30 
-30 -30 
-30 -30 
-30 -30 
-30 -30 
-30 -30 
-30 -0 
-9.917855322744941 -0 1485:1 1800:1 
-30 -30 
-24.20605254749403 -0.2101986538406352 628:1 1359:1 
-30 -30 
-2.220085388146222 -0 24:1 
-30 -30 
-30 -30 
-30 -30 
-30 -30 
-30 -30 
-30 -0 
-30 -30 
-30 -30 
-30 -30 
-30 -30 
-5.65474875248878 -1.485560992894135 319:1 1009:1 1354:1 2010:1 
-30 -30 
-0 -30 1319:1 
-30 -30 
-30 -30 1319:1 2010:1 
-30 -30 
-30 -30 
-30 -30 
-30 -30 
-30 -30 
-30 -30 
-30 -30 
-0.6375260849779625 -0 1693:1 1847:1 2000:1 
-30 -30 
-30 -30 
-30 -30 
-30 -30 
-30 -30 
-9.006301212223516 -0 1604:1 1745:1 
-30 -30 
-30 -30 
-30 -30 
-30 -30 
-30 -30 
-30 -30 
-30 -30 
-30 -30 
-30 -30 
-30 -30 
-30 -30 
-30 -30 
-30 -30 
-30 -30 
-30 -30 
-30 -30 
-30 -0.01249468858407215 1359:1 1800:1 
-30 -30 
-30 -30 
-30 -30 
-30 -30 
-30 -0 1566:1 2010:1 2012:1 
-30 -30 
-26.82004579126327 -0.500366712659396 1287:1 1932:1 2010:1 
-30 -30 
-0.0006303437243100317 -1.998869015728274 1319:2 1812:1 1865:1 
-0 -30 
-30 -30 
-0 -30 
-30 -30 
-16.00309607224129 -30 327:1 1366:2 2010:1 
-30 -30 
-30 -30 
-30 -0 1366:2 1745:1 1758:1 2000:1 2012:1 
-30 -30 
-30 -30 
-30 -30 
-30 -30 
-30 -30 
-30 -30 
-0 -0.3061463634251946 327:1 1359:1 
-30 -30 
-30 -30 
-30 -30 
-30 -30 
-30 -30 
-30 -30 
-30 -30 
-30 -30 
-30 -30 
-30 -30 
-30 -30 
-30 -30 
-30 -30 
-30 -30 
-26.5959659093237 -0 1696:1 2000:1 
-30 -30 
-30 -30 
-30 -30 
-30 -30 
-0 -30 1366:2 
-30 -30 
-30 -30 
-4.101934563966142 -30 1366:2 1657:1 
-30 -30 
-30 -30 
-30 -30 
-30 -30 
-30 -30 
-30 -30 
-30 -30 
-30 -30 
-30 -3.272358787185257 516:1 796:1 1610:1 2010:2 
-30 -30 
-30 -30 
-30 -30 
-30 -30 
-30 -30 
-30 -30 
-30 -30 
-30 -30 
-30 -30 
-30 -30 
-30 -0 1696:1 1800:1 1812:1 1886:1 
-30 -30 
-30 -30 
-30 -30 2010:1 
-30 -30 
-30 -30 
-30 -14.72870809974744 1696:1 1886:1 
-30 -30 
-30 -30 
-30 -30 
-30 -30 
-30 -30 
-30 -30 
-30 -30 
-30 -30 
-30 -30 
-30 -30 
-30 -30 
-30 -30 
-30 -30 
-30 -30 
-30 -30 
-30 -30 
-30 -30 
-30 -30 
-30 -30 
-30 -30 
-30 -30 
-30 -3.999063779310476 406:1 1319:1 1366:4 
-30 -30 
-30 -30 
-30 -30 
-30 -30 
-30 -30 
-30 -30 
-30 -30 
-30 -30 
-30 -30 
-30 -30 
-30 -30 
-30 -30 
-30 -30 
-30 -30 
-30 -30 
